{"learner":{"attributes":{"scikit_learn":"{\"_estimator_type\": \"regressor\"}"},"feature_names":[],"feature_types":[],"gradient_booster":{"model":{"gbtree_model_param":{"num_parallel_tree":"1","num_trees":"300"},"iteration_indptr":[0,3,6,9,12,15,18,21,24,27,30,33,36,39,42,45,48,51,54,57,60,63,66,69,72,75,78,81,84,87,90,93,96,99,102,105,108,111,114,117,120,123,126,129,132,135,138,141,144,147,150,153,156,159,162,165,168,171,174,177,180,183,186,189,192,195,198,201,204,207,210,213,216,219,222,225,228,231,234,237,240,243,246,249,252,255,258,261,264,267,270,273,276,279,282,285,288,291,294,297,300],"tree_info":[0,1,2,0,1,2,0,1,2,0,1,2,0,1,2,0,1,2,0,1,2,0,1,2,0,1,2,0,1,2,0,1,2,0,1,2,0,1,2,0,1,2,0,1,2,0,1,2,0,1,2,0,1,2,0,1,2,0,1,2,0,1,2,0,1,2,0,1,2,0,1,2,0,1,2,0,1,2,0,1,2,0,1,2,0,1,2,0,1,2,0,1,2,0,1,2,0,1,2,0,1,2,0,1,2,0,1,2,0,1,2,0,1,2,0,1,2,0,1,2,0,1,2,0,1,2,0,1,2,0,1,2,0,1,2,0,1,2,0,1,2,0,1,2,0,1,2,0,1,2,0,1,2,0,1,2,0,1,2,0,1,2,0,1,2,0,1,2,0,1,2,0,1,2,0,1,2,0,1,2,0,1,2,0,1,2,0,1,2,0,1,2,0,1,2,0,1,2,0,1,2,0,1,2,0,1,2,0,1,2,0,1,2,0,1,2,0,1,2,0,1,2,0,1,2,0,1,2,0,1,2,0,1,2,0,1,2,0,1,2,0,1,2,0,1,2,0,1,2,0,1,2,0,1,2,0,1,2,0,1,2,0,1,2,0,1,2,0,1,2,0,1,2,0,1,2,0,1,2,0,1,2,0,1,2,0,1,2,0,1,2,0,1,2,0,1,2,0,1,2],"trees":[{"base_weights":[5.1032363E3,-1.4641068E2,5.853177E3,-3.0502307E3,9.897411E2,4.7044307E3,5.858228E3,-3.2256973E3,-1.9820543E3,8.89502E2,1.285967E3,4.2461353E3,1.5979318E3,5.867492E3,5.767827E3,-2.667938E3,-3.5163926E3,4.7568516E3,-2.4316558E3,1.2602424E3,8.4335486E2,2.2651208E3,8.2547327E2,4.6484414E3,2.7796335E3,5.8543643E3,1.7746552E3,1.6989209E3,1.7424612E3,-8.628205E2,-6.537077E2,-8.1478925E2,-1.085891E3,6.8663763E2,1.6817716E3,-7.8651996E2,-1.2505651E2,4.0615735E2,2.5719394E2,2.8398822E2,2.399042E2,3.7996964E2,8.284744E2,3.8347913E2,2.4110942E2,1.1958655E3,1.5988082E3,5.6629755E2,1.367923E3,1.744357E3,1.759387E3],"categories":[],"categories_nodes":[],"categories_segments":[],"categories_sizes":[],"default_left":[0,0,0,0,0,0,0,0,0,0,0,0,0,0,0,0,0,0,0,0,0,0,0,0,0,0,0,0,0,0,0,0,0,0,0,0,0,0,0,0,0,0,0,0,0,0,0,0,0,0,0],"id":0,"left_children":[1,3,5,7,9,11,13,15,17,19,21,23,-1,25,27,29,31,33,35,37,39,41,43,45,47,49,-1,-1,-1,-1,-1,-1,-1,-1,-1,-1,-1,-1,-1,-1,-1,-1,-1,-1,-1,-1,-1,-1,-1,-1,-1],"loss_changes":[6.535373E11,6.846431E10,8.1526784E8,1.087443E9,4.417628E8,1.6010957E8,8.75561E7,8.030904E8,2.514199E9,1.8966426E8,1.6975508E9,2.0773222E8,0E0,4.771021E7,2.4182784E7,1.688576E8,2.621399E8,9.613594E7,2.9570765E8,4.531085E7,4.3972096E7,5.938729E8,2.4262528E7,1.1042509E8,1.2318131E8,8.126464E6,0E0,0E0,0E0,0E0,0E0,0E0,0E0,0E0,0E0,0E0,0E0,0E0,0E0,0E0,0E0,0E0,0E0,0E0,0E0,0E0,0E0,0E0,0E0,0E0,0E0],"parents":[2147483647,0,0,1,1,2,2,3,3,4,4,5,5,6,6,7,7,8,8,9,9,10,10,11,11,13,13,14,14,15,15,16,16,17,17,18,18,19,19,20,20,21,21,22,22,23,23,24,24,25,25],"right_children":[2,4,6,8,10,12,14,16,18,20,22,24,-1,26,28,30,32,34,36,38,40,42,44,46,48,50,-1,-1,-1,-1,-1,-1,-1,-1,-1,-1,-1,-1,-1,-1,-1,-1,-1,-1,-1,-1,-1,-1,-1,-1,-1],"split_conditions":[7.241E3,6.293E3,1.1539E4,1.2487E4,6.825E3,7E3,1.2369E4,5E3,6E3,6.346E3,1.2466E4,2E3,1.5979318E3,1.1684E4,1.1611E4,2.063E3,2.032E3,1.2501E4,1.2578E4,2.412E3,6.42E3,1.2369E4,1.2472E4,2.422E3,6E3,1.1602E4,1.7746552E3,1.6989209E3,1.7424612E3,-8.628205E2,-6.537077E2,-8.1478925E2,-1.085891E3,6.8663763E2,1.6817716E3,-7.8651996E2,-1.2505651E2,4.0615735E2,2.5719394E2,2.8398822E2,2.399042E2,3.7996964E2,8.284744E2,3.8347913E2,2.4110942E2,1.1958655E3,1.5988082E3,5.6629755E2,1.367923E3,1.744357E3,1.759387E3],"split_indices":[0,0,0,1,1,2,1,2,2,0,1,2,0,0,0,0,0,1,1,1,0,1,1,1,2,0,0,0,0,0,0,0,0,0,0,0,0,0,0,0,0,0,0,0,0,0,0,0,0,0,0],"split_type":[0,0,0,0,0,0,0,0,0,0,0,0,0,0,0,0,0,0,0,0,0,0,0,0,0,0,0,0,0,0,0,0,0,0,0,0,0,0,0,0,0,0,0,0,0,0,0,0,0,0,0],"sum_hessian":[1.66001E5,2.075E4,1.45251E5,5.835E3,1.4915E4,6.4E2,1.44611E5,5.01E3,8.25E2,1.1147E4,3.768E3,3.73E2,2.67E2,1.31111E5,1.35E4,1.72E3,3.29E3,5.1E1,7.74E2,1.231E3,9.916E3,1.204E3,2.564E3,2.91E2,8.2E1,1.03061E5,2.805E4,3.795E3,9.705E3,1.203E3,5.17E2,3.79E2,2.911E3,1.4E1,3.7E1,7.07E2,6.7E1,9.97E2,2.34E2,2.941E3,6.975E3,4.01E2,8.03E2,1.15E2,2.449E3,1.51E2,1.4E2,5.6E1,2.6E1,2.122E4,8.1841E4],"tree_param":{"num_deleted":"0","num_feature":"3","num_nodes":"51","size_leaf_vector":"1"}},{"base_weights":[-2.1207966E3,-3.1319868E3,5.7902373E3,-3.245604E3,1.0322604E3,1.7342528E3,5.936442E3,-3.275424E3,-1.6533148E3,1.3925425E3,-2.7793374E3,1.5938667E3,2.556627E3,5.2425874E3,6.1605513E3,-2.9576902E3,-3.3006826E3,-1.1689288E3,-2.9481094E3,3.9734187E3,1.1234205E3,-2.8075427E3,1.0088773E3,1.682455E3,8.7686664E2,3.3334104E3,1.2125472E3,4.765685E3,5.4820903E3,6.4394805E3,6.0781167E3,-9.174045E2,-5.772552E2,-9.907289E2,-9.6688855E2,-3.7831158E2,-2.8203506E2,-8.448936E2,-9.693493E2,9.0708813E2,1.2969114E3,3.5023257E2,3.2628845E2,-4.6314392E2,-8.764554E2,-3.3038788E2,5.1383954E2,4.1570633E2,-6.028009E2,1.1455868E3,3.344334E2,-5.0261475E2,5.902217E2,1.1586443E3,1.5563413E3,1.7147019E3,1.6026777E3,1.9011008E3,1.9844813E3,1.8493519E3,1.8004344E3],"categories":[],"categories_nodes":[],"categories_segments":[],"categories_sizes":[],"default_left":[0,0,0,0,0,0,0,0,0,0,0,0,0,0,0,0,0,0,0,0,0,0,0,0,0,0,0,0,0,0,0,0,0,0,0,0,0,0,0,0,0,0,0,0,0,0,0,0,0,0,0,0,0,0,0,0,0,0,0,0,0],"id":1,"left_children":[1,3,5,7,9,11,13,15,17,19,21,23,25,27,29,31,33,35,37,39,41,43,-1,45,47,49,51,53,55,57,59,-1,-1,-1,-1,-1,-1,-1,-1,-1,-1,-1,-1,-1,-1,-1,-1,-1,-1,-1,-1,-1,-1,-1,-1,-1,-1,-1,-1,-1,-1],"loss_changes":[1.327961E12,6.964301E10,1.114656E10,6.797787E9,5.373279E9,7.166016E7,2.7913748E9,1.1189617E9,1.6498017E9,2.4772372E9,6.799821E7,3.4285184E7,9.409958E7,4.8100966E8,2.7633254E8,1.0690314E9,7.077888E6,3.927987E7,1.7648128E7,9.883443E7,3.830272E6,4.4029184E7,0E0,4.4120576E7,9.677222E7,5.9257024E7,8.177535E7,5.490135E8,6.578995E7,1.404928E7,3.325952E7,0E0,0E0,0E0,0E0,0E0,0E0,0E0,0E0,0E0,0E0,0E0,0E0,0E0,0E0,0E0,0E0,0E0,0E0,0E0,0E0,0E0,0E0,0E0,0E0,0E0,0E0,0E0,0E0,0E0,0E0],"parents":[2147483647,0,0,1,1,2,2,3,3,4,4,5,5,6,6,7,7,8,8,9,9,10,10,11,11,12,12,13,13,14,14,15,15,16,16,17,17,18,18,19,19,20,20,21,21,23,23,24,24,25,25,26,26,27,27,28,28,29,29,30,30],"right_children":[2,4,6,8,10,12,14,16,18,20,22,24,26,28,30,32,34,36,38,40,42,44,-1,46,48,50,52,54,56,58,60,-1,-1,-1,-1,-1,-1,-1,-1,-1,-1,-1,-1,-1,-1,-1,-1,-1,-1,-1,-1,-1,-1,-1,-1,-1,-1,-1,-1,-1,-1],"split_conditions":[6.825E3,2.458E3,1.2369E4,2.43E3,1.157E4,1.1653E4,7.241E3,7.241E3,7.241E3,6.67E3,1.1841E4,6E3,1.1691E4,6.438E3,1.1601E4,2.418E3,2.42E3,6.52E3,2.448E3,6.456E3,6.502E3,1.163E4,1.0088773E3,2.047E3,1.1612E4,6E3,1.1697E4,1.2472E4,1.2494E4,1.248E4,1.1649E4,-9.174045E2,-5.772552E2,-9.907289E2,-9.6688855E2,-3.7831158E2,-2.8203506E2,-8.448936E2,-9.693493E2,9.0708813E2,1.2969114E3,3.5023257E2,3.2628845E2,-4.6314392E2,-8.764554E2,-3.3038788E2,5.1383954E2,4.1570633E2,-6.028009E2,1.1455868E3,3.344334E2,-5.0261475E2,5.902217E2,1.1586443E3,1.5563413E3,1.7147019E3,1.6026777E3,1.9011008E3,1.9844813E3,1.8493519E3,1.8004344E3],"split_indices":[1,1,1,1,0,0,0,0,0,1,0,2,0,0,0,1,1,0,1,0,0,0,0,0,0,2,0,1,1,1,0,0,0,0,0,0,0,0,0,0,0,0,0,0,0,0,0,0,0,0,0,0,0,0,0,0,0,0,0,0,0],"split_type":[0,0,0,0,0,0,0,0,0,0,0,0,0,0,0,0,0,0,0,0,0,0,0,0,0,0,0,0,0,0,0,0,0,0,0,0,0,0,0,0,0,0,0,0,0,0,0,0,0,0,0,0,0,0,0,0,0,0,0,0,0],"sum_hessian":[1.66001E5,1.47188E5,1.8813E4,1.43279E5,3.909E3,6.55E2,1.8158E4,1.40644E5,2.635E3,3.572E3,3.37E2,5.62E2,9.3E1,4.439E3,1.3719E4,1.0366E4,1.30278E5,1.919E3,7.16E2,3.36E2,3.236E3,3.36E2,1E0,4.99E2,6.3E1,5.8E1,3.5E1,1.491E3,2.948E3,3.112E3,1.0607E4,9.447E3,9.19E2,1.27374E5,2.904E3,1.365E3,5.54E2,4.96E2,2.2E2,9.3E1,2.43E2,1.437E3,1.799E3,2.9E1,3.07E2,5E0,4.94E2,5.4E1,9E0,4.7E1,1.1E1,7E0,2.8E1,4.78E2,1.013E3,1.089E3,1.859E3,1.988E3,1.124E3,4.95E3,5.657E3],"tree_param":{"num_deleted":"0","num_feature":"3","num_nodes":"61","size_leaf_vector":"1"}},{"base_weights":[-2.9824392E3,-4.5339233E3,2.3541875E2,-1.4219424E3,-3.6496719E3,-7.899559E2,1.2077738E3,-1.1234622E3,-7.9623035E2,-5.0828098E2,-2.2536449E2,3.0615427E2,3.733903E2,7.691399E1,3.5582312E2,1.1376676E2,7.9027565E1],"categories":[],"categories_nodes":[],"categories_segments":[],"categories_sizes":[],"default_left":[0,0,0,0,0,0,0,0,0,0,0,0,0,0,0,0,0],"id":2,"left_children":[1,3,5,-1,7,9,11,-1,-1,-1,-1,13,-1,-1,15,-1,-1],"loss_changes":[8.287587E11,2.0373045E10,5.3842473E10,0E0,1.9953418E9,9.1959706E8,9.207972E8,0E0,0E0,0E0,0E0,2.603512E6,0E0,0E0,1.074096E6,0E0,0E0],"parents":[2147483647,0,0,1,1,2,2,4,4,5,5,6,6,11,11,14,14],"right_children":[2,4,6,-1,8,10,12,-1,-1,-1,-1,14,-1,-1,16,-1,-1],"split_conditions":[4E3,2E3,6E3,-1.4219424E3,3E3,5E3,7E3,-1.1234622E3,-7.9623035E2,-5.0828098E2,-2.2536449E2,7.241E3,3.733903E2,7.691399E1,1.1641E4,1.1376676E2,7.9027565E1],"split_indices":[2,2,2,0,2,2,2,0,0,0,0,0,0,0,0,0,0],"split_type":[0,0,0,0,0,0,0,0,0,0,0,0,0,0,0,0,0],"sum_hessian":[1.66001E5,1.12E5,5.4001E4,9.0844E4,2.1156E4,2.6284E4,2.7717E4,1.9307E4,1.849E3,1.078E3,2.5206E4,1.089E3,2.6628E4,5.47E2,5.42E2,4.3E2,1.12E2],"tree_param":{"num_deleted":"0","num_feature":"3","num_nodes":"17","size_leaf_vector":"1"}},{"base_weights":[3.5723625E3,-1.02436424E2,4.097327E3,-2.1354973E3,6.930212E2,3.302972E3,4.10082E3,-2.2484043E3,-1.3105707E3,6.227579E2,9.006632E2,2.9563794E3,3.7019895E3,4.0829724E3,4.128663E3,-1.989954E3,-2.5988625E3,1.1905173E3,-1.6089089E3,8.8270825E2,5.904011E2,1.6844843E3,6.037143E2,3.1795212E3,-4.9470105E2,1.5411354E3,3.7264802E3,4.0917717E3,3.9966572E3,1.237368E3,1.2894165E3,-4.1560464E2,-6.432527E2,-7.882839E2,-7.139577E2,-5.265144E2,-8.809124E1,2.8072662E2,1.3968442E2,1.7739441E2,-7.877112E2,2.6626227E2,6.5614343E2,2.8591794E2,1.6880615E2,8.2943427E2,1.0865737E3,-2.3075679E2,7.9043274E2,-7.5961115E2,9.577314E2,1.1608978E3,9.6910223E2,1.1894962E3,1.2284291E3,1.1587523E3,1.2053346E3],"categories":[],"categories_nodes":[],"categories_segments":[],"categories_sizes":[],"default_left":[0,0,0,0,0,0,0,0,0,0,0,0,0,0,0,0,0,0,0,0,0,0,0,0,0,0,0,0,0,0,0,0,0,0,0,0,0,0,0,0,0,0,0,0,0,0,0,0,0,0,0,0,0,0,0,0,0],"id":3,"left_children":[1,3,5,7,9,11,13,15,17,19,21,23,25,27,29,31,33,-1,35,37,39,41,43,45,47,49,51,53,55,-1,-1,-1,-1,-1,-1,-1,-1,-1,-1,-1,-1,-1,-1,-1,-1,-1,-1,-1,-1,-1,-1,-1,-1,-1,-1,-1,-1],"loss_changes":[3.2024166E11,3.3560283E10,3.8928384E8,5.4061875E8,2.170583E8,7.770317E7,5.505024E7,4.5966336E8,1.116701E9,9.324595E7,8.762363E8,2.6956083E8,9.816064E6,5.0724864E7,2.1495808E7,2.7284378E8,7.440384E6,0E0,1.278825E8,2.6822976E7,3.0689792E7,4.126715E8,3.866349E7,4.998349E7,2.092474E7,4.171357E7,8.100096E6,1.4155776E7,7.74144E6,0E0,0E0,0E0,0E0,0E0,0E0,0E0,0E0,0E0,0E0,0E0,0E0,0E0,0E0,0E0,0E0,0E0,0E0,0E0,0E0,0E0,0E0,0E0,0E0,0E0,0E0,0E0,0E0],"parents":[2147483647,0,0,1,1,2,2,3,3,4,4,5,5,6,6,7,7,8,8,9,9,10,10,11,11,12,12,13,13,14,14,15,15,16,16,18,18,19,19,20,20,21,21,22,22,23,23,24,24,25,25,26,26,27,27,28,28],"right_children":[2,4,6,8,10,12,14,16,18,20,22,24,26,28,30,32,34,-1,36,38,40,42,44,46,48,50,52,54,56,-1,-1,-1,-1,-1,-1,-1,-1,-1,-1,-1,-1,-1,-1,-1,-1,-1,-1,-1,-1,-1,-1,-1,-1,-1,-1,-1,-1],"split_conditions":[7.241E3,6.293E3,1.1539E4,1.2501E4,6.825E3,6E3,1.166E4,7E3,6E3,6.346E3,1.2454E4,4E3,2.385E3,1.239E4,1.1767E4,2.041E3,6.825E3,1.1905173E3,1.2578E4,2.417E3,6E3,1.2369E4,1.2472E4,2.422E3,1.251E4,7E3,2.418E3,1.1562E4,1.1577E4,1.237368E3,1.2894165E3,-4.1560464E2,-6.432527E2,-7.882839E2,-7.139577E2,-5.265144E2,-8.809124E1,2.8072662E2,1.3968442E2,1.7739441E2,-7.877112E2,2.6626227E2,6.5614343E2,2.8591794E2,1.6880615E2,8.2943427E2,1.0865737E3,-2.3075679E2,7.9043274E2,-7.5961115E2,9.577314E2,1.1608978E3,9.6910223E2,1.1894962E3,1.2284291E3,1.1587523E3,1.2053346E3],"split_indices":[0,0,0,1,1,2,0,2,2,0,1,2,1,1,0,0,1,0,1,1,2,1,1,1,1,2,1,0,0,0,0,0,0,0,0,0,0,0,0,0,0,0,0,0,0,0,0,0,0,0,0,0,0,0,0,0,0],"split_type":[0,0,0,0,0,0,0,0,0,0,0,0,0,0,0,0,0,0,0,0,0,0,0,0,0,0,0,0,0,0,0,0,0,0,0,0,0,0,0,0,0,0,0,0,0,0,0,0,0,0,0,0,0,0,0,0,0],"sum_hessian":[1.66001E5,2.075E4,1.45251E5,5.835E3,1.4915E4,6.4E2,1.44611E5,5.131E3,7.04E2,1.1147E4,3.768E3,3.47E2,2.93E2,8.8213E4,5.6398E4,2.957E3,2.174E3,3.7E1,6.67E2,1.231E3,9.916E3,1.034E3,2.734E3,3.26E2,2.1E1,4E0,2.89E2,8.001E4,8.203E3,5.5089E4,1.309E3,6.03E2,2.354E3,1.912E3,2.62E2,6E2,6.7E1,1.091E3,1.4E2,9.914E3,2E0,4.01E2,6.33E2,2.85E2,2.449E3,1.72E2,1.54E2,2E1,1E0,1E0,3E0,2.19E2,7E1,1.875E3,7.8135E4,1.141E3,7.062E3],"tree_param":{"num_deleted":"0","num_feature":"3","num_nodes":"57","size_leaf_vector":"1"}},{"base_weights":[-1.4844867E3,-2.1924136E3,4.0539702E3,-2.271964E3,7.2323444E2,1.2163612E3,4.1562563E3,-2.295685E3,-1.2749651E3,9.7558594E2,-1.9465144E3,1.1157003E3,1.8063156E3,3.6024236E3,4.293715E3,-2.0993777E3,-6.9328296E2,-8.3588934E2,-2.1073367E3,2.7879333E3,7.8660333E2,-1.9692546E3,8.575457E2,1.1633063E3,3.6429245E2,2.3584724E3,8.512166E2,3.315843E3,3.7795981E3,4.3720903E3,4.210139E3,-6.7813E2,-4.3551443E2,-9.934677E1,-2.5937128E2,-7.032445E2,-6.131863E2,6.630489E2,9.3674347E2,2.4383444E2,2.2410703E2,-3.8605753E2,-6.479057E2,3.277279E2,7.043117E2,-3.699436E2,3.75406E2,6.1953094E2,1.3817156E3,-2.192682E2,5.0181778E2,6.6454376E2,1.0800707E3,1.4845598E3,1.12232E3,1.1905436E3,1.32642E3,1.2216581E3,1.2880406E3],"categories":[],"categories_nodes":[],"categories_segments":[],"categories_sizes":[],"default_left":[0,0,0,0,0,0,0,0,0,0,0,0,0,0,0,0,0,0,0,0,0,0,0,0,0,0,0,0,0,0,0,0,0,0,0,0,0,0,0,0,0,0,0,0,0,0,0,0,0,0,0,0,0,0,0,0,0,0,0],"id":4,"left_children":[1,3,5,7,9,11,13,15,17,19,21,23,25,27,29,31,-1,33,35,37,39,41,-1,43,45,47,49,51,53,55,57,-1,-1,-1,-1,-1,-1,-1,-1,-1,-1,-1,-1,-1,-1,-1,-1,-1,-1,-1,-1,-1,-1,-1,-1,-1,-1,-1,-1],"loss_changes":[6.5087314E11,3.4140783E10,5.4556754E9,3.3856553E9,2.6361252E9,3.6941504E7,1.3669827E9,4.143186E8,1.2159985E9,1.2215672E9,4.256141E7,1.971552E7,4.756467E7,1.711186E8,7.684096E7,1.05066906E9,0E0,3.1315968E7,1.246976E7,5.8237696E7,2.746752E6,4.101363E7,0E0,4.184499E7,5.113895E7,2.9385824E7,4.801245E7,4.2713702E8,8.183808E7,1.3130138E8,6.374195E7,0E0,0E0,0E0,0E0,0E0,0E0,0E0,0E0,0E0,0E0,0E0,0E0,0E0,0E0,0E0,0E0,0E0,0E0,0E0,0E0,0E0,0E0,0E0,0E0,0E0,0E0,0E0,0E0],"parents":[2147483647,0,0,1,1,2,2,3,3,4,4,5,5,6,6,7,7,8,8,9,9,10,10,11,11,12,12,13,13,14,14,15,15,17,17,18,18,19,19,20,20,21,21,23,23,24,24,25,25,26,26,27,27,28,28,29,29,30,30],"right_children":[2,4,6,8,10,12,14,16,18,20,22,24,26,28,30,32,-1,34,36,38,40,42,-1,44,46,48,50,52,54,56,58,-1,-1,-1,-1,-1,-1,-1,-1,-1,-1,-1,-1,-1,-1,-1,-1,-1,-1,-1,-1,-1,-1,-1,-1,-1,-1,-1,-1],"split_conditions":[6.825E3,2.458E3,1.2369E4,2.426E3,1.157E4,1.1653E4,6.554E3,7.241E3,7.241E3,6.67E3,1.1841E4,1.1634E4,1.1691E4,6.42E3,1.1636E4,6.47E3,-6.9328296E2,2.037E3,2E3,6.482E3,6.764E3,2E3,8.575457E2,1.1615E4,1.164E4,1.1686E4,1.1705E4,2E3,1.239E4,7.241E3,2E3,-6.7813E2,-4.3551443E2,-9.934677E1,-2.5937128E2,-7.032445E2,-6.131863E2,6.630489E2,9.3674347E2,2.4383444E2,2.2410703E2,-3.8605753E2,-6.479057E2,3.277279E2,7.043117E2,-3.699436E2,3.75406E2,6.1953094E2,1.3817156E3,-2.192682E2,5.0181778E2,6.6454376E2,1.0800707E3,1.4845598E3,1.12232E3,1.1905436E3,1.32642E3,1.2216581E3,1.2880406E3],"split_indices":[1,1,1,1,0,0,0,0,0,1,0,0,0,0,0,0,0,0,2,0,1,2,0,0,0,0,0,2,1,0,2,0,0,0,0,0,0,0,0,0,0,0,0,0,0,0,0,0,0,0,0,0,0,0,0,0,0,0,0],"split_type":[0,0,0,0,0,0,0,0,0,0,0,0,0,0,0,0,0,0,0,0,0,0,0,0,0,0,0,0,0,0,0,0,0,0,0,0,0,0,0,0,0,0,0,0,0,0,0,0,0,0,0,0,0,0,0,0,0,0,0],"sum_hessian":[1.66001E5,1.47188E5,1.8813E4,1.43279E5,3.909E3,6.55E2,1.8158E4,1.39948E5,3.331E3,3.572E3,3.37E2,5.62E2,9.3E1,3.616E3,1.4542E4,1.0103E4,1.29845E5,2.182E3,1.149E3,3.36E2,3.236E3,3.36E2,1E0,5.28E2,3.4E1,5.8E1,3.5E1,1.389E3,2.227E3,7.478E3,7.064E3,8.089E3,2.014E3,1.18E2,2.064E3,2.35E2,9.14E2,1.26E2,2.1E2,1.936E3,1.3E3,7.5E1,2.61E2,5E2,2.8E1,1.2E1,2.2E1,5.3E1,5E0,1.2E1,2.3E1,2.87E2,1.102E3,6.7E1,2.16E3,8.23E2,6.655E3,2.679E3,4.385E3],"tree_param":{"num_deleted":"0","num_feature":"3","num_nodes":"59","size_leaf_vector":"1"}},{"base_weights":[-2.087728E3,-3.1737761E3,1.6479141E2,-9.953644E2,-2.5548613E3,-5.5299725E2,8.4546497E2,-7.8644104E2,-1.8583009E3,-1.1864602E3,-5.2585956E2,2.1455548E2,8.712581E2,-5.8301434E2,-1.8209048E3,-3.6977893E2,-1.137599E3,-1.5842458E2,-1.5551529E2,5.3881866E1,2.4943141E2,8.716591E2,2.308337E2,-5.0637222E2,-5.537042E2,-2.2391939E2,-3.4585837E2,1.11073395E2,7.009711E1,2.6067905E2,2.6498438E2],"categories":[],"categories_nodes":[],"categories_segments":[],"categories_sizes":[],"default_left":[0,0,0,0,0,0,0,0,0,0,0,0,0,0,0,0,0,0,0,0,0,0,0,0,0,0,0,0,0,0,0],"id":5,"left_children":[1,3,5,-1,7,9,11,-1,13,15,17,19,21,-1,23,-1,25,-1,-1,-1,27,29,-1,-1,-1,-1,-1,-1,-1,-1,-1],"loss_changes":[4.0609854E11,9.98074E9,2.6384753E10,0E0,9.767649E8,4.512343E8,4.5087334E8,0E0,2.34752E6,1.030272E6,1.44896E5,1.283788E6,4.17792E5,0E0,1.171968E6,0E0,2.345728E6,0E0,0E0,0E0,9.48316E5,7.3728E4,0E0,0E0,0E0,0E0,0E0,0E0,0E0,0E0,0E0],"parents":[2147483647,0,0,1,1,2,2,4,4,5,5,6,6,8,8,9,9,10,10,11,11,12,12,14,14,16,16,20,20,21,21],"right_children":[2,4,6,-1,8,10,12,-1,14,16,18,20,22,-1,24,-1,26,-1,-1,-1,28,30,-1,-1,-1,-1,-1,-1,-1,-1,-1],"split_conditions":[4E3,2E3,6E3,-9.953644E2,3E3,5E3,7E3,-7.8644104E2,1.1549E4,1.1539E4,2.415E3,7.241E3,1.1711E4,-5.8301434E2,1.1585E4,-3.6977893E2,1.159E4,-1.5842458E2,-1.5551529E2,5.3881866E1,1.1559E4,2.424E3,2.308337E2,-5.0637222E2,-5.537042E2,-2.2391939E2,-3.4585837E2,1.11073395E2,7.009711E1,2.6067905E2,2.6498438E2],"split_indices":[2,2,2,0,2,2,2,0,0,0,1,0,0,0,0,0,0,0,0,0,0,1,0,0,0,0,0,0,0,0,0],"split_type":[0,0,0,0,0,0,0,0,0,0,0,0,0,0,0,0,0,0,0,0,0,0,0,0,0,0,0,0,0,0,0],"sum_hessian":[1.66001E5,1.12E5,5.4001E4,9.0844E4,2.1156E4,2.6284E4,2.7717E4,1.9307E4,1.849E3,1.078E3,2.5206E4,1.089E3,2.6628E4,5.49E2,1.3E3,5.42E2,5.36E2,1.9376E4,5.83E3,5.47E2,5.42E2,2.6516E4,1.12E2,2.15E2,1.085E3,2.2E1,5.14E2,6E1,4.82E2,2.1535E4,4.981E3],"tree_param":{"num_deleted":"0","num_feature":"3","num_nodes":"31","size_leaf_vector":"1"}},{"base_weights":[2.500722E3,-7.174401E1,2.8682126E3,-1.4951884E3,4.8519434E2,2.3195747E3,2.8706245E3,-1.5854146E3,-9.4601263E2,4.3591336E2,6.308296E2,2.0907324E3,2.6302737E3,2.8445552E3,2.8812712E3,-1.2663002E3,-1.7518109E3,2.701427E3,-1.1895234E3,5.5995325E2,3.8990326E2,1.1544249E3,4.0957953E2,2.3136003E3,1.281478E3,8.5260004E2,2.4163955E3,2.8487463E3,2.6397173E3,2.8775059E3,2.950021E3,-3.8391296E2,1.0775541E3,-3.9015057E2,-5.430308E2,4.488093E2,8.5670636E2,-3.677211E2,6.0865405E2,1.8564136E2,1.09357155E2,1.1723219E2,-6.30169E2,1.8658232E2,4.3528464E2,6.458262E2,1.2183962E2,5.9227295E2,7.9890717E2,2.477812E2,6.5871387E2,2.9322546E2,7.705574E2,8.3573114E2,8.567792E2,8.887758E2,7.699085E2,8.642565E2,8.524613E2,8.799673E2,9.1924536E2],"categories":[],"categories_nodes":[],"categories_segments":[],"categories_sizes":[],"default_left":[0,0,0,0,0,0,0,0,0,0,0,0,0,0,0,0,0,0,0,0,0,0,0,0,0,0,0,0,0,0,0,0,0,0,0,0,0,0,0,0,0,0,0,0,0,0,0,0,0,0,0,0,0,0,0,0,0,0,0,0,0],"id":6,"left_children":[1,3,5,7,9,11,13,15,17,19,21,23,25,27,29,31,33,35,37,39,41,43,45,47,49,-1,51,53,55,57,59,-1,-1,-1,-1,-1,-1,-1,-1,-1,-1,-1,-1,-1,-1,-1,-1,-1,-1,-1,-1,-1,-1,-1,-1,-1,-1,-1,-1,-1,-1],"loss_changes":[1.5693139E11,1.645151E10,1.8572902E8,2.876754E8,1.067776E8,4.0076544E7,3.1850496E7,2.6386227E8,7.36859E8,6.3404416E7,4.3614886E8,6.4488576E7,5.268608E6,2.8540928E7,1.8087936E7,1.1671347E8,8.422502E7,5.396992E6,9.281216E7,3.4439296E7,1.846144E7,1.7578125E8,1.5057024E7,2.936768E7,3.2753584E7,0E0,2.8136896E7,1.0682368E7,1.2669952E7,3.538944E6,1.150976E6,0E0,0E0,0E0,0E0,0E0,0E0,0E0,0E0,0E0,0E0,0E0,0E0,0E0,0E0,0E0,0E0,0E0,0E0,0E0,0E0,0E0,0E0,0E0,0E0,0E0,0E0,0E0,0E0,0E0,0E0],"parents":[2147483647,0,0,1,1,2,2,3,3,4,4,5,5,6,6,7,7,8,8,9,9,10,10,11,11,12,12,13,13,14,14,15,15,16,16,17,17,18,18,19,19,20,20,21,21,22,22,23,23,24,24,26,26,27,27,28,28,29,29,30,30],"right_children":[2,4,6,8,10,12,14,16,18,20,22,24,26,28,30,32,34,36,38,40,42,44,46,48,50,-1,52,54,56,58,60,-1,-1,-1,-1,-1,-1,-1,-1,-1,-1,-1,-1,-1,-1,-1,-1,-1,-1,-1,-1,-1,-1,-1,-1,-1,-1,-1,-1,-1,-1],"split_conditions":[7.241E3,6.293E3,1.1539E4,1.2487E4,6.825E3,7E3,1.162E4,5E3,6E3,6.389E3,1.246E4,2E3,2.405E3,1.2527E4,1.1732E4,2.426E3,2.032E3,1.2494E4,2.063E3,2.412E3,6E3,1.2369E4,6.329E3,2.422E3,6E3,8.5260004E2,2.406E3,1.157E4,6E3,1.2369E4,1.1841E4,-3.8391296E2,1.0775541E3,-3.9015057E2,-5.430308E2,4.488093E2,8.5670636E2,-3.677211E2,6.0865405E2,1.8564136E2,1.09357155E2,1.1723219E2,-6.30169E2,1.8658232E2,4.3528464E2,6.458262E2,1.2183962E2,5.9227295E2,7.9890717E2,2.477812E2,6.5871387E2,2.9322546E2,7.705574E2,8.3573114E2,8.567792E2,8.887758E2,7.699085E2,8.642565E2,8.524613E2,8.799673E2,9.1924536E2],"split_indices":[0,0,0,1,1,2,0,2,2,0,1,2,1,1,0,1,0,1,0,1,2,1,0,1,2,0,1,0,2,1,0,0,0,0,0,0,0,0,0,0,0,0,0,0,0,0,0,0,0,0,0,0,0,0,0,0,0,0,0,0,0],"split_type":[0,0,0,0,0,0,0,0,0,0,0,0,0,0,0,0,0,0,0,0,0,0,0,0,0,0,0,0,0,0,0,0,0,0,0,0,0,0,0,0,0,0,0,0,0,0,0,0,0,0,0,0,0,0,0,0,0,0,0,0,0],"sum_hessian":[1.66001E5,2.075E4,1.45251E5,5.835E3,1.4915E4,6.4E2,1.44611E5,5.01E3,8.25E2,1.1147E4,3.768E3,3.73E2,2.67E2,4.2011E4,1.026E5,1.72E3,3.29E3,5.1E1,7.74E2,3.013E3,8.134E3,1.118E3,2.65E3,2.91E2,8.2E1,1.28E2,1.39E2,4.1156E4,8.55E2,9.7313E4,5.287E3,1.716E3,4E0,3.79E2,2.911E3,7E0,4.4E1,7.66E2,8E0,2.314E3,6.99E2,8.132E3,2E0,4.01E2,7.17E2,4E0,2.646E3,1.51E2,1.4E2,5.6E1,2.6E1,1.4E1,1.25E2,4.254E3,3.6902E4,1.51E2,7.04E2,8.8952E4,8.361E3,4.632E3,6.55E2],"tree_param":{"num_deleted":"0","num_feature":"3","num_nodes":"61","size_leaf_vector":"1"}},{"base_weights":[-1.0390739E3,-1.5347003E3,2.8384539E3,-1.590399E3,5.0674783E2,8.565157E2,2.9098958E3,-1.6069924E3,-8.9297833E2,6.841631E2,-1.3581244E3,9.4451276E2,1.82557E2,2.5228994E3,3.0059458E3,-1.4696746E3,-1.6176654E3,-5.8528705E2,-1.4762802E3,1.9710862E3,5.507669E2,-1.3764652E3,7.289138E2,7.85754E2,1.4620083E3,6.5577014E2,-9.569769E2,1.3377117E3,2.5496704E3,3.119293E3,2.975981E3,-4.778375E2,-3.1034756E2,-4.8658258E2,-4.8255728E2,-1.6766335E2,-2.926833E2,-4.9316504E2,-4.2943143E2,5.265575E2,8.794051E2,1.4529767E2,1.6996277E2,-1.7379922E2,-4.364446E2,2.6166605E2,-3.6100955E2,9.4685394E2,3.9036758E2,1.6646082E2,9.156622E2,-5.224142E2,3.2541428E2,1.9901604E2,6.810566E2,6.760121E2,7.95629E2,8.3381384E2,9.736081E2,8.9046045E2,1.0723132E3],"categories":[],"categories_nodes":[],"categories_segments":[],"categories_sizes":[],"default_left":[0,0,0,0,0,0,0,0,0,0,0,0,0,0,0,0,0,0,0,0,0,0,0,0,0,0,0,0,0,0,0,0,0,0,0,0,0,0,0,0,0,0,0,0,0,0,0,0,0,0,0,0,0,0,0,0,0,0,0,0,0],"id":7,"left_children":[1,3,5,7,9,11,13,15,17,19,21,23,25,27,29,31,33,35,37,39,41,43,-1,45,47,49,51,53,55,57,59,-1,-1,-1,-1,-1,-1,-1,-1,-1,-1,-1,-1,-1,-1,-1,-1,-1,-1,-1,-1,-1,-1,-1,-1,-1,-1,-1,-1,-1,-1],"loss_changes":[3.1902787E11,1.6737174E10,2.6614333E9,1.6566518E9,1.2945788E9,3.8732576E7,6.6740224E8,2.0273562E8,5.97153E8,6.119502E8,2.6964928E7,4.650224E7,4.2149224E7,1.1135386E8,4.0116224E7,5.3970944E8,2.490368E6,2.1957504E7,6.28992E6,6.4305664E7,3.118464E6,2.03296E7,0E0,7.775782E7,3.2666304E7,1.1605558E7,3.872363E7,5.0054944E7,1.0133504E8,1.2038963E8,4.304896E7,0E0,0E0,0E0,0E0,0E0,0E0,0E0,0E0,0E0,0E0,0E0,0E0,0E0,0E0,0E0,0E0,0E0,0E0,0E0,0E0,0E0,0E0,0E0,0E0,0E0,0E0,0E0,0E0,0E0,0E0],"parents":[2147483647,0,0,1,1,2,2,3,3,4,4,5,5,6,6,7,7,8,8,9,9,10,10,11,11,12,12,13,13,14,14,15,15,16,16,17,17,18,18,19,19,20,20,21,21,23,23,24,24,25,25,26,26,27,27,28,28,29,29,30,30],"right_children":[2,4,6,8,10,12,14,16,18,20,22,24,26,28,30,32,34,36,38,40,42,44,-1,46,48,50,52,54,56,58,60,-1,-1,-1,-1,-1,-1,-1,-1,-1,-1,-1,-1,-1,-1,-1,-1,-1,-1,-1,-1,-1,-1,-1,-1,-1,-1,-1,-1,-1,-1],"split_conditions":[6.825E3,2.458E3,1.2369E4,2.426E3,7.241E3,6E3,6.554E3,7.241E3,7.241E3,6.67E3,1.1841E4,1.1615E4,1.1612E4,2.032E3,1.1589E4,6.456E3,5E3,6.576E3,2E3,6E3,6.724E3,1.163E4,7.289138E2,1.1594E4,1.1622E4,1.1611E4,1.1672E4,1.2537E4,1.2472E4,7.241E3,1.1767E4,-4.778375E2,-3.1034756E2,-4.8658258E2,-4.8255728E2,-1.6766335E2,-2.926833E2,-4.9316504E2,-4.2943143E2,5.265575E2,8.794051E2,1.4529767E2,1.6996277E2,-1.7379922E2,-4.364446E2,2.6166605E2,-3.6100955E2,9.4685394E2,3.9036758E2,1.6646082E2,9.156622E2,-5.224142E2,3.2541428E2,1.9901604E2,6.810566E2,6.760121E2,7.95629E2,8.3381384E2,9.736081E2,8.9046045E2,1.0723132E3],"split_indices":[1,1,1,1,0,2,0,0,0,1,0,0,0,0,0,0,2,0,2,2,1,0,0,0,0,0,0,1,1,0,0,0,0,0,0,0,0,0,0,0,0,0,0,0,0,0,0,0,0,0,0,0,0,0,0,0,0,0,0,0,0],"split_type":[0,0,0,0,0,0,0,0,0,0,0,0,0,0,0,0,0,0,0,0,0,0,0,0,0,0,0,0,0,0,0,0,0,0,0,0,0,0,0,0,0,0,0,0,0,0,0,0,0,0,0,0,0,0,0,0,0,0,0,0,0],"sum_hessian":[1.66001E5,1.47188E5,1.8813E4,1.43279E5,3.909E3,6.55E2,1.8158E4,1.39948E5,3.331E3,3.57E3,3.39E2,5.79E2,7.6E1,3.616E3,1.4542E4,1.0103E4,1.29845E5,2.182E3,1.149E3,3.34E2,3.236E3,3.38E2,1E0,4.45E2,1.34E2,5.4E1,2.2E1,8.1E1,3.535E3,3.019E3,1.1523E4,7.873E3,2.23E3,8.8341E4,4.1504E4,2.046E3,1.36E2,2.35E2,9.14E2,2.75E2,5.9E1,6.27E2,2.609E3,3.1E1,3.07E2,4.27E2,1.8E1,1E1,1.24E2,5.3E1,1E0,1.6E1,6E0,4.8E1,3.3E1,9.14E2,2.621E3,8.23E2,2.196E3,1.1381E4,1.42E2],"tree_param":{"num_deleted":"0","num_feature":"3","num_nodes":"61","size_leaf_vector":"1"}},{"base_weights":[-1.461432E3,-2.221674E3,1.1534914E2,-6.9675836E2,-1.7885178E3,-3.8714563E2,5.9186115E2,-5.50521E2,-1.301699E3,-8.3139294E2,-3.68114E2,1.5040446E2,6.0990894E2,-4.0842807E2,-1.2754482E3,-2.590496E2,-7.9738025E2,-3.7211234E2,-1.09636765E2,3.7746815E1,1.749356E2,6.101811E2,5.4065485E2,-3.1552136E2,-3.8500912E2,-2.2073111E2,-2.6066785E2,-1.0995394E2,-1.12445175E2,7.345696E1,4.820679E1,1.8247891E2,1.85505E2,1.4649156E2,1.9049596E2],"categories":[],"categories_nodes":[],"categories_segments":[],"categories_sizes":[],"default_left":[0,0,0,0,0,0,0,0,0,0,0,0,0,0,0,0,0,0,0,0,0,0,0,0,0,0,0,0,0,0,0,0,0,0,0],"id":8,"left_children":[1,3,5,-1,7,9,11,-1,13,15,17,19,21,-1,23,-1,25,27,-1,-1,29,31,33,-1,-1,-1,-1,-1,-1,-1,-1,-1,-1,-1,-1],"loss_changes":[1.9899276E11,4.8885924E9,1.2930726E10,0E0,4.770857E8,2.2192691E8,2.2074778E8,0E0,1.164032E6,4.89728E5,1.32096E5,6.35278E5,1.72032E5,0E0,9.5424E5,0E0,1.726656E6,1.4208E4,0E0,0E0,5.01546E5,3.9936E4,2.4795E5,0E0,0E0,0E0,0E0,0E0,0E0,0E0,0E0,0E0,0E0,0E0,0E0],"parents":[2147483647,0,0,1,1,2,2,4,4,5,5,6,6,8,8,9,9,10,10,11,11,12,12,14,14,16,16,17,17,20,20,21,21,22,22],"right_children":[2,4,6,-1,8,10,12,-1,14,16,18,20,22,-1,24,-1,26,28,-1,-1,30,32,34,-1,-1,-1,-1,-1,-1,-1,-1,-1,-1,-1,-1],"split_conditions":[4E3,2E3,6E3,-6.9675836E2,3E3,5E3,7E3,-5.50521E2,1.1549E4,1.1539E4,2.402E3,7.241E3,1.1711E4,-4.0842807E2,1.1565E4,-2.590496E2,1.1663E4,2.394E3,-1.09636765E2,3.7746815E1,1.1568E4,2.424E3,1.172E4,-3.1552136E2,-3.8500912E2,-2.2073111E2,-2.6066785E2,-1.0995394E2,-1.12445175E2,7.345696E1,4.820679E1,1.8247891E2,1.85505E2,1.4649156E2,1.9049596E2],"split_indices":[2,2,2,0,2,2,2,0,0,0,1,0,0,0,0,0,0,1,0,0,0,1,0,0,0,0,0,0,0,0,0,0,0,0,0],"split_type":[0,0,0,0,0,0,0,0,0,0,0,0,0,0,0,0,0,0,0,0,0,0,0,0,0,0,0,0,0,0,0,0,0,0,0],"sum_hessian":[1.66001E5,1.12E5,5.4001E4,9.0844E4,2.1156E4,2.6284E4,2.7717E4,1.9307E4,1.849E3,1.078E3,2.5206E4,1.089E3,2.6628E4,5.49E2,1.3E3,5.42E2,5.36E2,1.001E4,1.5196E4,5.47E2,5.42E2,2.6516E4,1.12E2,4.9E1,1.251E3,2.94E2,2.42E2,3.305E3,6.705E3,8.9E1,4.53E2,2.1535E4,4.981E3,7.6E1,3.6E1],"tree_param":{"num_deleted":"0","num_feature":"3","num_nodes":"35","size_leaf_vector":"1"}},{"base_weights":[1.7505868E3,-5.010151E1,2.0078248E3,-1.0464078E3,3.397144E2,1.6302764E3,2.0094844E3,-1.0725895E3,-6.691306E1,3.051196E2,4.4194922E2,1.4696562E3,1.8483423E3,2.0051202E3,2.0470549E3,-1.1273379E3,-6.6939404E2,5.777605E2,-2.0483597E2,5.5949493E2,2.9018845E2,8.415231E2,2.9057776E2,1.5894675E3,6.2282416E2,1.9584736E3,1.5151827E3,2.0092013E3,1.9660659E3,6.127122E2,6.438922E2,-5.2577234E2,-3.242824E2,4.9247845E1,-4.466658E2,-1.03703316E2,2.4007816E2,1.9036877E2,9.186954E1,1.2182166E2,8.350108E1,1.3074681E2,3.292314E2,2.1196559E2,8.37197E1,4.1793262E2,5.3951245E2,-1.672108E2,4.6841873E2,5.624361E2,6.7845074E2,-1.4529222E2,4.8315536E2,5.9418274E2,6.0361536E2,5.981338E2,5.768575E2],"categories":[],"categories_nodes":[],"categories_segments":[],"categories_sizes":[],"default_left":[0,0,0,0,0,0,0,0,0,0,0,0,0,0,0,0,0,0,0,0,0,0,0,0,0,0,0,0,0,0,0,0,0,0,0,0,0,0,0,0,0,0,0,0,0,0,0,0,0,0,0,0,0,0,0,0,0],"id":9,"left_children":[1,3,5,7,9,11,13,15,17,19,21,23,25,27,29,31,33,-1,35,37,39,41,43,45,47,49,51,53,55,-1,-1,-1,-1,-1,-1,-1,-1,-1,-1,-1,-1,-1,-1,-1,-1,-1,-1,-1,-1,-1,-1,-1,-1,-1,-1,-1,-1],"loss_changes":[7.689306E10,8.0595466E9,8.781824E7,1.4959104E8,5.262016E7,1.973504E7,1.9595264E7,1.2471603E8,4.244657E7,4.2178944E7,2.2771994E8,3.6956096E7,6.865856E6,1.671168E7,2.584576E6,1.4323712E8,4.6611206E8,0E0,2.0661206E7,1.1536E7,1.4351616E7,1.0698035E8,1.29E7,1.090848E7,5.4039684E7,7.81312E5,1.4314096E7,5.57056E6,1.0907648E7,0E0,0E0,0E0,0E0,0E0,0E0,0E0,0E0,0E0,0E0,0E0,0E0,0E0,0E0,0E0,0E0,0E0,0E0,0E0,0E0,0E0,0E0,0E0,0E0,0E0,0E0,0E0,0E0],"parents":[2147483647,0,0,1,1,2,2,3,3,4,4,5,5,6,6,7,7,8,8,9,9,10,10,11,11,12,12,13,13,14,14,15,15,16,16,18,18,19,19,20,20,21,21,22,22,23,23,24,24,25,25,26,26,27,27,28,28],"right_children":[2,4,6,8,10,12,14,16,18,20,22,24,26,28,30,32,34,-1,36,38,40,42,44,46,48,50,52,54,56,-1,-1,-1,-1,-1,-1,-1,-1,-1,-1,-1,-1,-1,-1,-1,-1,-1,-1,-1,-1,-1,-1,-1,-1,-1,-1,-1,-1],"split_conditions":[7.241E3,6.293E3,1.1539E4,1.2565E4,6.825E3,7E3,1.1705E4,2.063E3,6E3,6.329E3,1.2454E4,4E3,2.418E3,1.2369E4,1.1841E4,2E3,2E3,5.777605E2,2.05E3,2.41E3,2.395E3,1.2369E4,6.404E3,2.422E3,6E3,2.409E3,2.419E3,1.1587E4,3E3,6.127122E2,6.438922E2,-5.2577234E2,-3.242824E2,4.9247845E1,-4.466658E2,-1.03703316E2,2.4007816E2,1.9036877E2,9.186954E1,1.2182166E2,8.350108E1,1.3074681E2,3.292314E2,2.1196559E2,8.37197E1,4.1793262E2,5.3951245E2,-1.672108E2,4.6841873E2,5.624361E2,6.7845074E2,-1.4529222E2,4.8315536E2,5.9418274E2,6.0361536E2,5.981338E2,5.768575E2],"split_indices":[0,0,0,1,1,2,0,0,2,0,1,2,1,1,0,2,2,0,0,1,1,1,0,1,2,1,1,0,2,0,0,0,0,0,0,0,0,0,0,0,0,0,0,0,0,0,0,0,0,0,0,0,0,0,0,0,0],"split_type":[0,0,0,0,0,0,0,0,0,0,0,0,0,0,0,0,0,0,0,0,0,0,0,0,0,0,0,0,0,0,0,0,0,0,0,0,0,0,0,0,0,0,0,0,0,0,0,0,0,0,0,0,0,0,0,0,0],"sum_hessian":[1.66001E5,2.075E4,1.45251E5,5.835E3,1.4915E4,6.4E2,1.44611E5,5.683E3,1.52E2,1.1147E4,3.768E3,3.73E2,2.67E2,1.2961E5,1.5001E4,5.002E3,6.81E2,9E0,1.43E2,6.16E2,1.0531E4,1.034E3,2.734E3,3.26E2,4.7E1,1.97E2,7E1,1.17302E5,1.2308E4,1.4346E4,6.55E2,3.43E2,4.659E3,3.38E2,3.43E2,1.26E2,1.7E1,4.74E2,1.42E2,9.74E2,9.557E3,4.01E2,6.33E2,7.2E1,2.662E3,1.72E2,1.54E2,2.1E1,2.6E1,1.6E2,3.7E1,3E0,6.7E1,1.0695E4,1.06607E5,7.471E3,4.837E3],"tree_param":{"num_deleted":"0","num_feature":"3","num_nodes":"57","size_leaf_vector":"1"}},{"base_weights":[-7.273099E2,-1.0742991E3,1.9873557E3,-1.1133013E3,3.5519394E2,6.027973E2,2.0372639E3,-1.1236719E3,-5.595504E2,4.7939603E2,-9.50338E2,6.632932E2,1.3928491E2,1.7409473E3,2.1007754E3,-1.0163035E3,-1.1322072E3,-3.928758E2,-1.0050954E3,1.3839573E3,3.856341E2,-9.653258E2,6.195768E2,5.0297348E2,1.0406624E3,2.8713287E2,-7.892171E2,1.5693639E3,1.8917728E3,2.1364038E3,2.0418926E3,-3.3082867E2,-1.7236716E2,-3.4010474E2,-3.315313E2,-1.6446289E2,-8.245306E1,-2.736526E2,-3.628538E2,3.0089764E2,5.508062E2,1.2495531E2,1.0822419E2,-1.560314E2,-3.2695172E2,2.3612312E2,6.1517982E1,1.4643115E3,2.544466E2,2.1483477E1,1.2122559E3,3.514674E2,5.6631903E2,2.9399347E2,5.780273E2,5.8631213E2,6.4917224E2,4.8835123E2,6.171008E2],"categories":[],"categories_nodes":[],"categories_segments":[],"categories_sizes":[],"default_left":[0,0,0,0,0,0,0,0,0,0,0,0,0,0,0,0,0,0,0,0,0,0,0,0,0,0,0,0,0,0,0,0,0,0,0,0,0,0,0,0,0,0,0,0,0,0,0,0,0,0,0,0,0,0,0,0,0,0,0],"id":10,"left_children":[1,3,5,7,9,11,13,15,17,19,21,23,25,27,29,31,33,35,37,39,41,43,-1,45,47,49,-1,51,53,55,57,-1,-1,-1,-1,-1,-1,-1,-1,-1,-1,-1,-1,-1,-1,-1,-1,-1,-1,-1,-1,-1,-1,-1,-1,-1,-1,-1,-1],"loss_changes":[1.5636929E11,8.2066964E9,1.2988416E9,8.221819E8,6.344614E8,1.830224E7,3.3809203E8,1.2774605E8,1.9535725E8,3.0233498E8,1.7360608E7,3.456645E7,3.2289962E7,8.012902E7,2.6996736E7,3.9531315E8,3.964928E6,3.505136E7,1.2515712E7,5.5852224E7,2.337696E6,1.8225952E7,0E0,3.445567E7,1.2301966E8,5.957711E7,0E0,1.8877338E8,5.24672E7,4.22912E7,3.2049152E7,0E0,0E0,0E0,0E0,0E0,0E0,0E0,0E0,0E0,0E0,0E0,0E0,0E0,0E0,0E0,0E0,0E0,0E0,0E0,0E0,0E0,0E0,0E0,0E0,0E0,0E0,0E0,0E0],"parents":[2147483647,0,0,1,1,2,2,3,3,4,4,5,5,6,6,7,7,8,8,9,9,10,10,11,11,12,12,13,13,14,14,15,15,16,16,17,17,18,18,19,19,20,20,21,21,23,23,24,24,25,25,27,27,28,28,29,29,30,30],"right_children":[2,4,6,8,10,12,14,16,18,20,22,24,26,28,30,32,34,36,38,40,42,44,-1,46,48,50,-1,52,54,56,58,-1,-1,-1,-1,-1,-1,-1,-1,-1,-1,-1,-1,-1,-1,-1,-1,-1,-1,-1,-1,-1,-1,-1,-1,-1,-1,-1,-1],"split_conditions":[6.825E3,2.458E3,1.2369E4,2.43E3,7.241E3,6E3,6.536E3,7.241E3,7.241E3,6.67E3,1.1841E4,7.241E3,1.1682E4,1.2501E4,1.1649E4,2.414E3,2.417E3,6.42E3,2.448E3,6.511E3,6.502E3,2E3,6.195768E2,6.528E3,1.157E4,1.1672E4,-7.892171E2,6.42E3,2.032E3,7.241E3,1.1651E4,-3.3082867E2,-1.7236716E2,-3.4010474E2,-3.315313E2,-1.6446289E2,-8.245306E1,-2.736526E2,-3.628538E2,3.0089764E2,5.508062E2,1.2495531E2,1.0822419E2,-1.560314E2,-3.2695172E2,2.3612312E2,6.1517982E1,1.4643115E3,2.544466E2,2.1483477E1,1.2122559E3,3.514674E2,5.6631903E2,2.9399347E2,5.780273E2,5.8631213E2,6.4917224E2,4.8835123E2,6.171008E2],"split_indices":[1,1,1,1,0,2,0,0,0,1,0,0,0,1,0,1,1,0,1,0,0,2,0,0,0,0,0,0,0,0,0,0,0,0,0,0,0,0,0,0,0,0,0,0,0,0,0,0,0,0,0,0,0,0,0,0,0,0,0],"split_type":[0,0,0,0,0,0,0,0,0,0,0,0,0,0,0,0,0,0,0,0,0,0,0,0,0,0,0,0,0,0,0,0,0,0,0,0,0,0,0,0,0,0,0,0,0,0,0,0,0,0,0,0,0,0,0,0,0,0,0],"sum_hessian":[1.66001E5,1.47188E5,1.8813E4,1.43279E5,3.909E3,6.55E2,1.8158E4,1.40644E5,2.635E3,3.57E3,3.39E2,5.79E2,7.6E1,3.21E3,1.4948E4,1.0366E4,1.30278E5,1.919E3,7.16E2,3.34E2,3.236E3,3.38E2,1E0,4.08E2,1.71E2,7.3E1,3E0,1.507E3,1.703E3,9.291E3,5.657E3,8.668E3,1.698E3,1.23514E5,6.764E3,8.27E2,1.092E3,4.96E2,2.2E2,1.83E2,1.51E2,1.437E3,1.799E3,7.5E1,2.63E2,2.08E2,2E2,7E0,1.64E2,7E1,3E0,6.72E2,8.35E2,6.4E1,1.639E3,1.229E3,8.062E3,2.03E2,5.454E3],"tree_param":{"num_deleted":"0","num_feature":"3","num_nodes":"59","size_leaf_vector":"1"}},{"base_weights":[-1.0230178E3,-1.5551929E3,8.074053E1,-4.877332E2,-1.2520409E3,-2.710427E2,4.1433392E2,-3.8537323E2,-9.1178876E2,-5.826612E2,-2.5769293E2,1.0542939E2,4.2696268E2,-2.8589377E2,-8.9298285E2,-1.8147778E2,-5.590627E2,-2.5220955E2,-2.5902377E2,2.6443504E1,1.22678764E2,4.271199E2,3.2226303E2,-1.5883125E2,-2.6914383E2,-1.1278469E2,-1.7191313E2,-8.2582306E1,-7.543887E1,-8.704873E1,-7.756845E1,4.1031548E1,2.0351986E1,1.2999315E2,1.2749505E2,-9.2140015E1,1.348917E2],"categories":[],"categories_nodes":[],"categories_segments":[],"categories_sizes":[],"default_left":[0,0,0,0,0,0,0,0,0,0,0,0,0,0,0,0,0,0,0,0,0,0,0,0,0,0,0,0,0,0,0,0,0,0,0,0,0],"id":11,"left_children":[1,3,5,-1,7,9,11,-1,13,15,17,19,21,-1,23,-1,25,27,29,-1,31,33,35,-1,-1,-1,-1,-1,-1,-1,-1,-1,-1,-1,-1,-1,-1],"loss_changes":[9.750849E10,2.394538E9,6.337385E9,0E0,2.3305011E8,1.0919629E8,1.0808525E8,0E0,5.82016E5,2.28736E5,1.18656E5,3.14164E5,3.00544E5,0E0,1.471424E6,0E0,1.15936E6,1.6224E4,2.16448E5,0E0,4.103775E5,1.67936E5,3.665576E6,0E0,0E0,0E0,0E0,0E0,0E0,0E0,0E0,0E0,0E0,0E0,0E0,0E0,0E0],"parents":[2147483647,0,0,1,1,2,2,4,4,5,5,6,6,8,8,9,9,10,10,11,11,12,12,14,14,16,16,17,17,18,18,20,20,21,21,22,22],"right_children":[2,4,6,-1,8,10,12,-1,14,16,18,20,22,-1,24,-1,26,28,30,-1,32,34,36,-1,-1,-1,-1,-1,-1,-1,-1,-1,-1,-1,-1,-1,-1],"split_conditions":[4E3,2E3,6E3,-4.877332E2,3E3,5E3,7E3,-3.8537323E2,1.1555E4,1.1539E4,1.1613E4,7.241E3,1.1718E4,-2.8589377E2,1.1559E4,-1.8147778E2,1.16E4,2.389E3,1.1615E4,2.6443504E1,1.1641E4,2.399E3,1.172E4,-1.5883125E2,-2.6914383E2,-1.1278469E2,-1.7191313E2,-8.2582306E1,-7.543887E1,-8.704873E1,-7.756845E1,4.1031548E1,2.0351986E1,1.2999315E2,1.2749505E2,-9.2140015E1,1.348917E2],"split_indices":[2,2,2,0,2,2,2,0,0,0,0,0,0,0,0,0,0,1,0,0,0,1,0,0,0,0,0,0,0,0,0,0,0,0,0,0,0],"split_type":[0,0,0,0,0,0,0,0,0,0,0,0,0,0,0,0,0,0,0,0,0,0,0,0,0,0,0,0,0,0,0,0,0,0,0,0,0],"sum_hessian":[1.66001E5,1.12E5,5.4001E4,9.0844E4,2.1156E4,2.6284E4,2.7717E4,1.9307E4,1.849E3,1.078E3,2.5206E4,1.089E3,2.6628E4,5.64E2,1.285E3,5.42E2,5.36E2,4.96E3,2.0246E4,5.47E2,5.42E2,2.6585E4,4.3E1,1.6E1,1.269E3,4E1,4.96E2,1.44E2,4.816E3,2.87E2,1.9959E4,4.3E2,1.12E2,6.769E3,1.9816E4,7E0,3.6E1],"tree_param":{"num_deleted":"0","num_feature":"3","num_nodes":"37","size_leaf_vector":"1"}},{"base_weights":[1.2254541E3,-3.503678E1,1.405522E3,-7.3257684E2,2.3788348E2,1.1456198E3,1.4066643E3,-7.90821E2,-3.9511395E2,2.1362753E2,3.0956494E2,1.0321246E3,1.2997301E3,1.4143507E3,1.3913551E3,-6.613783E2,-9.7710223E2,2.1387678E3,-5.7404083E2,2.8654666E2,1.8658488E2,5.895106E2,2.0351253E2,1.1494913E3,6.067848E2,1.3575112E3,8.896543E2,1.4045623E3,1.4588378E3,9.426471E2,1.409178E3,-1.0088487E2,-2.553516E2,-4.0202713E2,-2.8152145E2,6.7406836E2,4.2176508E2,-2.0120616E2,2.9590906E1,1.1449302E2,6.534865E1,5.6182766E1,-5.246675E2,6.530731E1,2.6916718E2,9.0513145E1,5.1881954E1,2.9759607E2,4.249526E2,-6.709723E2,2.2241039E2,3.9681845E2,5.533205E2,1.859777E2,5.268642E2,3.930768E2,4.218514E2,1.4873903E2,4.3772617E2,3.052681E2,-2.486596E1,4.2491647E2,4.039434E2],"categories":[],"categories_nodes":[],"categories_segments":[],"categories_sizes":[],"default_left":[0,0,0,0,0,0,0,0,0,0,0,0,0,0,0,0,0,0,0,0,0,0,0,0,0,0,0,0,0,0,0,0,0,0,0,0,0,0,0,0,0,0,0,0,0,0,0,0,0,0,0,0,0,0,0,0,0,0,0,0,0,0,0],"id":12,"left_children":[1,3,5,7,9,11,13,15,17,19,21,23,25,27,29,31,33,35,37,39,41,43,45,47,49,51,53,55,57,59,61,-1,-1,-1,-1,-1,-1,-1,-1,-1,-1,-1,-1,-1,-1,-1,-1,-1,-1,-1,-1,-1,-1,-1,-1,-1,-1,-1,-1,-1,-1,-1,-1],"loss_changes":[3.7678154E10,3.9506007E9,4.1517056E7,1.1439539E8,2.5868288E7,9.87008E6,1.507328E7,1.1933875E8,3.915876E8,2.1929536E7,1.1177757E8,1.7972864E7,5.142464E6,3.9829504E7,3.857285E8,1.8105318E8,2.73696E7,1.358048E6,5.2400656E7,1.9612896E7,1.1207264E7,1.1822301E8,8.158768E6,1.0875328E7,3.3419584E7,1.506368E6,7.325772E6,1.0141696E7,3.44064E6,1.4236608E8,1.9136512E7,0E0,0E0,0E0,0E0,0E0,0E0,0E0,0E0,0E0,0E0,0E0,0E0,0E0,0E0,0E0,0E0,0E0,0E0,0E0,0E0,0E0,0E0,0E0,0E0,0E0,0E0,0E0,0E0,0E0,0E0,0E0,0E0],"parents":[2147483647,0,0,1,1,2,2,3,3,4,4,5,5,6,6,7,7,8,8,9,9,10,10,11,11,12,12,13,13,14,14,15,15,16,16,17,17,18,18,19,19,20,20,21,21,22,22,23,23,24,24,25,25,26,26,27,27,28,28,29,29,30,30],"right_children":[2,4,6,8,10,12,14,16,18,20,22,24,26,28,30,32,34,36,38,40,42,44,46,48,50,52,54,56,58,60,62,-1,-1,-1,-1,-1,-1,-1,-1,-1,-1,-1,-1,-1,-1,-1,-1,-1,-1,-1,-1,-1,-1,-1,-1,-1,-1,-1,-1,-1,-1,-1,-1],"split_conditions":[7.241E3,6.293E3,1.1539E4,1.248E4,6.825E3,7E3,3E3,7E3,6E3,6.389E3,1.2454E4,2E3,1.2537E4,2E3,5E3,2.047E3,2.032E3,1.2565E4,2.05E3,2.402E3,6E3,6.482E3,1.2487E4,1.2404E4,2.39E3,1.2518E4,1.2578E4,1.1562E4,1.1577E4,1.1693E4,1.239E4,-1.0088487E2,-2.553516E2,-4.0202713E2,-2.8152145E2,6.7406836E2,4.2176508E2,-2.0120616E2,2.9590906E1,1.1449302E2,6.534865E1,5.6182766E1,-5.246675E2,6.530731E1,2.6916718E2,9.0513145E1,5.1881954E1,2.9759607E2,4.249526E2,-6.709723E2,2.2241039E2,3.9681845E2,5.533205E2,1.859777E2,5.268642E2,3.930768E2,4.218514E2,1.4873903E2,4.3772617E2,3.052681E2,-2.486596E1,4.2491647E2,4.039434E2],"split_indices":[0,0,0,1,1,2,2,2,2,0,1,2,1,2,2,0,0,1,0,1,2,0,1,1,1,1,1,0,0,0,1,0,0,0,0,0,0,0,0,0,0,0,0,0,0,0,0,0,0,0,0,0,0,0,0,0,0,0,0,0,0,0,0],"split_type":[0,0,0,0,0,0,0,0,0,0,0,0,0,0,0,0,0,0,0,0,0,0,0,0,0,0,0,0,0,0,0,0,0,0,0,0,0,0,0,0,0,0,0,0,0,0,0,0,0,0,0,0,0,0,0,0,0,0,0,0,0,0,0],"sum_hessian":[1.66001E5,2.075E4,1.45251E5,5.835E3,1.4915E4,6.4E2,1.44611E5,4.975E3,8.6E2,1.1147E4,3.768E3,3.73E2,2.67E2,9.6213E4,4.8398E4,2.938E3,2.037E3,5.6E1,8.04E2,3.013E3,8.134E3,1.034E3,2.734E3,2.91E2,8.2E1,2.32E2,3.5E1,7.8888E4,1.7325E4,1.851E3,4.6547E4,1.084E3,1.854E3,1.93E2,1.844E3,4.7E1,9E0,7.03E2,1.01E2,1.262E3,1.751E3,8.132E3,2E0,4.69E2,5.65E2,6.47E2,2.087E3,1.86E2,1.05E2,3E0,7.9E1,2.2E2,1.2E1,2.8E1,7E0,1.337E3,7.7551E4,5E0,1.732E4,1.725E3,1.26E2,4.1727E4,4.82E3],"tree_param":{"num_deleted":"0","num_feature":"3","num_nodes":"63","size_leaf_vector":"1"}},{"base_weights":[-5.090822E2,-7.52015E2,1.3914995E3,-7.7932526E2,2.4894826E2,4.2570944E2,1.4263124E3,-7.8826373E2,-4.6210135E2,3.3434787E2,-6.878136E2,3.7198273E2,7.429694E2,1.2192203E3,1.4706997E3,-6.078964E2,-7.90136E2,-2.528415E2,-7.2521454E2,9.3178406E2,2.7001605E2,-7.5083984E2,2.2008849E2,3.8131583E2,-7.309817E2,3.0719033E3,4.906046E2,1.0759299E3,1.3570258E3,1.4664855E3,5.6903326E2,-2.7630264E2,1.5001439E1,-2.6532034E2,-2.3595601E2,-8.793147E1,4.4773445E1,-2.1158887E2,-2.9307516E2,1.2902194E2,3.3392236E2,8.751959E1,7.1243E1,-2.294439E2,5.266402E2,-4.7328987E1,7.997213E2,1.5772519E2,7.378877E1,1.0786929E3,2.47763E2,-4.0195142E2,1.7187236E2,-2.5136533E2,3.4055713E2,3.3861594E2,4.648996E2,4.4802808E2,4.1849893E2],"categories":[],"categories_nodes":[],"categories_segments":[],"categories_sizes":[],"default_left":[0,0,0,0,0,0,0,0,0,0,0,0,0,0,0,0,0,0,0,0,0,0,0,0,0,0,0,0,0,0,0,0,0,0,0,0,0,0,0,0,0,0,0,0,0,0,0,0,0,0,0,0,0,0,0,0,0,0,0],"id":13,"left_children":[1,3,5,7,9,11,13,15,17,19,21,23,25,27,29,31,33,35,37,39,41,43,45,47,-1,49,51,53,55,57,-1,-1,-1,-1,-1,-1,-1,-1,-1,-1,-1,-1,-1,-1,-1,-1,-1,-1,-1,-1,-1,-1,-1,-1,-1,-1,-1,-1,-1],"loss_changes":[7.664643E10,4.0238367E9,6.3195955E8,4.059054E8,3.1302643E8,1.0905368E7,1.6512614E8,4.657152E7,2.1614362E8,1.3749645E8,1.8876736E7,1.5686912E7,5.374056E7,6.194483E7,2.4059904E7,2.9585763E8,4.632576E7,3.549845E7,8.034368E6,3.1173728E7,2.218032E6,1.2058944E7,2.07506E7,1.0857632E7,0E0,7.61744E6,1.3723616E7,1.8003123E8,7.007155E7,2.6435584E7,0E0,0E0,0E0,0E0,0E0,0E0,0E0,0E0,0E0,0E0,0E0,0E0,0E0,0E0,0E0,0E0,0E0,0E0,0E0,0E0,0E0,0E0,0E0,0E0,0E0,0E0,0E0,0E0,0E0],"parents":[2147483647,0,0,1,1,2,2,3,3,4,4,5,5,6,6,7,7,8,8,9,9,10,10,11,11,12,12,13,13,14,14,15,15,16,16,17,17,18,18,19,19,20,20,21,21,22,22,23,23,25,25,26,26,27,27,28,28,29,29],"right_children":[2,4,6,8,10,12,14,16,18,20,22,24,26,28,30,32,34,36,38,40,42,44,46,48,-1,50,52,54,56,58,-1,-1,-1,-1,-1,-1,-1,-1,-1,-1,-1,-1,-1,-1,-1,-1,-1,-1,-1,-1,-1,-1,-1,-1,-1,-1,-1,-1,-1],"split_conditions":[6.825E3,2.458E3,1.2369E4,2.424E3,1.161E4,1.1653E4,6.536E3,2.047E3,6.576E3,6.67E3,3E3,1.1652E4,1.1657E4,3E3,1.1767E4,7E3,6.404E3,6.545E3,1.1755E4,6.456E3,6.764E3,1.1841E4,1.1693E4,6.536E3,-7.309817E2,6E3,1.1658E4,6.346E3,2.047E3,1.1664E4,5.6903326E2,-2.7630264E2,1.5001439E1,-2.6532034E2,-2.3595601E2,-8.793147E1,4.4773445E1,-2.1158887E2,-2.9307516E2,1.2902194E2,3.3392236E2,8.751959E1,7.1243E1,-2.294439E2,5.266402E2,-4.7328987E1,7.997213E2,1.5772519E2,7.378877E1,1.0786929E3,2.47763E2,-4.0195142E2,1.7187236E2,-2.5136533E2,3.4055713E2,3.3861594E2,4.648996E2,4.4802808E2,4.1849893E2],"split_indices":[1,1,1,1,0,0,0,0,0,1,2,0,0,2,0,2,0,0,0,0,1,0,0,0,0,2,0,0,0,0,0,0,0,0,0,0,0,0,0,0,0,0,0,0,0,0,0,0,0,0,0,0,0,0,0,0,0,0,0],"split_type":[0,0,0,0,0,0,0,0,0,0,0,0,0,0,0,0,0,0,0,0,0,0,0,0,0,0,0,0,0,0,0,0,0,0,0,0,0,0,0,0,0,0,0,0,0,0,0,0,0,0,0,0,0,0,0,0,0,0,0],"sum_hessian":[1.66001E5,1.47188E5,1.8813E4,1.43279E5,3.909E3,6.55E2,1.8158E4,1.39351E5,3.928E3,3.583E3,3.26E2,5.62E2,9.3E1,3.21E3,1.4948E4,1.435E3,1.37916E5,2.189E3,1.739E3,3.47E2,3.236E3,3.05E2,2.1E1,5.61E2,1E0,8E0,8.5E1,1.578E3,1.632E3,1.4806E4,1.42E2,9.72E2,4.63E2,5.086E3,1.3283E5,1.99E3,1.99E2,1.615E3,1.24E2,9.3E1,2.54E2,1.936E3,1.3E3,3.04E2,1E0,1.9E1,2E0,2.7E2,2.91E2,6E0,2E0,3E0,8.2E1,4.7E1,1.531E3,7.5E2,8.82E2,1.0739E4,4.067E3],"tree_param":{"num_deleted":"0","num_feature":"3","num_nodes":"59","size_leaf_vector":"1"}},{"base_weights":[-7.1612445E2,-1.0886492E3,5.6510895E1,-3.4141486E2,-8.764805E2,-1.8975995E2,2.900477E2,-2.6976724E2,-6.38638E2,-4.08295E2,-1.803979E2,7.3881134E1,2.988851E2,-6.3344257E2,-2.193092E2,-4.0909015E2,-9.2323364E1,-1.8143034E2,-5.2793613E1,6.2185486E1,8.672334E1,2.973386E2,9.1658585E1,-1.9045557E2,-3.476599E1,-1.1974694E2,-1.3260881E2,8.153533E1,-9.128624E1,-5.4007744E1,-5.5567398E1,2.456222E1,1.7826647E1,6.1677265E1,2.3379063E1,9.1025635E1,8.836293E1],"categories":[],"categories_nodes":[],"categories_segments":[],"categories_sizes":[],"default_left":[0,0,0,0,0,0,0,0,0,0,0,0,0,0,0,0,0,0,0,0,0,0,0,0,0,0,0,0,0,0,0,0,0,0,0,0,0],"id":14,"left_children":[1,3,5,-1,7,9,11,-1,13,15,17,19,21,23,-1,25,27,29,-1,31,33,35,-1,-1,-1,-1,-1,-1,-1,-1,-1,-1,-1,-1,-1,-1,-1],"loss_changes":[4.7779717E10,1.172906E9,3.1058885E9,0E0,1.138729E8,5.370381E7,5.2929024E7,0E0,4.2496E5,2.33344E5,8.3008E4,1.58323E5,1.82784E5,1.209408E6,0E0,1.75632E5,3.9141166E5,7.5392E4,0E0,2.636375E4,5.2435675E5,2.784E5,0E0,0E0,0E0,0E0,0E0,0E0,0E0,0E0,0E0,0E0,0E0,0E0,0E0,0E0,0E0],"parents":[2147483647,0,0,1,1,2,2,4,4,5,5,6,6,8,8,9,9,10,10,11,11,12,12,13,13,15,15,16,16,17,17,19,19,20,20,21,21],"right_children":[2,4,6,-1,8,10,12,-1,14,16,18,20,22,24,-1,26,28,30,-1,32,34,36,-1,-1,-1,-1,-1,-1,-1,-1,-1,-1,-1,-1,-1,-1,-1],"split_conditions":[4E3,2E3,6E3,-3.4141486E2,3E3,5E3,7E3,-2.6976724E2,1.1674E4,2.422E3,2.42E3,1.1539E4,2.424E3,1.1673E4,-2.193092E2,1.1663E4,1.1672E4,1.1685E4,-5.2793613E1,2.393E3,1.1559E4,2.399E3,9.1658585E1,-1.9045557E2,-3.476599E1,-1.1974694E2,-1.3260881E2,8.153533E1,-9.128624E1,-5.4007744E1,-5.5567398E1,2.456222E1,1.7826647E1,6.1677265E1,2.3379063E1,9.1025635E1,8.836293E1],"split_indices":[2,2,2,0,2,2,2,0,0,1,1,0,1,0,0,0,0,0,0,1,0,1,0,0,0,0,0,0,0,0,0,0,0,0,0,0,0],"split_type":[0,0,0,0,0,0,0,0,0,0,0,0,0,0,0,0,0,0,0,0,0,0,0,0,0,0,0,0,0,0,0,0,0,0,0,0,0],"sum_hessian":[1.66001E5,1.12E5,5.4001E4,9.0844E4,2.1156E4,2.6284E4,2.7717E4,1.9307E4,1.849E3,1.078E3,2.5206E4,1.089E3,2.6628E4,1.758E3,9.1E1,1.075E3,3E0,2.04E4,4.806E3,5.73E2,5.16E2,2.1637E4,4.991E3,1.753E3,5E0,8.36E2,2.39E2,1E0,2E0,1.4924E4,5.476E3,6.7E1,5.06E2,3.4E1,4.82E2,6.781E3,1.4856E4],"tree_param":{"num_deleted":"0","num_feature":"3","num_nodes":"37","size_leaf_vector":"1"}},{"base_weights":[8.578451E2,-2.4522188E1,9.8389594E2,-5.128236E2,1.6653114E2,8.992334E2,9.857104E2,-5.530883E2,-2.0873462E2,1.473542E2,2.3224016E2,8.049559E2,9.238438E2,9.891271E2,9.679857E2,-1.0356874E3,-5.184589E2,3.69655E2,-7.7481946E2,1.7152881E2,6.813725E1,2.355995E3,1.9627199E2,7.025904E2,9.2338525E2,9.497253E2,8.472142E2,9.8761053E2,1.0971392E3,-7.0917926E0,9.8852356E2,-2.4123668E2,-3.173019E2,-7.879852E1,-1.7222551E2,8.871068E1,1.0177465E3,-2.6184253E2,6.075819E2,4.9045162E1,2.1680455E2,2.977379E1,-6.1699024E1,4.3171707E2,8.854397E2,1.3496466E2,4.2753273E1,2.366264E2,-1.8301785E2,3.2174976E2,2.395937E2,2.5737115E2,2.8884927E2,2.8284662E2,2.1518405E2,2.9726532E2,2.8429437E2,2.954654E2,3.3194016E2,2.694355E2,-6.1852074E1,2.984405E2,2.715222E2],"categories":[],"categories_nodes":[],"categories_segments":[],"categories_sizes":[],"default_left":[0,0,0,0,0,0,0,0,0,0,0,0,0,0,0,0,0,0,0,0,0,0,0,0,0,0,0,0,0,0,0,0,0,0,0,0,0,0,0,0,0,0,0,0,0,0,0,0,0,0,0,0,0,0,0,0,0,0,0,0,0,0,0],"id":15,"left_children":[1,3,5,7,9,11,13,15,17,19,21,23,25,27,29,31,33,35,37,39,41,43,45,47,49,51,53,55,57,59,61,-1,-1,-1,-1,-1,-1,-1,-1,-1,-1,-1,-1,-1,-1,-1,-1,-1,-1,-1,-1,-1,-1,-1,-1,-1,-1,-1,-1,-1,-1,-1,-1],"loss_changes":[1.8463285E10,1.9359795E9,2.1446656E7,7.134093E7,1.8761408E7,6.35392E6,7.651328E6,8.558042E7,2.2424003E8,2.2105088E7,2.5681088E8,7.122112E6,3.99296E6,1.8440192E7,4.611461E8,9.00832E5,6.829069E7,7.477925E7,9.67025E7,3.9113824E7,2.3034928E7,2.6329248E7,4.510651E7,3.9841184E7,4.611984E6,1.340032E6,7.025792E6,1.4434304E7,6.28608E5,8.596553E7,1.0913792E7,0E0,0E0,0E0,0E0,0E0,0E0,0E0,0E0,0E0,0E0,0E0,0E0,0E0,0E0,0E0,0E0,0E0,0E0,0E0,0E0,0E0,0E0,0E0,0E0,0E0,0E0,0E0,0E0,0E0,0E0,0E0,0E0],"parents":[2147483647,0,0,1,1,2,2,3,3,4,4,5,5,6,6,7,7,8,8,9,9,10,10,11,11,12,12,13,13,14,14,15,15,16,16,17,17,18,18,19,19,20,20,21,21,22,22,23,23,24,24,25,25,26,26,27,27,28,28,29,29,30,30],"right_children":[2,4,6,8,10,12,14,16,18,20,22,24,26,28,30,32,34,36,38,40,42,44,46,48,50,52,54,56,58,60,62,-1,-1,-1,-1,-1,-1,-1,-1,-1,-1,-1,-1,-1,-1,-1,-1,-1,-1,-1,-1,-1,-1,-1,-1,-1,-1,-1,-1,-1,-1,-1,-1],"split_conditions":[7.241E3,6.293E3,1.1562E4,2.063E3,1.2369E4,1.1539E4,6E3,2E3,2E3,2E3,1.2382E4,6E3,2.42E3,1.2501E4,7E3,2.037E3,5E3,2.421E3,1.2454E4,6.825E3,6.825E3,6.47E3,1.2454E4,4E3,2.404E3,2.393E3,1.1555E4,1.2369E4,2E3,1.1584E4,1.2501E4,-2.4123668E2,-3.173019E2,-7.879852E1,-1.7222551E2,8.871068E1,1.0177465E3,-2.6184253E2,6.075819E2,4.9045162E1,2.1680455E2,2.977379E1,-6.1699024E1,4.3171707E2,8.854397E2,1.3496466E2,4.2753273E1,2.366264E2,-1.8301785E2,3.2174976E2,2.395937E2,2.5737115E2,2.8884927E2,2.8284662E2,2.1518405E2,2.9726532E2,2.8429437E2,2.954654E2,3.3194016E2,2.694355E2,-6.1852074E1,2.984405E2,2.715222E2],"split_indices":[0,0,0,0,1,0,2,2,2,2,1,2,1,1,2,0,2,1,1,1,1,0,1,2,1,1,0,1,2,0,1,0,0,0,0,0,0,0,0,0,0,0,0,0,0,0,0,0,0,0,0,0,0,0,0,0,0,0,0,0,0,0,0],"split_type":[0,0,0,0,0,0,0,0,0,0,0,0,0,0,0,0,0,0,0,0,0,0,0,0,0,0,0,0,0,0,0,0,0,0,0,0,0,0,0,0,0,0,0,0,0,0,0,0,0,0,0,0,0,0,0,0,0,0,0,0,0,0,0],"sum_hessian":[1.66001E5,2.075E4,1.45251E5,5.835E3,1.4915E4,3.058E3,1.42193E5,5.152E3,6.83E2,1.1548E4,3.367E3,6.4E2,2.418E3,1.19167E5,2.3026E4,3.43E2,4.809E3,3.38E2,3.45E2,8.847E3,2.701E3,5.5E1,3.312E3,3.47E2,2.93E2,1.799E3,6.19E2,1.17527E5,1.64E3,4.75E2,2.2551E4,3.3E1,3.1E2,8.6E2,3.949E3,3.31E2,7E0,3.34E2,1.1E1,8.721E3,1.26E2,2.426E3,2.75E2,2.3E1,3.2E1,5.78E2,2.734E3,3.26E2,2.1E1,1.3E2,1.63E2,2.33E2,1.566E3,3.53E2,2.66E2,1.08606E5,8.921E3,1.34E2,1.506E3,8.5E1,3.9E2,2.0963E4,1.588E3],"tree_param":{"num_deleted":"0","num_feature":"3","num_nodes":"63","size_leaf_vector":"1"}},{"base_weights":[-3.563377E2,-5.3953064E2,8.798827E2,-5.506557E2,-1.416598E2,2.200424E2,9.9854663E2,-4.7439178E2,-5.567202E2,-1.7294601E1,-4.8146484E2,2.0937178E2,5.0809213E2,8.7252435E2,1.0392566E3,-5.463862E2,-1.8538435E2,-5.671507E2,-5.534603E2,-1.9205626E2,3.3152002E2,-1.1816244E3,-4.626071E2,2.1707817E2,-1.5334655E3,7.089672E2,-7.0341394E2,1.783378E3,8.598506E2,1.2679965E3,1.01892236E3,-1.7510858E2,-9.515354E0,-8.077256E1,6.244482E1,-1.1608378E2,-1.7031125E2,-1.6732648E2,-1.631987E2,7.998417E1,-6.602357E1,2.08581E2,4.1086063E1,-2.360544E2,-5.0529395E2,5.716716E2,-1.4281335E2,6.425721E1,9.49219E2,-6.882423E2,-4.1062477E1,4.6000427E2,7.831618E1,-4.172238E2,1.4315004E2,-8.094667E2,6.199767E2,2.4567685E2,3.0638635E2,4.085421E2,3.644752E2,2.9921902E2,3.5450195E2],"categories":[],"categories_nodes":[],"categories_segments":[],"categories_sizes":[],"default_left":[0,0,0,0,0,0,0,0,0,0,0,0,0,0,0,0,0,0,0,0,0,0,0,0,0,0,0,0,0,0,0,0,0,0,0,0,0,0,0,0,0,0,0,0,0,0,0,0,0,0,0,0,0,0,0,0,0,0,0,0,0,0,0],"id":16,"left_children":[1,3,5,7,9,11,13,15,17,19,21,23,25,27,29,31,33,35,37,39,41,43,45,47,49,51,53,55,57,59,61,-1,-1,-1,-1,-1,-1,-1,-1,-1,-1,-1,-1,-1,-1,-1,-1,-1,-1,-1,-1,-1,-1,-1,-1,-1,-1,-1,-1,-1,-1,-1,-1],"loss_changes":[3.7594415E10,6.398771E8,1.6773417E9,6.478643E7,1.662422E8,9.935312E6,9.225626E7,2.1560448E8,4.112384E6,1.7568776E8,1.3369792E7,4.266733E7,2.8728622E7,4.97216E7,6.252237E7,1.5933696E8,6.833461E7,2.869248E6,3.733504E6,2.4736408E7,6.7988936E7,4.032844E6,3.3620336E7,2.60332E7,1.4558918E7,3.65248E7,1.4458282E7,8.173042E7,2.8110336E7,3.902464E6,4.29824E7,0E0,0E0,0E0,0E0,0E0,0E0,0E0,0E0,0E0,0E0,0E0,0E0,0E0,0E0,0E0,0E0,0E0,0E0,0E0,0E0,0E0,0E0,0E0,0E0,0E0,0E0,0E0,0E0,0E0,0E0,0E0,0E0],"parents":[2147483647,0,0,1,1,2,2,3,3,4,4,5,5,6,6,7,7,8,8,9,9,10,10,11,11,12,12,13,13,14,14,15,15,16,16,17,17,18,18,19,19,20,20,21,21,22,22,23,23,24,24,25,25,26,26,27,27,28,28,29,29,30,30],"right_children":[2,4,6,8,10,12,14,16,18,20,22,24,26,28,30,32,34,36,38,40,42,44,46,48,50,52,54,56,58,60,62,-1,-1,-1,-1,-1,-1,-1,-1,-1,-1,-1,-1,-1,-1,-1,-1,-1,-1,-1,-1,-1,-1,-1,-1,-1,-1,-1,-1,-1,-1,-1,-1],"split_conditions":[6.724E3,2.43E3,1.2369E4,7.241E3,7.241E3,1.164E4,7.241E3,6.47E3,1.1613E4,2.458E3,1.1606E4,1.1634E4,6E3,1.2382E4,1.157E4,2.42E3,2.414E3,2.381E3,5E3,2.037E3,6.67E3,2.458E3,1.161E4,1.1631E4,2E3,1.1662E4,1.1672E4,2.044E3,6E3,1.1549E4,1.2546E4,-1.7510858E2,-9.515354E0,-8.077256E1,6.244482E1,-1.1608378E2,-1.7031125E2,-1.6732648E2,-1.631987E2,7.998417E1,-6.602357E1,2.08581E2,4.1086063E1,-2.360544E2,-5.0529395E2,5.716716E2,-1.4281335E2,6.425721E1,9.49219E2,-6.882423E2,-4.1062477E1,4.6000427E2,7.831618E1,-4.172238E2,1.4315004E2,-8.094667E2,6.199767E2,2.4567685E2,3.0638635E2,4.085421E2,3.644752E2,2.9921902E2,3.5450195E2],"split_indices":[1,1,1,0,0,0,0,0,0,1,0,0,2,1,0,1,1,1,2,0,1,1,0,0,2,0,0,0,2,0,1,0,0,0,0,0,0,0,0,0,0,0,0,0,0,0,0,0,0,0,0,0,0,0,0,0,0,0,0,0,0,0,0],"split_type":[0,0,0,0,0,0,0,0,0,0,0,0,0,0,0,0,0,0,0,0,0,0,0,0,0,0,0,0,0,0,0,0,0,0,0,0,0,0,0,0,0,0,0,0,0,0,0,0,0,0,0,0,0,0,0,0,0,0,0,0,0,0,0],"sum_hessian":[1.66001E5,1.44577E5,2.1424E4,1.40644E5,3.933E3,3.266E3,1.8158E4,1.0366E4,1.30278E5,2.88E3,1.053E3,3.151E3,1.15E2,4.439E3,1.3719E4,8.298E3,2.068E3,3.098E4,9.9298E4,1.919E3,9.61E2,2.6E1,1.027E3,3.138E3,1.3E1,9.9E1,1.6E1,5.9E1,4.38E3,1.115E3,1.2604E4,7.737E3,5.61E2,1.705E3,3.63E2,9.7E1,3.0883E4,6.8265E4,3.1033E4,1.1E2,1.809E3,3.34E2,6.27E2,1.6E1,1E1,5E0,1.022E3,3.136E3,2E0,8E0,5E0,3.4E1,6.5E1,1E1,6E0,3E0,5.6E1,3.499E3,8.81E2,3.94E2,7.21E2,1.1138E4,1.466E3],"tree_param":{"num_deleted":"0","num_feature":"3","num_nodes":"63","size_leaf_vector":"1"}},{"base_weights":[-5.0129364E2,-7.6206384E2,3.9557148E1,-2.3899152E2,-6.1357007E2,-1.328481E2,2.0304774E2,-1.8884122E2,-4.472869E2,-2.860493E2,-1.26284966E2,5.1833794E1,2.0922974E2,-1.4347748E2,-4.338499E2,-9.127681E1,-2.6710648E2,-1.285875E2,-1.24759865E2,4.7558746E1,8.197846E1,2.0933768E2,1.3925041E2,-1.1617256E2,-1.3736243E2,8.846231E1,-8.092755E1,-3.796694E1,-4.015138E1,-3.616488E1,-3.79476E1,1.5429696E1,5.9373975E-1,5.485214E1,1.9425377E1,6.27672E1,8.4405365E1,-9.124831E1,6.940789E1],"categories":[],"categories_nodes":[],"categories_segments":[],"categories_sizes":[],"default_left":[0,0,0,0,0,0,0,0,0,0,0,0,0,0,0,0,0,0,0,0,0,0,0,0,0,0,0,0,0,0,0,0,0,0,0,0,0,0,0],"id":17,"left_children":[1,3,5,-1,7,9,11,-1,13,15,17,19,21,-1,23,-1,25,27,29,31,33,35,37,-1,-1,-1,-1,-1,-1,-1,-1,-1,-1,-1,-1,-1,-1,-1,-1],"loss_changes":[2.3412584E10,5.745336E8,1.5221618E9,0E0,5.565747E7,2.639296E7,2.5899904E7,0E0,5.62432E5,2.90864E5,7.2416E4,1.3656925E5,1.72032E5,0E0,1.279488E6,0E0,8.79884E5,8.9808E4,9.5584E4,1.688625E5,2.2099531E5,1.58848E5,1.8674308E6,0E0,0E0,0E0,0E0,0E0,0E0,0E0,0E0,0E0,0E0,0E0,0E0,0E0,0E0,0E0,0E0],"parents":[2147483647,0,0,1,1,2,2,4,4,5,5,6,6,8,8,9,9,10,10,11,11,12,12,14,14,16,16,17,17,18,18,19,19,20,20,21,21,22,22],"right_children":[2,4,6,-1,8,10,12,-1,14,16,18,20,22,-1,24,-1,26,28,30,32,34,36,38,-1,-1,-1,-1,-1,-1,-1,-1,-1,-1,-1,-1,-1,-1,-1,-1],"split_conditions":[4E3,2E3,6E3,-2.3899152E2,3E3,5E3,7E3,-1.8884122E2,1.1549E4,1.1539E4,2.402E3,2.412E3,1.1718E4,-1.4347748E2,1.1605E4,-9.127681E1,1.1562E4,2.399E3,2.407E3,2.41E3,2.413E3,1.1713E4,1.172E4,-1.1617256E2,-1.3736243E2,8.846231E1,-8.092755E1,-3.796694E1,-4.015138E1,-3.616488E1,-3.79476E1,1.5429696E1,5.9373975E-1,5.485214E1,1.9425377E1,6.27672E1,8.4405365E1,-9.124831E1,6.940789E1],"split_indices":[2,2,2,0,2,2,2,0,0,0,1,1,0,0,0,0,0,1,1,1,1,0,0,0,0,0,0,0,0,0,0,0,0,0,0,0,0,0,0],"split_type":[0,0,0,0,0,0,0,0,0,0,0,0,0,0,0,0,0,0,0,0,0,0,0,0,0,0,0,0,0,0,0,0,0,0,0,0,0,0,0],"sum_hessian":[1.66001E5,1.12E5,5.4001E4,9.0844E4,2.1156E4,2.6284E4,2.7717E4,1.9307E4,1.849E3,1.078E3,2.5206E4,1.089E3,2.6628E4,5.49E2,1.3E3,5.42E2,5.36E2,1.001E4,1.5196E4,9.56E2,1.33E2,2.6585E4,4.3E1,4.48E2,8.52E2,2E0,5.34E2,7.236E3,2.774E3,4.45E3,1.0746E4,8.81E2,7.5E1,1.8E1,1.15E2,2.6547E4,3.8E1,7E0,3.6E1],"tree_param":{"num_deleted":"0","num_feature":"3","num_nodes":"39","size_leaf_vector":"1"}},{"base_weights":[6.005276E2,-1.705117E1,6.887521E2,-3.5886633E2,1.1668779E2,6.300057E2,6.90011E2,-3.9850806E2,-6.978788E1,2.5027562E2,1.1073032E2,6.244716E2,2.9603598E2,6.8573157E2,7.0076373E2,-1.3394229E2,-4.3711728E2,1.6104462E3,-1.6526558E2,2.72969E2,-7.074278E2,9.453085E1,1.6358136E2,6.395262E2,4.5541013E2,6.901367E2,6.776944E2,6.9906775E2,2.2752014E2,7.214886E1,-9.912861E1,-1.4002208E2,-6.754381E1,5.1893567E2,3.309953E2,-7.345722E1,1.6218481E2,7.681629E1,5.900606E2,-4.7589774E2,4.1029E2,3.9557243E1,2.0108753E1,5.0181525E2,4.1362644E1,1.7096542E2,1.9720291E2,8.341534E1,1.5685152E2,2.0627228E2,2.1651537E2,1.197683E2,2.0695857E2,2.0910954E2,2.2171022E2],"categories":[],"categories_nodes":[],"categories_segments":[],"categories_sizes":[],"default_left":[0,0,0,0,0,0,0,0,0,0,0,0,0,0,0,0,0,0,0,0,0,0,0,0,0,0,0,0,0,0,0,0,0,0,0,0,0,0,0,0,0,0,0,0,0,0,0,0,0,0,0,0,0,0,0],"id":18,"left_children":[1,3,5,7,9,11,13,15,17,19,21,23,-1,25,27,29,31,33,35,37,39,41,43,45,47,49,51,53,-1,-1,-1,-1,-1,-1,-1,-1,-1,-1,-1,-1,-1,-1,-1,-1,-1,-1,-1,-1,-1,-1,-1,-1,-1,-1,-1],"loss_changes":[9.044718E9,9.486531E8,1.0305536E7,6.685024E7,1.1843104E7,5.423616E6,6.066176E6,5.23632E7,1.13365704E8,1.4015624E7,1.2211344E7,7.3824E6,0E0,3.13344E6,3.422208E6,4.826917E7,2.8013184E7,3.91272E5,3.7662216E7,1.7317796E7,2.9526014E7,1.1214368E7,1.2968944E8,3.057408E6,2.844376E6,4.816896E6,1.2198298E8,2.680832E6,0E0,0E0,0E0,0E0,0E0,0E0,0E0,0E0,0E0,0E0,0E0,0E0,0E0,0E0,0E0,0E0,0E0,0E0,0E0,0E0,0E0,0E0,0E0,0E0,0E0,0E0,0E0],"parents":[2147483647,0,0,1,1,2,2,3,3,4,4,5,5,6,6,7,7,8,8,9,9,10,10,11,11,13,13,14,14,15,15,16,16,17,17,18,18,19,19,20,20,21,21,22,22,23,23,24,24,25,25,26,26,27,27],"right_children":[2,4,6,8,10,12,14,16,18,20,22,24,-1,26,28,30,32,34,36,38,40,42,44,46,48,50,52,54,-1,-1,-1,-1,-1,-1,-1,-1,-1,-1,-1,-1,-1,-1,-1,-1,-1,-1,-1,-1,-1,-1,-1,-1,-1,-1,-1],"split_conditions":[7.241E3,6.293E3,1.1562E4,1.2501E4,6.329E3,1.2578E4,1.1674E4,2.397E3,6E3,1.2404E4,1.2369E4,1.2487E4,2.9603598E2,3E3,1.248E4,2.044E3,2.063E3,1.2565E4,1.2578E4,2.448E3,1.246E4,6.456E3,1.2382E4,1.1539E4,1.251E4,2E3,5E3,1.1755E4,2.2752014E2,7.214886E1,-9.912861E1,-1.4002208E2,-6.754381E1,5.1893567E2,3.309953E2,-7.345722E1,1.6218481E2,7.681629E1,5.900606E2,-4.7589774E2,4.1029E2,3.9557243E1,2.0108753E1,5.0181525E2,4.1362644E1,1.7096542E2,1.9720291E2,8.341534E1,1.5685152E2,2.0627228E2,2.1651537E2,1.197683E2,2.0695857E2,2.0910954E2,2.2171022E2],"split_indices":[0,0,0,1,0,1,0,1,2,1,1,1,0,2,1,0,0,1,1,1,1,0,1,0,1,2,2,0,0,0,0,0,0,0,0,0,0,0,0,0,0,0,0,0,0,0,0,0,0,0,0,0,0,0,0],"split_type":[0,0,0,0,0,0,0,0,0,0,0,0,0,0,0,0,0,0,0,0,0,0,0,0,0,0,0,0,0,0,0,0,0,0,0,0,0,0,0,0,0,0,0,0,0,0,0,0,0,0,0,0,0,0,0],"sum_hessian":[1.66001E5,2.075E4,1.45251E5,5.835E3,1.4915E4,3.058E3,1.42193E5,5.131E3,7.04E2,6.35E2,1.428E4,3.014E3,4.4E1,1.01759E5,4.0434E4,6.54E2,4.477E3,3.7E1,6.67E2,6.21E2,1.4E1,1.0932E4,3.348E3,2.765E3,2.49E2,6.5677E4,3.6082E4,3.9291E4,1.143E3,2.25E2,4.29E2,3.927E3,5.5E2,2.8E1,9E0,6E2,6.7E1,6.16E2,5E0,1E1,4E0,4.636E3,6.296E3,5.5E1,3.293E3,5.7E2,2.195E3,7E1,1.79E2,6.0769E4,4.908E3,1.512E3,3.457E4,3.7404E4,1.887E3],"tree_param":{"num_deleted":"0","num_feature":"3","num_nodes":"55","size_leaf_vector":"1"}},{"base_weights":[-2.4942755E2,-3.685607E2,6.8260913E2,-3.8189755E2,1.2025621E2,2.2559544E2,6.990813E2,-3.874671E2,-2.5943784E2,1.6134697E2,-3.591262E2,2.4063115E2,-7.697749E2,5.0341846E2,7.165537E2,-2.5507704E2,-3.8881882E2,-1.134948E2,-3.5474277E2,1.5631793E2,2.4011016E3,-2.202466E2,-5.730858E2,2.2684767E2,9.3716113E2,-1.0648389E3,3.6882996E2,1.9681055E2,7.152484E2,7.9860913E2,6.980877E2,-1.4845303E2,8.461732E1,-1.3885037E2,-1.157221E2,-1.3916092E2,-2.1377447E1,-1.1827852E2,-5.591701E1,4.8523766E1,-4.433571E2,1.1101813E3,2.6438385E2,-9.1447556E1,3.5282993E2,-1.8117624E2,4.6906613E2,7.116418E1,-4.4809375E2,3.178813E2,-7.726665E1,-4.3382864E2,9.711943E1,5.761297E2,1.7927531E2,2.4293204E2,3.3432285E1,1.9860541E2,2.1945834E2],"categories":[],"categories_nodes":[],"categories_segments":[],"categories_sizes":[],"default_left":[0,0,0,0,0,0,0,0,0,0,0,0,0,0,0,0,0,0,0,0,0,0,0,0,0,0,0,0,0,0,0,0,0,0,0,0,0,0,0,0,0,0,0,0,0,0,0,0,0,0,0,0,0,0,0,0,0,0,0],"id":19,"left_children":[1,3,5,7,9,11,13,15,17,19,21,23,25,27,29,31,33,35,37,39,41,43,45,47,-1,-1,49,51,53,55,57,-1,-1,-1,-1,-1,-1,-1,-1,-1,-1,-1,-1,-1,-1,-1,-1,-1,-1,-1,-1,-1,-1,-1,-1,-1,-1,-1,-1],"loss_changes":[1.8432524E10,9.596129E8,1.4147482E8,9.762406E7,7.707784E7,1.0002994E7,6.171955E7,2.4424448E7,8.669683E7,4.0196896E7,9.055596E6,2.5003844E7,3.295881E7,9.676278E7,2.4698368E7,1.7889571E8,3.073024E7,3.6445644E7,2.502208E7,3.2127496E7,1.2538832E7,2.2679584E7,8.916128E6,1.185792E7,0E0,0E0,3.7344342E6,1.2787329E8,1.2392602E8,2.3346944E7,1.5937024E7,0E0,0E0,0E0,0E0,0E0,0E0,0E0,0E0,0E0,0E0,0E0,0E0,0E0,0E0,0E0,0E0,0E0,0E0,0E0,0E0,0E0,0E0,0E0,0E0,0E0,0E0,0E0,0E0],"parents":[2147483647,0,0,1,1,2,2,3,3,4,4,5,5,6,6,7,7,8,8,9,9,10,10,11,11,12,12,13,13,14,14,15,15,16,16,17,17,18,18,19,19,20,20,21,21,22,22,23,23,26,26,27,27,28,28,29,29,30,30],"right_children":[2,4,6,8,10,12,14,16,18,20,22,24,26,28,30,32,34,36,38,40,42,44,46,48,-1,-1,50,52,54,56,58,-1,-1,-1,-1,-1,-1,-1,-1,-1,-1,-1,-1,-1,-1,-1,-1,-1,-1,-1,-1,-1,-1,-1,-1,-1,-1,-1,-1],"split_conditions":[6.825E3,2.458E3,1.2369E4,2.42E3,1.163E4,1.1726E4,6.438E3,2.047E3,6.576E3,1.162E4,1.1706E4,1.1724E4,1.1732E4,6E3,1.241E4,7E3,6.42E3,2.041E3,5E3,1.161E4,2E3,1.1703E4,1.1841E4,1.1722E4,9.3716113E2,-1.0648389E3,1.1735E4,2.044E3,1.248E4,1.1739E4,2E3,-1.4845303E2,8.461732E1,-1.3885037E2,-1.157221E2,-1.3916092E2,-2.1377447E1,-1.1827852E2,-5.591701E1,4.8523766E1,-4.433571E2,1.1101813E3,2.6438385E2,-9.1447556E1,3.5282993E2,-1.8117624E2,4.6906613E2,7.116418E1,-4.4809375E2,3.178813E2,-7.726665E1,-4.3382864E2,9.711943E1,5.761297E2,1.7927531E2,2.4293204E2,3.3432285E1,1.9860541E2,2.1945834E2],"split_indices":[1,1,1,1,0,0,0,0,0,0,0,0,0,2,1,2,0,0,2,0,2,0,0,0,0,0,0,0,1,0,2,0,0,0,0,0,0,0,0,0,0,0,0,0,0,0,0,0,0,0,0,0,0,0,0,0,0,0,0],"split_type":[0,0,0,0,0,0,0,0,0,0,0,0,0,0,0,0,0,0,0,0,0,0,0,0,0,0,0,0,0,0,0,0,0,0,0,0,0,0,0,0,0,0,0,0,0,0,0,0,0,0,0,0,0,0,0,0,0,0,0],"sum_hessian":[1.66001E5,1.47188E5,1.8813E4,1.43279E5,3.909E3,6.55E2,1.8158E4,1.37044E5,6.235E3,3.601E3,3.08E2,6.46E2,9E0,1.491E3,1.6667E4,1.387E3,1.35657E5,2.464E3,3.771E3,3.594E3,7E0,1.88E2,1.2E2,6.44E2,2E0,2E0,7E0,6.1E2,8.81E2,3.054E3,1.3613E4,9.59E2,4.28E2,5.411E3,1.30246E5,2.64E2,2.2E3,3.053E3,7.18E2,3.583E3,1.1E1,3E0,4E0,1.78E2,1E1,1.19E2,1E0,6.41E2,3E0,3E0,4E0,4.3E1,5.67E2,7.7E1,8.04E2,3.005E3,4.9E1,6.559E3,7.054E3],"tree_param":{"num_deleted":"0","num_feature":"3","num_nodes":"59","size_leaf_vector":"1"}},{"base_weights":[-3.5091064E2,-5.334521E2,2.7689709E1,-5.5764954E2,-4.2952664E2,-9.3002594E1,1.4214131E2,-1.678498E2,-1.667049E2,-1.3219176E2,-3.1331546E2,-2.0031201E2,-8.8405464E1,3.6366516E1,1.4646564E2,-2.717459E2,-3.2290204E2,-1.9378963E2,-7.073293E1,-8.872477E1,-2.3531141E1,3.9321095E1,5.1382303E-1,1.5325967E2,1.4564746E2,-1.00306404E2,-7.305711E1,-1.1155011E2,-9.4037094E1,-6.394418E1,-4.9572906E1,-2.6267906E1,-2.785613E1,9.602519E0,2.5202257E1,7.5988775E-1,-2.2778838E0,4.813793E1,4.529368E1,4.0035686E1,4.4200882E1],"categories":[],"categories_nodes":[],"categories_segments":[],"categories_sizes":[],"default_left":[0,0,0,0,0,0,0,0,0,0,0,0,0,0,0,0,0,0,0,0,0,0,0,0,0,0,0,0,0,0,0,0,0,0,0,0,0,0,0,0,0],"id":20,"left_children":[1,3,5,7,9,11,13,-1,-1,-1,15,17,19,21,23,25,27,29,-1,31,-1,33,35,37,39,-1,-1,-1,-1,-1,-1,-1,-1,-1,-1,-1,-1,-1,-1,-1,-1],"loss_changes":[1.1472456E10,2.8141568E8,7.4596595E8,1.8432E4,2.7184128E7,1.2949072E7,1.267296E7,0E0,0E0,0E0,6.49488E5,2.03896E5,7.328E4,1.15443E5,1.2576E5,5.42314E5,5.75776E5,4.71508E5,0E0,1.09344E5,0E0,3.2637688E5,1.3942008E3,2.2456E4,4.70208E5,0E0,0E0,0E0,0E0,0E0,0E0,0E0,0E0,0E0,0E0,0E0,0E0,0E0,0E0,0E0,0E0],"parents":[2147483647,0,0,1,1,2,2,3,3,4,4,5,5,6,6,10,10,11,11,12,12,13,13,14,14,15,15,16,16,17,17,19,19,21,21,22,22,23,23,24,24],"right_children":[2,4,6,8,10,12,14,-1,-1,-1,16,18,20,22,24,26,28,30,-1,32,-1,34,36,38,40,-1,-1,-1,-1,-1,-1,-1,-1,-1,-1,-1,-1,-1,-1,-1,-1],"split_conditions":[4E3,2E3,6E3,1.1632E4,3E3,5E3,7E3,-1.678498E2,-1.667049E2,-1.3219176E2,2.396E3,1.168E4,1.1724E4,1.1648E4,7.241E3,1.1555E4,2.399E3,1.1539E4,-7.073293E1,1.1685E4,-2.3531141E1,1.1616E4,2.412E3,2.424E3,1.1579E4,-1.00306404E2,-7.305711E1,-1.1155011E2,-9.4037094E1,-6.394418E1,-4.9572906E1,-2.6267906E1,-2.785613E1,9.602519E0,2.5202257E1,7.5988775E-1,-2.2778838E0,4.813793E1,4.529368E1,4.0035686E1,4.4200882E1],"split_indices":[2,2,2,0,2,2,2,0,0,0,1,0,0,0,0,0,1,0,0,0,0,0,1,1,0,0,0,0,0,0,0,0,0,0,0,0,0,0,0,0,0],"split_type":[0,0,0,0,0,0,0,0,0,0,0,0,0,0,0,0,0,0,0,0,0,0,0,0,0,0,0,0,0,0,0,0,0,0,0,0,0,0,0,0,0],"sum_hessian":[1.66001E5,1.12E5,5.4001E4,9.0844E4,2.1156E4,2.6284E4,2.7717E4,4.6666E4,4.4178E4,1.9307E4,1.849E3,1.078E3,2.5206E4,1.089E3,2.6628E4,3.52E2,1.497E3,9.16E2,1.62E2,2.4416E4,7.9E2,1.006E3,8.3E1,2.842E3,2.3786E4,1.06E2,2.46E2,2.36E2,1.261E3,5.42E2,3.74E2,1.906E4,5.356E3,8.66E2,1.4E2,6.7E1,1.6E1,6.67E2,2.175E3,2.903E3,2.0883E4],"tree_param":{"num_deleted":"0","num_feature":"3","num_nodes":"41","size_leaf_vector":"1"}},{"base_weights":[4.2039462E2,-1.1843912E1,4.821422E2,-2.7473642E2,7.50012E1,4.555977E2,4.8372418E2,-2.368287E2,-5.3109955E2,9.6952446E1,1.6869576E1,4.5303928E2,2.1575346E2,4.8625406E2,4.7005115E2,-1.0590927E2,-3.2444208E2,-5.8836224E2,4.825689E2,3.3505026E2,8.9595856E1,-4.6755667E2,6.0432785E1,4.5831326E2,3.620203E2,4.8522906E2,5.4748676E2,-3.142973E2,4.8566873E2,-4.164857E1,4.5384656E2,-2.055643E2,-8.507267E1,-2.1625366E2,-1.4651376E2,9.297067E2,4.523992E1,4.567435E2,6.189602E1,5.3152668E1,2.5267036E1,-1.6961887E2,3.3184897E2,7.835271E0,4.0652763E1,1.3701149E2,2.0821956E2,6.621504E1,1.23345665E2,1.4628319E2,1.3635887E2,1.5217276E2,1.7175827E2,1.2263879E2,-1.5068092E2,1.4686119E2,1.18166534E2],"categories":[],"categories_nodes":[],"categories_segments":[],"categories_sizes":[],"default_left":[0,0,0,0,0,0,0,0,0,0,0,0,0,0,0,0,0,0,0,0,0,0,0,0,0,0,0,0,0,0,0,0,0,0,0,0,0,0,0,0,0,0,0,0,0,0,0,0,0,0,0,0,0,0,0,0,0],"id":21,"left_children":[1,3,5,7,9,11,13,15,17,19,21,23,-1,25,27,29,31,33,35,37,39,41,43,45,47,49,51,53,55,-1,-1,-1,-1,-1,-1,-1,-1,-1,-1,-1,-1,-1,-1,-1,-1,-1,-1,-1,-1,-1,-1,-1,-1,-1,-1,-1,-1],"loss_changes":[4.430547E9,4.7378518E8,5.87776E6,4.9951776E7,1.9903656E7,5.195008E6,4.511744E6,5.147875E7,3.8768016E7,1.9803192E7,9.028647E7,3.727744E6,0E0,6.991872E6,2.6267443E8,9.62341E7,3.9465696E7,7.96648E6,3.0782778E7,5.1504692E7,5.153672E6,5.4977536E7,1.0108293E7,2.588416E6,3.02644E6,8.091648E6,1.620288E6,5.7156468E7,7.268352E6,0E0,0E0,0E0,0E0,0E0,0E0,0E0,0E0,0E0,0E0,0E0,0E0,0E0,0E0,0E0,0E0,0E0,0E0,0E0,0E0,0E0,0E0,0E0,0E0,0E0,0E0,0E0,0E0],"parents":[2147483647,0,0,1,1,2,2,3,3,4,4,5,5,6,6,7,7,8,8,9,9,10,10,11,11,13,13,14,14,15,15,16,16,17,17,18,18,19,19,20,20,21,21,22,22,23,23,24,24,25,25,26,26,27,27,28,28],"right_children":[2,4,6,8,10,12,14,16,18,20,22,24,-1,26,28,30,32,34,36,38,40,42,44,46,48,50,52,54,56,-1,-1,-1,-1,-1,-1,-1,-1,-1,-1,-1,-1,-1,-1,-1,-1,-1,-1,-1,-1,-1,-1,-1,-1,-1,-1,-1,-1],"split_conditions":[7.241E3,2.063E3,1.1578E4,2.055E3,2E3,1.2578E4,6E3,7E3,1.2487E4,6.293E3,6.346E3,1.2487E4,2.1575346E2,1.2494E4,7E3,1.248E4,2.032E3,5E3,1.2494E4,2.394E3,6.329E3,6.825E3,1.2369E4,1.248E4,1.251E4,1.2369E4,3E3,2.397E3,1.2537E4,-4.164857E1,4.5384656E2,-2.055643E2,-8.507267E1,-2.1625366E2,-1.4651376E2,9.297067E2,4.523992E1,4.567435E2,6.189602E1,5.3152668E1,2.5267036E1,-1.6961887E2,3.3184897E2,7.835271E0,4.0652763E1,1.3701149E2,2.0821956E2,6.621504E1,1.23345665E2,1.4628319E2,1.3635887E2,1.5217276E2,1.7175827E2,1.2263879E2,-1.5068092E2,1.4686119E2,1.18166534E2],"split_indices":[0,0,0,0,2,1,2,2,1,0,0,1,0,1,2,1,0,2,1,1,0,1,1,1,1,1,2,1,1,0,0,0,0,0,0,0,0,0,0,0,0,0,0,0,0,0,0,0,0,0,0,0,0,0,0,0,0],"split_type":[0,0,0,0,0,0,0,0,0,0,0,0,0,0,0,0,0,0,0,0,0,0,0,0,0,0,0,0,0,0,0,0,0,0,0,0,0,0,0,0,0,0,0,0,0,0,0,0,0,0,0,0,0,0,0,0,0],"sum_hessian":[1.66001E5,2.075E4,1.45251E5,5.152E3,1.5598E4,8.186E3,1.37065E5,4.49E3,6.62E2,1.1322E4,4.276E3,8.11E3,7.6E1,1.15635E5,2.143E4,1.801E3,2.689E3,6.27E2,3.5E1,3.38E2,1.0984E4,3.52E2,3.924E3,7.662E3,4.48E2,1.1374E5,1.895E3,4.18E2,2.1012E4,1.766E3,3.5E1,2.72E2,2.417E3,2.67E2,3.6E2,3E0,3.2E1,3.2E1,3.06E2,6.33E2,1.0351E4,3.32E2,2E1,2.694E3,1.23E3,7.613E3,4.9E1,1.17E2,3.31E2,1.05538E5,8.202E3,7.35E2,1.16E3,8.6E1,3.32E2,2.0158E4,8.54E2],"tree_param":{"num_deleted":"0","num_feature":"3","num_nodes":"57","size_leaf_vector":"1"}},{"base_weights":[-1.7458882E2,-2.5798648E2,4.778717E2,-2.673328E2,8.457029E1,1.5751448E2,4.894184E2,-1.9501808E2,-2.73933E2,1.1111088E2,-2.8388846E2,-1.5906825E2,1.9989088E2,-1.790979E2,4.9242365E2,-2.5809354E2,-4.116507E0,-2.743565E2,-1.743992E2,1.0670487E2,3.2999878E3,-3.1384692E2,1.7343844E3,2.756475E2,-1.7351453E3,2.384335E2,-5.393115E2,-6.631552E2,5.237817E2,4.326116E2,5.1139072E2,-8.713292E1,-1.295678E1,-1.7004782E1,7.180345E1,-8.41532E1,-8.101965E1,-3.3266618E0,-1.2136035E2,9.6537994E1,2.3935764E1,1.2769972E3,-7.900339E1,-9.759643E1,3.9870618E2,-1.547608E2,1.2727719E3,-5.0207767E1,4.6792554E2,-6.1662994E2,-2.4161359E2,2.432393E2,6.2218243E1,-7.299498E1,-6.985352E2,2.3089262E1,-5.826243E2,2.316023E2,1.1645617E2,3.2444263E2,1.27037125E2,1.9685855E2,1.4808069E2],"categories":[],"categories_nodes":[],"categories_segments":[],"categories_sizes":[],"default_left":[0,0,0,0,0,0,0,0,0,0,0,0,0,0,0,0,0,0,0,0,0,0,0,0,0,0,0,0,0,0,0,0,0,0,0,0,0,0,0,0,0,0,0,0,0,0,0,0,0,0,0,0,0,0,0,0,0,0,0,0,0,0,0],"id":22,"left_children":[1,3,5,7,9,11,13,15,17,19,21,23,25,27,29,31,33,35,37,39,41,43,45,47,49,51,53,55,57,59,61,-1,-1,-1,-1,-1,-1,-1,-1,-1,-1,-1,-1,-1,-1,-1,-1,-1,-1,-1,-1,-1,-1,-1,-1,-1,-1,-1,-1,-1,-1,-1,-1],"loss_changes":[9.032903E9,4.7126938E8,6.95168E7,6.833152E7,3.826788E7,8.832455E6,3.6570624E7,1.4433693E8,5.487616E6,5.090308E7,1.6446462E7,5.3919636E7,1.662476E7,2.8246536E7,2.0287488E7,6.262541E7,3.8125452E7,3.376128E6,2.1004676E7,2.1072952E7,1.8165624E7,5.33363E6,2.4764856E7,3.553078E7,3.40708E6,9.62081E6,1.4791157E7,4.653081E7,8.44691E5,2.5434752E7,3.5016704E7,0E0,0E0,0E0,0E0,0E0,0E0,0E0,0E0,0E0,0E0,0E0,0E0,0E0,0E0,0E0,0E0,0E0,0E0,0E0,0E0,0E0,0E0,0E0,0E0,0E0,0E0,0E0,0E0,0E0,0E0,0E0,0E0],"parents":[2147483647,0,0,1,1,2,2,3,3,4,4,5,5,6,6,7,7,8,8,9,9,10,10,11,11,12,12,13,13,14,14,15,15,16,16,17,17,18,18,19,19,20,20,21,21,22,22,23,23,24,24,25,25,26,26,27,27,28,28,29,29,30,30],"right_children":[2,4,6,8,10,12,14,16,18,20,22,24,26,28,30,32,34,36,38,40,42,44,46,48,50,52,54,56,58,60,62,-1,-1,-1,-1,-1,-1,-1,-1,-1,-1,-1,-1,-1,-1,-1,-1,-1,-1,-1,-1,-1,-1,-1,-1,-1,-1,-1,-1,-1,-1,-1,-1],"split_conditions":[6.825E3,2.458E3,1.2369E4,6.594E3,1.1654E4,6.389E3,2.032E3,6.456E3,2.436E3,1.1652E4,6E3,6.346E3,6E3,1.2537E4,7.241E3,7E3,5E3,2.401E3,2.448E3,6.67E3,2E3,1.1841E4,1.167E4,2.05E3,6.375E3,6.438E3,1.1682E4,1.2518E4,1.2555E4,1.2382E4,1.1578E4,-8.713292E1,-1.295678E1,-1.7004782E1,7.180345E1,-8.41532E1,-8.101965E1,-3.3266618E0,-1.2136035E2,9.6537994E1,2.3935764E1,1.2769972E3,-7.900339E1,-9.759643E1,3.9870618E2,-1.547608E2,1.2727719E3,-5.0207767E1,4.6792554E2,-6.1662994E2,-2.4161359E2,2.432393E2,6.2218243E1,-7.299498E1,-6.985352E2,2.3089262E1,-5.826243E2,2.316023E2,1.1645617E2,3.2444263E2,1.27037125E2,1.9685855E2,1.4808069E2],"split_indices":[1,1,1,0,0,0,0,0,1,0,2,0,2,1,0,2,2,1,1,1,2,0,0,0,0,0,0,1,1,1,0,0,0,0,0,0,0,0,0,0,0,0,0,0,0,0,0,0,0,0,0,0,0,0,0,0,0,0,0,0,0,0,0],"split_type":[0,0,0,0,0,0,0,0,0,0,0,0,0,0,0,0,0,0,0,0,0,0,0,0,0,0,0,0,0,0,0,0,0,0,0,0,0,0,0,0,0,0,0,0,0,0,0,0,0,0,0,0,0,0,0,0,0,0,0,0,0,0,0],"sum_hessian":[1.66001E5,1.47188E5,1.8813E4,1.43279E5,3.909E3,6.55E2,1.8158E4,1.1986E4,1.31293E5,3.647E3,2.62E2,7.7E1,5.78E2,8.1E1,1.8077E4,9.009E3,2.977E3,1.30735E5,5.58E2,3.643E3,4E0,2.59E2,3E0,6.1E1,1.6E1,5.5E2,2.8E1,4.8E1,3.3E1,4.358E3,1.3719E4,7.83E3,1.179E3,2.449E3,5.28E2,5.3681E4,7.7054E4,3.27E2,2.31E2,4.04E2,3.239E3,3E0,1E0,2.58E2,1E0,2E0,1E0,4.6E1,1.5E1,1.1E1,5E0,2.7E1,5.23E2,2.5E1,3E0,3.1E1,1.7E1,1E1,2.3E1,5.9E1,4.299E3,1.497E3,1.2222E4],"tree_param":{"num_deleted":"0","num_feature":"3","num_nodes":"63","size_leaf_vector":"1"}},{"base_weights":[-2.456428E2,-3.73424E2,1.9381985E1,-3.9035834E2,-3.006929E2,-6.5111694E1,9.950671E1,-1.1755643E2,-1.1674309E2,-9.2536316E1,-2.1952565E2,-1.4038914E2,-6.1886818E1,2.5487104E1,1.025328E2,-2.1502336E2,-2.784155E2,-1.3360474E2,-1.631799E2,-6.2737045E1,-5.9050808E1,2.432207E1,1.1329115E2,1.0141849E2,1.0679123E2,-6.613621E1,-1.7437243E1,-8.936783E1,-4.2851433E1,-4.3406445E1,-1.0918525E1,-5.216424E1,3.3197362E0,-1.6385933E1,-1.8954971E1,-1.8430767E1,-1.7165092E1,-5.699577E0,7.738623E0,6.2301987E1,-1.414917E1,3.0805048E1,2.7153444E1,3.517585E1,3.179841E1],"categories":[],"categories_nodes":[],"categories_segments":[],"categories_sizes":[],"default_left":[0,0,0,0,0,0,0,0,0,0,0,0,0,0,0,0,0,0,0,0,0,0,0,0,0,0,0,0,0,0,0,0,0,0,0,0,0,0,0,0,0,0,0,0,0],"id":23,"left_children":[1,3,5,7,9,11,13,-1,-1,-1,15,17,19,21,23,25,27,29,31,33,35,37,39,41,43,-1,-1,-1,-1,-1,-1,-1,-1,-1,-1,-1,-1,-1,-1,-1,-1,-1,-1,-1,-1],"loss_changes":[5.6216955E9,1.3782938E8,3.656018E8,1.4336E4,1.32608E7,6.372272E6,6.205952E6,0E0,0E0,0E0,4.3064E5,1.45036E5,5.7072E4,1.0874594E5,1.1552E5,1.455296E6,2.95456E5,8.96529E5,4.55018E5,6.6728E4,2.199E4,6.923075E4,2.2181195E5,2.82176E5,3.3436E4,0E0,0E0,0E0,0E0,0E0,0E0,0E0,0E0,0E0,0E0,0E0,0E0,0E0,0E0,0E0,0E0,0E0,0E0,0E0,0E0],"parents":[2147483647,0,0,1,1,2,2,3,3,4,4,5,5,6,6,10,10,11,11,12,12,13,13,14,14,15,15,16,16,17,17,18,18,19,19,20,20,21,21,22,22,23,23,24,24],"right_children":[2,4,6,8,10,12,14,-1,-1,-1,16,18,20,22,24,26,28,30,32,34,36,38,40,42,44,-1,-1,-1,-1,-1,-1,-1,-1,-1,-1,-1,-1,-1,-1,-1,-1,-1,-1,-1,-1],"split_conditions":[4E3,2E3,6E3,1.1623E4,3E3,5E3,7E3,-1.1755643E2,-1.1674309E2,-9.2536316E1,1.167E4,1.1663E4,2.415E3,2.421E3,2.419E3,1.1665E4,2.412E3,1.1649E4,2.414E3,1.1592E4,1.1615E4,2.388E3,1.1607E4,2.413E3,2.422E3,-6.613621E1,-1.7437243E1,-8.936783E1,-4.2851433E1,-4.3406445E1,-1.0918525E1,-5.216424E1,3.3197362E0,-1.6385933E1,-1.8954971E1,-1.8430767E1,-1.7165092E1,-5.699577E0,7.738623E0,6.2301987E1,-1.414917E1,3.0805048E1,2.7153444E1,3.517585E1,3.179841E1],"split_indices":[2,2,2,0,2,2,2,0,0,0,0,0,1,1,1,0,1,0,1,0,0,1,0,1,1,0,0,0,0,0,0,0,0,0,0,0,0,0,0,0,0,0,0,0,0],"split_type":[0,0,0,0,0,0,0,0,0,0,0,0,0,0,0,0,0,0,0,0,0,0,0,0,0,0,0,0,0,0,0,0,0,0,0,0,0,0,0,0,0,0,0,0,0],"sum_hessian":[1.66001E5,1.12E5,5.4001E4,9.0844E4,2.1156E4,2.6284E4,2.7717E4,4.0559E4,5.0285E4,1.9307E4,1.849E3,1.078E3,2.5206E4,1.089E3,2.6628E4,1.722E3,1.27E2,8.36E2,2.42E2,1.9376E4,5.83E3,1.076E3,1.3E1,2.1125E4,5.503E3,1.664E3,5.8E1,1.1E2,1.7E1,7.5E2,8.6E1,2.28E2,1.4E1,1.016E3,1.836E4,2.52E3,3.31E3,3.5E1,1.041E3,8E0,5E0,1.8922E4,2.203E3,3.79E2,5.124E3],"tree_param":{"num_deleted":"0","num_feature":"3","num_nodes":"45","size_leaf_vector":"1"}},{"base_weights":[2.9429507E2,-8.216478E0,3.375105E2,-1.9217302E2,5.2552563E1,2.6025095E2,3.3785062E2,-5.165629E2,-1.6893346E2,6.79194E1,1.185786E1,1.8868675E2,3.4407437E2,3.3600876E2,3.4888168E2,-2.8877094E2,-4.889841E2,-1.1985432E2,-3.1013724E2,2.360651E2,6.2724197E1,-3.3154105E2,4.2072548E1,2.493037E2,-7.2087823E2,-5.637079E2,3.585393E2,3.2782462E2,3.3749146E2,3.5507623E2,3.2846652E2,6.4113945E1,-1.5706903E2,3.8163826E1,-7.20907E1,-1.1620315E2,1.2211953E2,5.419053E1,7.520707E2,1.4128908E1,2.688911E1,-1.2083343E2,2.37035E2,1.2957409E1,-4.312776E2,4.4073254E2,7.004248E1,-2.8483258E2,6.118439E2,-8.0855255E2,1.928858E2,1.5437053E2,8.323633E1,9.928219E1,7.475693E1,1.002131E2,1.0329147E2,1.0237741E2,1.0958132E2,-2.1436183E2,1.0480363E2],"categories":[],"categories_nodes":[],"categories_segments":[],"categories_sizes":[],"default_left":[0,0,0,0,0,0,0,0,0,0,0,0,0,0,0,0,0,0,0,0,0,0,0,0,0,0,0,0,0,0,0,0,0,0,0,0,0,0,0,0,0,0,0,0,0,0,0,0,0,0,0,0,0,0,0,0,0,0,0,0,0],"id":24,"left_children":[1,3,5,7,9,11,13,15,17,19,21,23,25,27,29,-1,31,33,35,37,39,41,43,45,47,49,51,53,55,57,59,-1,-1,-1,-1,-1,-1,-1,-1,-1,-1,-1,-1,-1,-1,-1,-1,-1,-1,-1,-1,-1,-1,-1,-1,-1,-1,-1,-1,-1,-1],"loss_changes":[2.1701724E9,2.3198269E8,3.729408E6,3.8759536E7,9.754008E6,3.78028E6,2.82112E6,3.76064E6,3.3296928E7,9.876416E6,4.439078E7,1.9366716E7,4.062632E6,1.393664E6,2.496512E6,0E0,8.033304E6,1.0629901E8,6.8819864E7,4.2217944E7,4.614808E6,2.7964876E7,6.57137E6,5.97072E6,1.5816553E7,1.4592656E7,3.526196E6,4.58432E6,2.349056E6,2.107136E6,1.0530083E8,0E0,0E0,0E0,0E0,0E0,0E0,0E0,0E0,0E0,0E0,0E0,0E0,0E0,0E0,0E0,0E0,0E0,0E0,0E0,0E0,0E0,0E0,0E0,0E0,0E0,0E0,0E0,0E0,0E0,0E0],"parents":[2147483647,0,0,1,1,2,2,3,3,4,4,5,5,6,6,7,7,8,8,9,9,10,10,11,11,12,12,13,13,14,14,16,16,17,17,18,18,19,19,20,20,21,21,22,22,23,23,24,24,25,25,26,26,27,27,28,28,29,29,30,30],"right_children":[2,4,6,8,10,12,14,16,18,20,22,24,26,28,30,-1,32,34,36,38,40,42,44,46,48,50,52,54,56,58,60,-1,-1,-1,-1,-1,-1,-1,-1,-1,-1,-1,-1,-1,-1,-1,-1,-1,-1,-1,-1,-1,-1,-1,-1,-1,-1,-1,-1,-1,-1],"split_conditions":[7.241E3,2.063E3,1.1539E4,2E3,2E3,6E3,1.1696E4,2.032E3,2.05E3,6.293E3,6.293E3,4E3,2.385E3,1.1596E4,4E3,-2.8877094E2,2.037E3,7E3,1.2487E4,2.421E3,6.511E3,6.825E3,6E3,2.385E3,1.251E4,7E3,2.401E3,1.2501E4,5E3,2E3,5E3,6.4113945E1,-1.5706903E2,3.8163826E1,-7.20907E1,-1.1620315E2,1.2211953E2,5.419053E1,7.520707E2,1.4128908E1,2.688911E1,-1.2083343E2,2.37035E2,1.2957409E1,-4.312776E2,4.4073254E2,7.004248E1,-2.8483258E2,6.118439E2,-8.0855255E2,1.928858E2,1.5437053E2,8.323633E1,9.928219E1,7.475693E1,1.002131E2,1.0329147E2,1.0237741E2,1.0958132E2,-2.1436183E2,1.0480363E2],"split_indices":[0,0,0,2,2,2,0,0,0,0,0,2,1,0,2,0,0,2,1,1,0,1,2,1,1,2,1,1,2,2,2,0,0,0,0,0,0,0,0,0,0,0,0,0,0,0,0,0,0,0,0,0,0,0,0,0,0,0,0,0,0],"split_type":[0,0,0,0,0,0,0,0,0,0,0,0,0,0,0,0,0,0,0,0,0,0,0,0,0,0,0,0,0,0,0,0,0,0,0,0,0,0,0,0,0,0,0,0,0,0,0,0,0,0,0,0,0,0,0,0,0,0,0,0,0],"sum_hessian":[1.66001E5,2.075E4,1.45251E5,5.152E3,1.5598E4,6.4E2,1.44611E5,3.43E2,4.809E3,1.1322E4,4.276E3,3.47E2,2.93E2,1.23947E5,2.0664E4,1.8E1,3.25E2,3.57E3,1.239E3,3.38E2,1.0984E4,3.45E2,3.931E3,3.26E2,2.1E1,4E0,2.89E2,1.9045E4,1.04902E5,1.5841E4,4.823E3,1.5E1,3.1E2,1.17E3,2.4E3,1.119E3,1.2E2,3.31E2,7E0,6.95E3,4.034E3,3.25E2,2E1,3.929E3,2E0,3E0,3.23E2,2E1,1E0,1E0,3E0,9.7E1,1.92E2,1.8316E4,7.29E2,6.9688E4,3.5214E4,6.74E3,9.101E3,9.4E1,4.729E3],"tree_param":{"num_deleted":"0","num_feature":"3","num_nodes":"61","size_leaf_vector":"1"}},{"base_weights":[-1.2219966E2,-1.805742E2,3.3449286E2,-1.8713528E2,5.9899525E1,1.0887818E2,3.4262485E2,-1.365165E2,-1.917553E2,8.365889E1,-1.914381E2,6.782963E1,3.5357455E2,2.2457677E2,3.5238895E2,-1.5976027E2,1.7133586E2,-1.920508E2,-1.2230248E2,3.406894E2,5.6873924E1,-4.9795438E2,-1.5081044E2,1.0594084E2,-5.101322E2,1.4516649E3,7.4399666E1,-3.5488087E1,4.680295E2,3.8430157E2,3.229054E2,-6.0881016E1,-8.963596E0,2.16234E2,-1.985501E0,-6.442168E1,-5.7321365E1,-4.7056904E1,1.7762543E2,4.02531E1,3.763523E2,2.2533566E1,8.902959E0,8.180583E2,-5.566504E1,2.7731909E1,7.3269885E2,-4.5677487E2,-3.0332289E1,5.202675E2,-1.2447437E1,-3.6075916E2,9.978409E1,-7.0017525E1,1.1615348E2,4.3749515E2,1.1751693E2,1.1782261E2,-6.040699E1,1.1191112E2,8.429198E1],"categories":[],"categories_nodes":[],"categories_segments":[],"categories_sizes":[],"default_left":[0,0,0,0,0,0,0,0,0,0,0,0,0,0,0,0,0,0,0,0,0,0,0,0,0,0,0,0,0,0,0,0,0,0,0,0,0,0,0,0,0,0,0,0,0,0,0,0,0,0,0,0,0,0,0,0,0,0,0,0,0],"id":25,"left_children":[1,3,5,7,9,11,13,15,17,19,21,23,25,27,29,31,33,35,37,39,41,-1,43,45,47,49,51,53,55,57,59,-1,-1,-1,-1,-1,-1,-1,-1,-1,-1,-1,-1,-1,-1,-1,-1,-1,-1,-1,-1,-1,-1,-1,-1,-1,-1,-1,-1,-1,-1],"loss_changes":[4.4255437E9,2.3224166E8,3.448051E7,3.3481216E7,2.336506E7,6.5651645E6,2.0851456E7,8.580218E7,2.671104E6,2.4579132E7,1.9914096E7,1.2455149E7,2.8708566E7,8.8022376E7,1.5654784E7,6.249875E7,8.233206E7,2.864128E6,1.38917E7,6.3428556E7,1.603405E6,0E0,3.3495866E7,1.6460972E7,1.434016E7,8.08818E6,2.545879E7,5.638494E7,5.3684656E7,3.9862144E7,1.8232E7,0E0,0E0,0E0,0E0,0E0,0E0,0E0,0E0,0E0,0E0,0E0,0E0,0E0,0E0,0E0,0E0,0E0,0E0,0E0,0E0,0E0,0E0,0E0,0E0,0E0,0E0,0E0,0E0,0E0,0E0],"parents":[2147483647,0,0,1,1,2,2,3,3,4,4,5,5,6,6,7,7,8,8,9,9,10,10,11,11,12,12,13,13,14,14,15,15,16,16,17,17,18,18,19,19,20,20,22,22,23,23,24,24,25,25,26,26,27,27,28,28,29,29,30,30],"right_children":[2,4,6,8,10,12,14,16,18,20,22,24,26,28,30,32,34,36,38,40,42,-1,44,46,48,50,52,54,56,58,60,-1,-1,-1,-1,-1,-1,-1,-1,-1,-1,-1,-1,-1,-1,-1,-1,-1,-1,-1,-1,-1,-1,-1,-1,-1,-1,-1,-1,-1,-1],"split_conditions":[6.825E3,2.458E3,1.2369E4,6.594E3,1.157E4,1.1653E4,6.42E3,6.545E3,2.436E3,6.67E3,1.1606E4,1.1634E4,1.1662E4,1.2501E4,1.246E4,5E3,6.554E3,1.1574E4,3E3,6E3,6.764E3,-4.9795438E2,1.161E4,1.1631E4,1.1639E4,6E3,1.1671E4,6E3,6E3,1.1739E4,1.16E4,-6.0881016E1,-8.963596E0,2.16234E2,-1.985501E0,-6.442168E1,-5.7321365E1,-4.7056904E1,1.7762543E2,4.02531E1,3.763523E2,2.2533566E1,8.902959E0,8.180583E2,-5.566504E1,2.7731909E1,7.3269885E2,-4.5677487E2,-3.0332289E1,5.202675E2,-1.2447437E1,-3.6075916E2,9.978409E1,-7.0017525E1,1.1615348E2,4.3749515E2,1.1751693E2,1.1782261E2,-6.040699E1,1.1191112E2,8.429198E1],"split_indices":[1,1,1,0,0,0,0,0,1,1,0,0,0,1,1,2,0,0,2,2,1,0,0,0,0,2,0,2,2,0,0,0,0,0,0,0,0,0,0,0,0,0,0,0,0,0,0,0,0,0,0,0,0,0,0,0,0,0,0,0,0],"split_type":[0,0,0,0,0,0,0,0,0,0,0,0,0,0,0,0,0,0,0,0,0,0,0,0,0,0,0,0,0,0,0,0,0,0,0,0,0,0,0,0,0,0,0,0,0,0,0,0,0,0,0,0,0,0,0,0,0,0,0,0,0],"sum_hessian":[1.66001E5,1.47188E5,1.8813E4,1.43279E5,3.909E3,6.55E2,1.8158E4,1.1986E4,1.31293E5,3.572E3,3.37E2,5.62E2,9.3E1,1.389E3,1.6769E4,1.1145E4,8.41E2,1.30735E5,5.58E2,3.36E2,3.236E3,8E0,3.29E2,5.28E2,3.4E1,1.8E1,7.5E1,6.72E2,7.17E2,8.047E3,8.722E3,8.364E3,2.781E3,2.05E2,6.36E2,5.402E3,1.25333E5,5.33E2,2.5E1,2.75E2,6.1E1,1.936E3,1.3E3,3E0,3.26E2,5.26E2,2E0,9E0,2.5E1,1.5E1,3E0,1.2E1,6.3E1,4.58E2,2.14E2,5E1,6.67E2,7.933E3,1.14E2,3.969E3,4.753E3],"tree_param":{"num_deleted":"0","num_feature":"3","num_nodes":"61","size_leaf_vector":"1"}},{"base_weights":[-1.7195325E2,-2.6140167E2,1.3567394E1,-2.7325345E2,-2.1049954E2,-4.5584766E1,6.966094E1,-2.7274667E2,-8.271805E1,-6.477684E1,-1.5378456E2,-9.8368195E1,-4.3323532E1,1.7886887E1,7.177758E1,-8.215721E1,-2.7171747E2,-1.4923839E2,-2.0953899E2,-1.1054498E2,-8.7094894E1,-4.3551163E1,-3.6242138E1,2.0398575E1,-4.009744E0,7.1905365E1,4.11568E1,-8.178856E1,-8.0797295E1,-5.1417908E1,-4.1865883E1,-7.5668076E1,-2.9914532E1,-2.9939339E1,-3.6704906E1,-3.1747509E1,-2.0087488E1,-1.2874808E1,-1.4245027E1,-9.989403E0,-1.1433117E1,5.4359674E0,8.832728E1,-3.5441124E0,9.222482E0,2.139292E1,2.4229313E1,-1.7589825E0,4.659676E1],"categories":[],"categories_nodes":[],"categories_segments":[],"categories_sizes":[],"default_left":[0,0,0,0,0,0,0,0,0,0,0,0,0,0,0,0,0,0,0,0,0,0,0,0,0,0,0,0,0,0,0,0,0,0,0,0,0,0,0,0,0,0,0,0,0,0,0,0,0],"id":26,"left_children":[1,3,5,7,9,11,13,15,-1,-1,17,19,21,23,25,-1,27,29,31,33,35,37,39,41,43,45,47,-1,-1,-1,-1,-1,-1,-1,-1,-1,-1,-1,-1,-1,-1,-1,-1,-1,-1,-1,-1,-1,-1],"loss_changes":[2.7547284E9,6.75113E7,1.7918475E8,3.84E4,6.47424E6,3.133E6,3.036256E6,1.1776E4,0E0,0E0,4.37648E5,1.38489E5,3.9052E4,6.0029094E4,1.01232E5,0E0,1.2288E4,3.43872E5,6.17126E5,5.3127E4,2.0601E5,5.8948E4,3.08175E3,6.053463E5,3.1008578E4,1.3416E5,6.075039E5,0E0,0E0,0E0,0E0,0E0,0E0,0E0,0E0,0E0,0E0,0E0,0E0,0E0,0E0,0E0,0E0,0E0,0E0,0E0,0E0,0E0,0E0],"parents":[2147483647,0,0,1,1,2,2,3,3,4,4,5,5,6,6,7,7,10,10,11,11,12,12,13,13,14,14,16,16,17,17,18,18,19,19,20,20,21,21,22,22,23,23,24,24,25,25,26,26],"right_children":[2,4,6,8,10,12,14,16,-1,-1,18,20,22,24,26,-1,28,30,32,34,36,38,40,42,44,46,48,-1,-1,-1,-1,-1,-1,-1,-1,-1,-1,-1,-1,-1,-1,-1,-1,-1,-1,-1,-1,-1,-1],"split_conditions":[4E3,2E3,6E3,2.417E3,3E3,5E3,7E3,1.1632E4,-8.271805E1,-6.477684E1,2.415E3,2.402E3,1.1724E4,1.1641E4,1.1711E4,-8.215721E1,2.407E3,1.1549E4,2.418E3,1.16E4,1.1539E4,1.1696E4,2.402E3,1.1639E4,2.412E3,1.1681E4,2.41E3,-8.178856E1,-8.0797295E1,-5.1417908E1,-4.1865883E1,-7.5668076E1,-2.9914532E1,-2.9939339E1,-3.6704906E1,-3.1747509E1,-2.0087488E1,-1.2874808E1,-1.4245027E1,-9.989403E0,-1.1433117E1,5.4359674E0,8.832728E1,-3.5441124E0,9.222482E0,2.139292E1,2.4229313E1,-1.7589825E0,4.659676E1],"split_indices":[2,2,2,1,2,2,2,0,0,0,1,1,0,0,0,0,1,0,1,0,0,0,1,0,1,0,1,0,0,0,0,0,0,0,0,0,0,0,0,0,0,0,0,0,0,0,0,0,0],"split_type":[0,0,0,0,0,0,0,0,0,0,0,0,0,0,0,0,0,0,0,0,0,0,0,0,0,0,0,0,0,0,0,0,0,0,0,0,0,0,0,0,0,0,0,0,0,0,0,0,0],"sum_hessian":[1.66001E5,1.12E5,5.4001E4,9.0844E4,2.1156E4,2.6284E4,2.7717E4,7.5488E4,1.5356E4,1.9307E4,1.849E3,1.078E3,2.5206E4,1.089E3,2.6628E4,3.6179E4,3.9309E4,1.713E3,1.36E2,5.14E2,5.64E2,2.4416E4,7.9E2,9.77E2,1.12E2,2.6516E4,1.12E2,2.8389E4,1.092E4,5.16E2,1.197E3,9.7E1,3.9E1,2.74E2,2.4E2,2.9E2,2.74E2,2.1031E4,3.385E3,3.14E2,4.76E2,9.7E2,7E0,9.2E1,2E1,2.4854E4,1.662E3,8E1,3.2E1],"tree_param":{"num_deleted":"0","num_feature":"3","num_nodes":"49","size_leaf_vector":"1"}},{"base_weights":[2.0601324E2,-5.745018E0,2.3626405E2,-1.3460059E2,3.6821712E1,2.3950577E2,2.2983849E2,-1.6507109E2,6.076172E1,2.0703789E2,3.377617E1,2.3500731E2,2.60031E2,-2.766881E0,2.391515E2,-1.0507189E2,-2.356881E2,8.2421747E2,1.9089756E1,5.1753577E2,3.3954094E1,-6.605552E1,3.8251965E1,2.3327742E2,2.6126913E2,-4.5373495E2,2.6092258E2,1.0730099E2,-2.7337064E2,2.4352286E2,2.0157814E2,-5.8158034E-1,-8.6656166E1,-1.23378426E2,-5.666461E1,1.8142645E2,3.1822458E2,-1.4472856E2,2.2098585E1,2.0307758E2,-1.2286433E2,1.1109635E2,-7.924763E0,-4.6234657E1,1.053243E2,1.3958228E1,-5.2063003E0,2.9179186E1,7.0088005E1,7.5252075E1,9.185503E1,-8.105127E1,-6.4628705E2,4.3633595E1,7.879804E1,4.8496037E1,-8.1365E1,1.1000398E2,-1.515856E2,7.846597E1,6.804431E1,3.89443E1,7.245291E1],"categories":[],"categories_nodes":[],"categories_segments":[],"categories_sizes":[],"default_left":[0,0,0,0,0,0,0,0,0,0,0,0,0,0,0,0,0,0,0,0,0,0,0,0,0,0,0,0,0,0,0,0,0,0,0,0,0,0,0,0,0,0,0,0,0,0,0,0,0,0,0,0,0,0,0,0,0,0,0,0,0,0,0],"id":27,"left_children":[1,3,5,7,9,11,13,15,17,19,21,23,25,27,29,31,33,35,37,39,41,43,45,47,49,51,53,55,57,59,61,-1,-1,-1,-1,-1,-1,-1,-1,-1,-1,-1,-1,-1,-1,-1,-1,-1,-1,-1,-1,-1,-1,-1,-1,-1,-1,-1,-1,-1,-1,-1,-1],"loss_changes":[1.06338714E9,1.1382337E8,2.9696E6,3.068476E7,8.07955E6,8.850944E6,1.0556672E8,1.8863616E7,2.2127298E7,1.4707778E7,6.850588E6,3.536384E6,1.1154304E7,5.593536E7,7.64672E6,4.5716584E7,1.6744352E7,1.227256E6,1.8126416E7,1.4758434E7,3.6040278E6,2.422445E7,6.751006E6,3.506176E6,2.21136E6,6.285511E6,3.437184E6,2.750928E7,8.078664E7,1.2583936E7,1.3978768E7,0E0,0E0,0E0,0E0,0E0,0E0,0E0,0E0,0E0,0E0,0E0,0E0,0E0,0E0,0E0,0E0,0E0,0E0,0E0,0E0,0E0,0E0,0E0,0E0,0E0,0E0,0E0,0E0,0E0,0E0,0E0,0E0],"parents":[2147483647,0,0,1,1,2,2,3,3,4,4,5,5,6,6,7,7,8,8,9,9,10,10,11,11,12,12,13,13,14,14,15,15,16,16,17,17,18,18,19,19,20,20,21,21,22,22,23,23,24,24,25,25,26,26,27,27,28,28,29,29,30,30],"right_children":[2,4,6,8,10,12,14,16,18,20,22,24,26,28,30,32,34,36,38,40,42,44,46,48,50,52,54,56,58,60,62,-1,-1,-1,-1,-1,-1,-1,-1,-1,-1,-1,-1,-1,-1,-1,-1,-1,-1,-1,-1,-1,-1,-1,-1,-1,-1,-1,-1,-1,-1,-1,-1],"split_conditions":[7.241E3,2.063E3,3E3,1.2501E4,2.389E3,2E3,5E3,2.416E3,6E3,6.361E3,6.293E3,1.241E4,1.1577E4,4E3,1.239E4,2.05E3,6E3,2.055E3,2.032E3,4E3,2.383E3,2.415E3,1.2494E4,1.1539E4,1.1666E4,1.1572E4,1.1627E4,2.413E3,1.1633E4,6E3,1.2494E4,-5.8158034E-1,-8.6656166E1,-1.23378426E2,-5.666461E1,1.8142645E2,3.1822458E2,-1.4472856E2,2.2098585E1,2.0307758E2,-1.2286433E2,1.1109635E2,-7.924763E0,-4.6234657E1,1.053243E2,1.3958228E1,-5.2063003E0,2.9179186E1,7.0088005E1,7.5252075E1,9.185503E1,-8.105127E1,-6.4628705E2,4.3633595E1,7.879804E1,4.8496037E1,-8.1365E1,1.1000398E2,-1.515856E2,7.846597E1,6.804431E1,3.89443E1,7.245291E1],"split_indices":[0,0,2,1,1,2,2,1,2,0,0,1,0,2,1,0,2,0,0,2,1,1,1,0,0,0,0,1,0,2,1,0,0,0,0,0,0,0,0,0,0,0,0,0,0,0,0,0,0,0,0,0,0,0,0,0,0,0,0,0,0,0,0],"split_type":[0,0,0,0,0,0,0,0,0,0,0,0,0,0,0,0,0,0,0,0,0,0,0,0,0,0,0,0,0,0,0,0,0,0,0,0,0,0,0,0,0,0,0,0,0,0,0,0,0,0,0,0,0,0,0,0,0,0,0,0,0,0,0],"sum_hessian":[1.66001E5,2.075E4,1.45251E5,5.152E3,1.5598E4,9.652E4,4.8731E4,4.457E3,6.95E2,2.73E2,1.5325E4,7.9179E4,1.7341E4,1.876E3,4.6855E4,2.411E3,2.046E3,3.5E1,6.6E2,9.7E1,1.76E2,6.57E2,1.4668E4,7.4295E4,4.884E3,2.1E1,1.732E4,1.334E3,5.42E2,4.1967E4,4.888E3,1.545E3,8.66E2,4.29E2,1.617E3,2E1,1.5E1,6.4E1,5.96E2,8.3E1,1.4E1,2.6E1,1.5E2,5.43E2,1.14E2,1.2768E4,1.9E3,1.91E2,7.4104E4,3.969E3,9.15E2,2E1,1E0,2.58E2,1.7062E4,1.167E3,1.67E2,1.44E2,3.98E2,2.0178E4,2.1789E4,1.749E3,3.139E3],"tree_param":{"num_deleted":"0","num_feature":"3","num_nodes":"63","size_leaf_vector":"1"}},{"base_weights":[-8.55263E1,-1.2955202E2,2.1156758E2,-1.3337177E2,-6.0052944E1,5.410794E1,2.3988461E2,-1.6433554E2,-1.3175441E2,7.377581E0,-1.2097739E2,5.661182E1,-7.670671E2,-2.4374828E2,2.4206506E2,-1.925418E2,1.1708217E2,1.6303473E1,-1.3482474E2,-2.1637283E2,3.1252161E1,-1.4754253E2,-3.896761E0,5.4443497E1,7.173285E2,-8.8427167E2,1.4650562E2,1.309841E3,-3.836348E2,2.3916647E2,6.0393085E2,-6.071651E1,9.191911E1,8.377766E1,-4.8312477E1,-1.5736928E1,1.4076157E2,-4.231173E1,-3.955785E1,-2.5538597E2,6.025497E1,1.7004674E2,2.6434913E0,-6.4826126E1,-3.647333E1,-5.6421566E1,2.127294E1,1.7032297E1,-2.6969073E2,2.0990742E2,-9.760325E1,5.272192E2,1.6044734E2,-2.6575998E2,7.88472E1,7.021723E1,1.1114344E2,2.0700056E2,1.5430533E2],"categories":[],"categories_nodes":[],"categories_segments":[],"categories_sizes":[],"default_left":[0,0,0,0,0,0,0,0,0,0,0,0,0,0,0,0,0,0,0,0,0,0,0,0,0,0,0,0,0,0,0,0,0,0,0,0,0,0,0,0,0,0,0,0,0,0,0,0,0,0,0,0,0,0,0,0,0,0,0],"id":28,"left_children":[1,3,5,7,9,11,13,15,17,19,21,23,25,27,29,31,33,35,37,39,41,43,45,47,-1,-1,49,51,53,55,57,-1,-1,-1,-1,-1,-1,-1,-1,-1,-1,-1,-1,-1,-1,-1,-1,-1,-1,-1,-1,-1,-1,-1,-1,-1,-1,-1,-1],"loss_changes":[2.171296E9,3.8372864E7,9.551654E7,6.8416E6,3.0951824E7,6.760782E6,1.9208192E7,5.399123E7,5.9210496E7,1.9114906E7,1.2309844E7,1.6361538E7,2.0352336E7,1.832325E7,1.8817536E7,3.0423376E7,2.801019E7,8.24561E7,2.332928E6,9.156163E7,3.885074E7,5.715176E6,1.011225E7,7.286651E6,0E0,0E0,2.315805E6,1.488146E6,2.4907904E7,1.1946176E7,7.4766E5,0E0,0E0,0E0,0E0,0E0,0E0,0E0,0E0,0E0,0E0,0E0,0E0,0E0,0E0,0E0,0E0,0E0,0E0,0E0,0E0,0E0,0E0,0E0,0E0,0E0,0E0,0E0,0E0],"parents":[2147483647,0,0,1,1,2,2,3,3,4,4,5,5,6,6,7,7,8,8,9,9,10,10,11,11,12,12,13,13,14,14,15,15,16,16,17,17,18,18,19,19,20,20,21,21,22,22,23,23,26,26,27,27,28,28,29,29,30,30],"right_children":[2,4,6,8,10,12,14,16,18,20,22,24,26,28,30,32,34,36,38,40,42,44,46,48,-1,-1,50,52,54,56,58,-1,-1,-1,-1,-1,-1,-1,-1,-1,-1,-1,-1,-1,-1,-1,-1,-1,-1,-1,-1,-1,-1,-1,-1,-1,-1,-1,-1],"split_conditions":[6.724E3,2.42E3,1.2369E4,6.42E3,7.241E3,1.1726E4,2.032E3,7E3,6.594E3,2.041E3,5E3,1.1724E4,1.1732E4,1.2494E4,1.1767E4,2.418E3,2.41E3,5E3,1.1624E4,2.441E3,2.422E3,1.1653E4,1.1617E4,1.171E4,7.173285E2,-8.8427167E2,1.1735E4,1.2487E4,1.2537E4,1.2578E4,1.2501E4,-6.071651E1,9.191911E1,8.377766E1,-4.8312477E1,-1.5736928E1,1.4076157E2,-4.231173E1,-3.955785E1,-2.5538597E2,6.025497E1,1.7004674E2,2.6434913E0,-6.4826126E1,-3.647333E1,-5.6421566E1,2.127294E1,1.7032297E1,-2.6969073E2,2.0990742E2,-9.760325E1,5.272192E2,1.6044734E2,-2.6575998E2,7.88472E1,7.021723E1,1.1114344E2,2.0700056E2,1.5430533E2],"split_indices":[1,1,1,0,0,0,0,2,0,0,2,0,0,1,0,1,1,2,0,1,1,0,0,0,0,0,0,1,1,1,1,0,0,0,0,0,0,0,0,0,0,0,0,0,0,0,0,0,0,0,0,0,0,0,0,0,0,0,0],"split_type":[0,0,0,0,0,0,0,0,0,0,0,0,0,0,0,0,0,0,0,0,0,0,0,0,0,0,0,0,0,0,0,0,0,0,0,0,0,0,0,0,0,0,0,0,0,0,0,0,0,0,0,0,0,0,0,0,0,0,0],"sum_hessian":[1.66001E5,1.44577E5,2.1424E4,1.37044E5,7.533E3,3.266E3,1.8158E4,6.798E3,1.30246E5,3.576E3,3.957E3,3.257E3,9E0,8.1E1,1.8077E4,6.179E3,6.19E2,2.646E3,1.276E5,3.44E2,3.232E3,3.225E3,7.32E2,3.255E3,2E0,2E0,7E0,6E0,7.5E1,1.7935E4,1.42E2,6.06E3,1.19E2,3.91E2,2.28E2,2.298E3,3.48E2,4.1203E4,8.6397E4,1.36E2,2.08E2,1.29E2,3.103E3,8.84E2,2.341E3,2.11E2,5.21E2,3.248E3,7E0,3E0,4E0,3E0,3E0,4.2E1,3.3E1,1.7266E4,6.69E2,6.9E1,7.3E1],"tree_param":{"num_deleted":"0","num_feature":"3","num_nodes":"59","size_leaf_vector":"1"}},{"base_weights":[-1.2037069E2,-1.8298643E2,9.497605E0,-1.9128102E2,-1.4736212E2,-3.1915525E1,4.8769363E1,-1.9081677E2,-5.7853466E1,-4.5344788E1,-1.0775662E2,-6.89675E1,-3.0328228E1,1.2611974E1,5.0247555E1,-1.9105197E2,-1.8575375E2,-7.996951E1,-1.1423266E2,-1.0302785E2,-6.61737E1,-3.21113E1,-2.9471281E1,5.248129E0,2.00204E1,5.49077E1,4.940265E1,-5.745872E1,-5.6795864E1,-5.4017673E1,-5.705335E1,-9.903332E0,-4.0165478E1,-4.280113E1,-3.1342028E1,-2.2303268E1,-3.8549698E1,-1.8004618E1,-2.599365E1,-9.0730295E0,-1.39603405E1,-9.017304E0,-6.6314607E0,1.7345979E0,-1.3182373E1,5.342391E0,4.479377E1,1.6106277E1,1.9596996E1,6.074652E0,1.5243346E1],"categories":[],"categories_nodes":[],"categories_segments":[],"categories_sizes":[],"default_left":[0,0,0,0,0,0,0,0,0,0,0,0,0,0,0,0,0,0,0,0,0,0,0,0,0,0,0,0,0,0,0,0,0,0,0,0,0,0,0,0,0,0,0,0,0,0,0,0,0,0,0],"id":29,"left_children":[1,3,5,7,9,11,13,15,-1,-1,17,19,21,23,25,27,29,31,33,35,37,39,41,43,45,47,49,-1,-1,-1,-1,-1,-1,-1,-1,-1,-1,-1,-1,-1,-1,-1,-1,-1,-1,-1,-1,-1,-1,-1,-1],"loss_changes":[1.3498967E9,3.3067008E7,8.78286E7,2.9184E4,3.15712E6,1.543794E6,1.480828E6,4.8128E4,0E0,0E0,3.23772E5,9.58575E4,3.757E4,5.9359312E4,1.02136E5,1.92E4,4.5128E4,8.8929925E5,4.00836E5,4.889525E4,1.20872E5,2.18725E5,7.293E4,1.4644784E4,1.526661E5,4.8317E4,9.25032E5,0E0,0E0,0E0,0E0,0E0,0E0,0E0,0E0,0E0,0E0,0E0,0E0,0E0,0E0,0E0,0E0,0E0,0E0,0E0,0E0,0E0,0E0,0E0,0E0],"parents":[2147483647,0,0,1,1,2,2,3,3,4,4,5,5,6,6,7,7,10,10,11,11,12,12,13,13,14,14,15,15,16,16,17,17,18,18,19,19,20,20,21,21,22,22,23,23,24,24,25,25,26,26],"right_children":[2,4,6,8,10,12,14,16,-1,-1,18,20,22,24,26,28,30,32,34,36,38,40,42,44,46,48,50,-1,-1,-1,-1,-1,-1,-1,-1,-1,-1,-1,-1,-1,-1,-1,-1,-1,-1,-1,-1,-1,-1,-1,-1],"split_conditions":[4E3,2E3,6E3,2.413E3,3E3,5E3,7E3,1.1706E4,-5.7853466E1,-4.5344788E1,2.396E3,2.391E3,2.4E3,7.241E3,1.1562E4,2.407E3,1.1716E4,1.1608E4,2.401E3,6.536E3,1.1663E4,2.399E3,1.1711E4,2.421E3,2.421E3,1.1555E4,1.1574E4,-5.745872E1,-5.6795864E1,-5.4017673E1,-5.705335E1,-9.903332E0,-4.0165478E1,-4.280113E1,-3.1342028E1,-2.2303268E1,-3.8549698E1,-1.8004618E1,-2.599365E1,-9.0730295E0,-1.39603405E1,-9.017304E0,-6.6314607E0,1.7345979E0,-1.3182373E1,5.342391E0,4.479377E1,1.6106277E1,1.9596996E1,6.074652E0,1.5243346E1],"split_indices":[2,2,2,1,2,2,2,0,0,0,1,1,1,0,0,1,0,0,1,0,0,1,0,1,1,0,0,0,0,0,0,0,0,0,0,0,0,0,0,0,0,0,0,0,0,0,0,0,0,0,0],"split_type":[0,0,0,0,0,0,0,0,0,0,0,0,0,0,0,0,0,0,0,0,0,0,0,0,0,0,0,0,0,0,0,0,0,0,0,0,0,0,0,0,0,0,0,0,0,0,0,0,0,0,0],"sum_hessian":[1.66001E5,1.12E5,5.4001E4,9.0844E4,2.1156E4,2.6284E4,2.7717E4,7.0144E4,2.07E4,1.9307E4,1.849E3,1.078E3,2.5206E4,1.089E3,2.6628E4,6.6995E4,3.149E3,3.52E2,1.497E3,7.9E1,9.99E2,8.17E3,1.7036E4,5.47E2,5.42E2,4.077E3,2.2551E4,5.2443E4,1.4552E4,1.395E3,1.754E3,1.89E2,1.63E2,3.79E2,1.118E3,3.9E1,4E1,7.71E2,2.28E2,7.236E3,9.34E2,1.5777E4,1.259E3,5.42E2,5E0,5.34E2,8E0,3.655E3,4.22E2,1.04E3,2.1511E4],"tree_param":{"num_deleted":"0","num_feature":"3","num_nodes":"51","size_leaf_vector":"1"}},{"base_weights":[1.4421066E2,-4.003968E0,1.6538391E2,-9.419914E1,2.5791513E1,1.6514226E2,2.1839879E2,-1.02030045E2,4.6775412E2,1.5525412E1,6.2773983E1,1.6730017E2,1.6089368E2,6.335435E1,2.5017747E2,-3.1934686E2,-8.6237E1,3.898505E2,3.1009875E2,3.1448065E1,-3.2773518E1,1.1191959E3,4.5010815E1,1.6441005E2,1.808503E2,-1.976421E0,1.6741478E2,8.509188E1,2.1955891E2,-1.1712411E2,-3.048204E1,1.9292038E1,-3.588646E1,1.0791146E2,-3.999401E2,7.7920947E0,1.2649541E2,-6.884265E1,-1.843804E0,1.474544E2,4.6253293E2,-4.0136463E1,3.4863506E1,4.895642E1,5.487679E1,-6.567771E1,5.4530193E1,3.6364685E1,-3.8912758E1,5.1140926E1,4.234524E1,6.6773E1,3.9634278E0],"categories":[],"categories_nodes":[],"categories_segments":[],"categories_sizes":[],"default_left":[0,0,0,0,0,0,0,0,0,0,0,0,0,0,0,0,0,0,0,0,0,0,0,0,0,0,0,0,0,0,0,0,0,0,0,0,0,0,0,0,0,0,0,0,0,0,0,0,0,0,0,0,0],"id":30,"left_children":[1,3,5,7,9,11,13,15,17,19,21,23,25,-1,27,29,31,-1,33,35,37,39,41,43,45,47,49,-1,51,-1,-1,-1,-1,-1,-1,-1,-1,-1,-1,-1,-1,-1,-1,-1,-1,-1,-1,-1,-1,-1,-1,-1,-1],"loss_changes":[5.2094592E8,5.5768844E7,1.824768E6,2.2724024E7,5.921431E6,1.298688E6,9.7634E4,1.7417792E7,8.907216E6,9.391865E6,6.354557E7,3.724544E6,5.1757184E7,0E0,5.65735E4,5.283416E6,2.3830148E7,0E0,5.4519095E6,1.9607312E7,1.5858294E7,1.4095952E7,4.2459516E7,1.757952E6,6.214464E6,2.9551552E7,3.735296E6,0E0,3.753525E4,0E0,0E0,0E0,0E0,0E0,0E0,0E0,0E0,0E0,0E0,0E0,0E0,0E0,0E0,0E0,0E0,0E0,0E0,0E0,0E0,0E0,0E0,0E0,0E0],"parents":[2147483647,0,0,1,1,2,2,3,3,4,4,5,5,6,6,7,7,8,8,9,9,10,10,11,11,12,12,14,14,15,15,16,16,18,18,19,19,20,20,21,21,22,22,23,23,24,24,25,25,26,26,28,28],"right_children":[2,4,6,8,10,12,14,16,18,20,22,24,26,-1,28,30,32,-1,34,36,38,40,42,44,46,48,50,-1,52,-1,-1,-1,-1,-1,-1,-1,-1,-1,-1,-1,-1,-1,-1,-1,-1,-1,-1,-1,-1,-1,-1,-1,-1],"split_conditions":[7.241E3,2.063E3,1.1841E4,1.2578E4,1.2369E4,3E3,2.441E3,2E3,2.032E3,2E3,1.2382E4,2E3,5E3,6.335435E1,1.2501E4,2.055E3,5E3,3.898505E2,1.2626E4,6.825E3,6.404E3,6.47E3,6.482E3,1.241E4,1.1597E4,1.1633E4,1.239E4,8.509188E1,1.2565E4,-1.1712411E2,-3.048204E1,1.9292038E1,-3.588646E1,1.0791146E2,-3.999401E2,7.7920947E0,1.2649541E2,-6.884265E1,-1.843804E0,1.474544E2,4.6253293E2,-4.0136463E1,3.4863506E1,4.895642E1,5.487679E1,-6.567771E1,5.4530193E1,3.6364685E1,-3.8912758E1,5.1140926E1,4.234524E1,6.6773E1,3.9634278E0],"split_indices":[0,0,0,1,1,2,1,2,0,2,1,2,2,0,1,0,2,0,1,1,0,0,0,1,0,0,1,0,1,0,0,0,0,0,0,0,0,0,0,0,0,0,0,0,0,0,0,0,0,0,0,0,0],"split_type":[0,0,0,0,0,0,0,0,0,0,0,0,0,0,0,0,0,0,0,0,0,0,0,0,0,0,0,0,0,0,0,0,0,0,0,0,0,0,0,0,0,0,0,0,0,0,0,0,0,0,0,0,0],"sum_hessian":[1.66001E5,2.075E4,1.45251E5,5.152E3,1.5598E4,1.44596E5,6.55E2,5.082E3,7E1,1.221E4,3.388E3,9.5866E4,4.873E4,5.4E2,1.15E2,3.43E2,4.739E3,1E1,6E1,9.183E3,3.027E3,5.5E1,3.333E3,7.9024E4,1.6842E4,1.876E3,4.6854E4,5.1E1,6.4E1,2.58E2,8.5E1,8.6E2,3.879E3,5.9E1,1E0,9.057E3,1.26E2,3.6E2,2.667E3,2.3E1,3.2E1,9.49E2,2.384E3,7.414E4,4.884E3,3.8E1,1.6804E4,9.55E2,9.21E2,4.1967E4,4.887E3,6.3E1,1E0],"tree_param":{"num_deleted":"0","num_feature":"3","num_nodes":"53","size_leaf_vector":"1"}},{"base_weights":[-5.986421E1,-9.1815094E1,1.416049E2,-9.5054146E1,-6.8879234E1,3.666862E1,1.679771E2,-1.1681824E2,-9.386407E1,4.177445E0,-8.8061714E1,4.299029E1,-1.9987872E2,7.76806E1,1.7460182E2,-1.3603384E2,1.1077786E2,8.990945E0,-9.49618E1,-3.4462692E1,2.3404565E2,-1.04252335E2,-4.353237E1,3.7395397E1,2.3456282E2,-8.758966E1,-1.02188763E3,-5.1101877E2,1.7270143E2,1.0313265E3,1.7098088E2,-4.4794266E1,-2.1835997E1,5.581243E1,-7.7948044E1,-2.082679E1,8.344825E1,-9.287638E1,-2.836397E1,1.8085809E0,-4.7644268E1,2.2084889E2,-5.0895214E0,-3.4342133E1,-2.6881403E1,-1.9038359E1,4.3168783E0,1.3392337E1,-2.3419182E2,1.9581659E2,6.674275E-1,-2.5042009E2,6.9429517E0,7.794747E0,-6.721604E2,-2.4781198E2,6.827406E1,-2.749186E1,4.7139713E2,-1.4842917E2,5.2220154E1],"categories":[],"categories_nodes":[],"categories_segments":[],"categories_sizes":[],"default_left":[0,0,0,0,0,0,0,0,0,0,0,0,0,0,0,0,0,0,0,0,0,0,0,0,0,0,0,0,0,0,0,0,0,0,0,0,0,0,0,0,0,0,0,0,0,0,0,0,0,0,0,0,0,0,0,0,0,0,0,0,0],"id":31,"left_children":[1,3,5,7,9,11,13,15,17,19,21,23,25,27,29,31,33,35,37,39,41,43,45,47,49,51,-1,53,55,57,59,-1,-1,-1,-1,-1,-1,-1,-1,-1,-1,-1,-1,-1,-1,-1,-1,-1,-1,-1,-1,-1,-1,-1,-1,-1,-1,-1,-1,-1,-1],"loss_changes":[1.0685872E9,1.0637824E7,6.287747E7,3.240832E6,2.4852952E7,6.834977E6,1.084896E7,2.8464008E7,1.3441728E7,3.277428E7,1.0122032E7,4.7576475E6,4.254702E7,6.962006E7,5.2302816E7,5.027968E6,1.4190104E7,2.6571378E7,1.046784E7,1.5907012E7,6.693805E7,1.531856E6,4.3261375E6,2.565244E7,1.2239986E7,9.616388E6,0E0,1.6073235E8,5.888916E7,4.319827E7,3.4701376E7,0E0,0E0,0E0,0E0,0E0,0E0,0E0,0E0,0E0,0E0,0E0,0E0,0E0,0E0,0E0,0E0,0E0,0E0,0E0,0E0,0E0,0E0,0E0,0E0,0E0,0E0,0E0,0E0,0E0,0E0],"parents":[2147483647,0,0,1,1,2,2,3,3,4,4,5,5,6,6,7,7,8,8,9,9,10,10,11,11,12,12,13,13,14,14,15,15,16,16,17,17,18,18,19,19,20,20,21,21,22,22,23,23,24,24,25,25,27,27,28,28,29,29,30,30],"right_children":[2,4,6,8,10,12,14,16,18,20,22,24,26,28,30,32,34,36,38,40,42,44,46,48,50,52,-1,54,56,58,60,-1,-1,-1,-1,-1,-1,-1,-1,-1,-1,-1,-1,-1,-1,-1,-1,-1,-1,-1,-1,-1,-1,-1,-1,-1,-1,-1,-1,-1,-1],"split_conditions":[2.458E3,2.414E3,1.2369E4,6.438E3,1.1549E4,1.171E4,6.389E3,7E3,6.528E3,6.545E3,5E3,1.1677E4,3E3,3E3,6.404E3,2.409E3,2.411E3,5E3,6.545E3,2.441E3,2.422E3,1.1678E4,2.419E3,1.1668E4,1.1691E4,2E3,-1.02188763E3,1.246E4,1.2429E4,1.241E4,6.42E3,-4.4794266E1,-2.1835997E1,5.581243E1,-7.7948044E1,-2.082679E1,8.344825E1,-9.287638E1,-2.836397E1,1.8085809E0,-4.7644268E1,2.2084889E2,-5.0895214E0,-3.4342133E1,-2.6881403E1,-1.9038359E1,4.3168783E0,1.3392337E1,-2.3419182E2,1.9581659E2,6.674275E-1,-2.5042009E2,6.9429517E0,7.794747E0,-6.721604E2,-2.4781198E2,6.827406E1,-2.749186E1,4.7139713E2,-1.4842917E2,5.2220154E1],"split_indices":[1,1,1,0,0,0,0,2,0,0,2,0,2,2,0,1,1,2,0,1,1,0,1,0,0,2,0,1,1,1,0,0,0,0,0,0,0,0,0,0,0,0,0,0,0,0,0,0,0,0,0,0,0,0,0,0,0,0,0,0,0],"split_type":[0,0,0,0,0,0,0,0,0,0,0,0,0,0,0,0,0,0,0,0,0,0,0,0,0,0,0,0,0,0,0,0,0,0,0,0,0,0,0,0,0,0,0,0,0,0,0,0,0,0,0,0,0,0,0,0,0,0,0,0,0],"sum_hessian":[1.66001E5,1.43279E5,2.2722E4,1.25546E5,1.7733E4,4.564E3,1.8158E4,6.504E3,1.19042E5,3.688E3,1.4045E4,4.446E3,1.18E2,1.242E3,1.6916E4,5.998E3,5.06E2,1.257E3,1.17785E5,3.158E3,5.3E2,1.0299E4,3.746E3,4.321E3,1.25E2,1.15E2,3E0,1.72E2,1.07E3,7E1,1.6846E4,4.956E3,1.042E3,4.21E2,8.5E1,9.74E2,2.83E2,2.26E2,1.17559E5,2.383E3,7.75E2,1.76E2,3.54E2,6.062E3,4.237E3,2.787E3,9.59E2,4.284E3,3.7E1,4.4E1,8.1E1,1.4E1,1.01E2,1.32E2,4E1,5.5E1,1.015E3,2.3E1,4.7E1,7.7E1,1.6769E4],"tree_param":{"num_deleted":"0","num_feature":"3","num_nodes":"61","size_leaf_vector":"1"}},{"base_weights":[-8.426248E1,-1.2809454E2,6.6474643E0,-1.338998E2,-1.0316156E2,-2.2346401E1,3.4142128E1,-4.0523453E1,-1.3351976E2,-1.0580692E2,-7.549679E1,-4.8374462E1,-2.1231369E1,8.8640375E0,3.517555E1,-1.3315619E2,-4.0562027E1,-3.1961443E1,-3.130288E1,-7.2232285E1,-1.18850235E2,-1.7059258E1,-3.9699795E1,-1.8799088E1,-2.1826286E1,2.9985153E1,6.293477E0,3.8574265E1,3.4012447E1,-4.0108772E1,-3.93636E1,-2.3054071E1,8.223204E0,-3.9735554E1,-8.511251E0,3.3478214E1,-1.3639386E1,-1.0877516E1,-5.4808893E0,-1.3509429E1,-6.447111E0,3.0350099E0,3.1047342E1,1.0223949E0,7.3004055E0,1.1467648E1,3.4739223E1,1.0275132E1,-6.7172475E0],"categories":[],"categories_nodes":[],