{"learner":{"attributes":{"scikit_learn":"{\"_estimator_type\": \"regressor\"}"},"feature_names":[],"feature_types":[],"gradient_booster":{"model":{"gbtree_model_param":{"num_parallel_tree":"1","num_trees":"300"},"iteration_indptr":[0,3,6,9,12,15,18,21,24,27,30,33,36,39,42,45,48,51,54,57,60,63,66,69,72,75,78,81,84,87,90,93,96,99,102,105,108,111,114,117,120,123,126,129,132,135,138,141,144,147,150,153,156,159,162,165,168,171,174,177,180,183,186,189,192,195,198,201,204,207,210,213,216,219,222,225,228,231,234,237,240,243,246,249,252,255,258,261,264,267,270,273,276,279,282,285,288,291,294,297,300],"tree_info":[0,1,2,0,1,2,0,1,2,0,1,2,0,1,2,0,1,2,0,1,2,0,1,2,0,1,2,0,1,2,0,1,2,0,1,2,0,1,2,0,1,2,0,1,2,0,1,2,0,1,2,0,1,2,0,1,2,0,1,2,0,1,2,0,1,2,0,1,2,0,1,2,0,1,2,0,1,2,0,1,2,0,1,2,0,1,2,0,1,2,0,1,2,0,1,2,0,1,2,0,1,2,0,1,2,0,1,2,0,1,2,0,1,2,0,1,2,0,1,2,0,1,2,0,1,2,0,1,2,0,1,2,0,1,2,0,1,2,0,1,2,0,1,2,0,1,2,0,1,2,0,1,2,0,1,2,0,1,2,0,1,2,0,1,2,0,1,2,0,1,2,0,1,2,0,1,2,0,1,2,0,1,2,0,1,2,0,1,2,0,1,2,0,1,2,0,1,2,0,1,2,0,1,2,0,1,2,0,1,2,0,1,2,0,1,2,0,1,2,0,1,2,0,1,2,0,1,2,0,1,2,0,1,2,0,1,2,0,1,2,0,1,2,0,1,2,0,1,2,0,1,2,0,1,2,0,1,2,0,1,2,0,1,2,0,1,2,0,1,2,0,1,2,0,1,2,0,1,2,0,1,2,0,1,2,0,1,2,0,1,2,0,1,2,0,1,2,0,1,2],"trees":[{"base_weights":[5.934231E3,6.987391E2,6.682146E3,-2.1898843E3,1.8282327E3,6.415983E3,6.688054E3,-2.358686E3,-1.1336377E3,1.7213185E3,2.1448147E3,1.8364451E3,1.9460029E3,6.6658057E3,2.0172563E3,-1.744136E3,-2.6799658E3,5.4687583E3,-1.5675687E3,2.1166265E3,1.6725834E3,3.162424E3,1.659163E3,2.0028922E3,1.9670966E3,-6.124233E2,-3.1848737E2,-5.741638E2,-8.346565E2,4.8771326E2,1.8297386E3,-5.265293E2,1.2666484E2,6.6871765E2,4.9557895E2,5.0211798E2,-5.743675E2,6.544316E2,1.0743236E3,6.466843E2,4.909392E2],"categories":[],"categories_nodes":[],"categories_segments":[],"categories_sizes":[],"default_left":[0,0,0,0,0,0,0,0,0,0,0,0,0,0,0,0,0,0,0,0,0,0,0,0,0,0,0,0,0,0,0,0,0,0,0,0,0,0,0,0,0],"id":0,"left_children":[1,3,5,7,9,11,13,15,17,19,21,-1,-1,23,-1,25,27,29,31,33,35,37,39,-1,-1,-1,-1,-1,-1,-1,-1,-1,-1,-1,-1,-1,-1,-1,-1,-1,-1],"loss_changes":[5.2000352E11,5.4167785E10,1.399849E8,8.2943795E8,4.002734E8,1.3344768E7,4.666163E7,7.896351E8,1.856488E9,1.6844186E8,1.481812E9,0E0,0E0,3.6962304E7,0E0,2.7863706E8,2.0141466E8,8.698624E7,2.2686528E8,4.731085E7,3.581133E7,3.909714E8,1.9449856E7,0E0,0E0,0E0,0E0,0E0,0E0,0E0,0E0,0E0,0E0,0E0,0E0,0E0,0E0,0E0,0E0,0E0,0E0],"parents":[2147483647,0,0,1,1,2,2,3,3,4,4,5,5,6,6,7,7,8,8,9,9,10,10,13,13,15,15,16,16,17,17,18,18,19,19,20,20,21,21,22,22],"right_children":[2,4,6,8,10,12,14,16,18,20,22,-1,-1,24,-1,26,28,30,32,34,36,38,40,-1,-1,-1,-1,-1,-1,-1,-1,-1,-1,-1,-1,-1,-1,-1,-1,-1,-1],"split_conditions":[9.657E3,6.296E3,1.1563E4,1.2487E4,6.829E3,1.1541E4,1.1662E4,5E2,6E2,6.346E3,1.2466E4,1.8364451E3,1.9460029E3,1.239E4,2.0172563E3,2.064E3,2.032E3,1.2494E4,1.2579E4,2.412E3,7E2,1.237E4,1.2472E4,2.0028922E3,1.9670966E3,-6.124233E2,-3.1848737E2,-5.741638E2,-8.346565E2,4.8771326E2,1.8297386E3,-5.265293E2,1.2666484E2,6.6871765E2,4.9557895E2,5.0211798E2,-5.743675E2,6.544316E2,1.0743236E3,6.466843E2,4.909392E2],"split_indices":[0,0,0,1,1,0,0,2,2,0,1,0,0,1,0,0,0,1,1,1,2,1,1,0,0,0,0,0,0,0,0,0,0,0,0,0,0,0,0,0,0],"split_type":[0,0,0,0,0,0,0,0,0,0,0,0,0,0,0,0,0,0,0,0,0,0,0,0,0,0,0,0,0,0,0,0,0,0,0,0,0,0,0,0,0],"sum_hessian":[1.328E5,1.66E4,1.162E5,4.666E3,1.1934E4,2.547E3,1.13653E5,4.022E3,6.44E2,8.926E3,3.008E3,5.1E2,2.037E3,7.0456E4,4.3197E4,1.383E3,2.639E3,3.9E1,6.05E2,9.75E2,7.951E3,9.7E2,2.038E3,6.42E4,6.256E3,9.62E2,4.21E2,3.13E2,2.326E3,6E0,3.3E1,5.53E2,5.2E1,7.82E2,1.93E2,7.949E3,2E0,2.92E2,6.78E2,8.5E1,1.953E3],"tree_param":{"num_deleted":"0","num_feature":"3","num_nodes":"41","size_leaf_vector":"1"}},{"base_weights":[-1.2932753E3,-2.3067104E3,6.633605E3,-2.4207458E3,1.900316E3,2.8455273E3,6.767321E3,-2.4541313E3,-1.0330511E3,2.229825E3,-1.8591926E3,3.002239E3,1.6070933E3,5.974192E3,6.964919E3,-2.1775024E3,-2.4757073E3,-3.9891306E2,-2.1993381E3,4.9980083E3,5.81019E2,-1.896838E3,1.1328245E3,2.664845E3,3.8647407E3,2.306531E3,-1.5306866E2,5.5309907E3,6.2738135E3,6.49522E3,6.992259E3,-7.010796E2,-4.66054E2,-7.4310583E2,-7.220055E2,2.4942291E1,-1.2837656E2,-7.313748E2,-6.4068195E2,1.2377603E3,1.6234229E3,-3.3986185E2,-6.396383E2,8.31853E2,-1.3115529E2,1.2676339E3,8.536808E2,5.942795E2,8.7166046E2,-4.6610883E2,8.721407E2,1.4839899E3,1.84335E3,2.1815388E3,1.8676112E3,2.0445951E3,1.869804E3,2.209726E3,2.0766863E3],"categories":[],"categories_nodes":[],"categories_segments":[],"categories_sizes":[],"default_left":[0,0,0,0,0,0,0,0,0,0,0,0,0,0,0,0,0,0,0,0,0,0,0,0,0,0,0,0,0,0,0,0,0,0,0,0,0,0,0,0,0,0,0,0,0,0,0,0,0,0,0,0,0,0,0,0,0,0,0],"id":1,"left_children":[1,3,5,7,9,11,13,15,17,19,21,23,25,27,29,31,33,35,37,39,-1,41,-1,43,45,47,49,51,53,55,57,-1,-1,-1,-1,-1,-1,-1,-1,-1,-1,-1,-1,-1,-1,-1,-1,-1,-1,-1,-1,-1,-1,-1,-1,-1,-1,-1,-1],"loss_changes":[1.0668561E12,5.6494195E10,7.6060426E9,5.3087437E9,3.8543094E9,9.512474E7,2.2370714E9,6.627E8,1.9923103E9,2.3091323E9,6.0410304E7,1.2239846E8,7.422046E7,3.513303E8,1.0400563E8,8.0297165E8,3.473408E6,2.446528E7,9.222656E6,7.610112E7,0E0,4.252288E7,0E0,1.1210214E8,3.429491E7,2.630848E6,8.1668504E7,3.930071E8,3.8219776E7,1.248256E7,2.3599514E8,0E0,0E0,0E0,0E0,0E0,0E0,0E0,0E0,0E0,0E0,0E0,0E0,0E0,0E0,0E0,0E0,0E0,0E0,0E0,0E0,0E0,0E0,0E0,0E0,0E0,0E0,0E0,0E0],"parents":[2147483647,0,0,1,1,2,2,3,3,4,4,5,5,6,6,7,7,8,8,9,9,10,10,11,11,12,12,13,13,14,14,15,15,16,16,17,17,18,18,19,19,21,21,23,23,24,24,25,25,26,26,27,27,28,28,29,29,30,30],"right_children":[2,4,6,8,10,12,14,16,18,20,22,24,26,28,30,32,34,36,38,40,-1,42,-1,44,46,48,50,52,54,56,58,-1,-1,-1,-1,-1,-1,-1,-1,-1,-1,-1,-1,-1,-1,-1,-1,-1,-1,-1,-1,-1,-1,-1,-1,-1,-1,-1,-1],"split_conditions":[6.829E3,2.46E3,1.237E4,2.426E3,1.157E4,6E2,6.555E3,9.657E3,9.657E3,6.673E3,1.1842E4,1.1615E4,1.1622E4,6.438E3,9.657E3,6.469E3,2.42E3,2.037E3,2E2,6.469E3,5.81019E2,2E2,1.1328245E3,1.16E4,1.169E4,2.05E3,1.1672E4,1.2502E4,1.2397E4,1.2502E4,1.1589E4,-7.010796E2,-4.66054E2,-7.4310583E2,-7.220055E2,2.4942291E1,-1.2837656E2,-7.313748E2,-6.4068195E2,1.2377603E3,1.6234229E3,-3.3986185E2,-6.396383E2,8.31853E2,-1.3115529E2,1.2676339E3,8.536808E2,5.942795E2,8.7166046E2,-4.6610883E2,8.721407E2,1.4839899E3,1.84335E3,2.1815388E3,1.8676112E3,2.0445951E3,1.869804E3,2.209726E3,2.0766863E3],"split_indices":[1,1,1,1,0,2,0,0,0,1,0,0,0,0,0,0,1,0,2,0,0,2,0,0,0,0,0,1,1,1,0,0,0,0,0,0,0,0,0,0,0,0,0,0,0,0,0,0,0,0,0,0,0,0,0,0,0,0,0],"split_type":[0,0,0,0,0,0,0,0,0,0,0,0,0,0,0,0,0,0,0,0,0,0,0,0,0,0,0,0,0,0,0,0,0,0,0,0,0,0,0,0,0,0,0,0,0,0,0,0,0,0,0,0,0,0,0,0,0,0,0],"sum_hessian":[1.328E5,1.17747E5,1.5053E4,1.1464E5,3.107E3,5.14E2,1.4539E4,1.11946E5,2.694E3,2.857E3,2.5E2,4.55E2,5.9E1,2.906E3,1.1633E4,8.107E3,1.03839E5,1.746E3,9.48E2,2.72E2,2.585E3,2.49E2,1E0,3.3E2,1.25E2,4.2E1,1.7E1,1.18E3,1.726E3,6.53E2,1.098E4,6.455E3,1.652E3,1.01868E5,1.971E3,9.9E1,1.647E3,1.92E2,7.56E2,9.1E1,1.81E2,6E1,1.89E2,3.19E2,1.1E1,9E1,3.5E1,3E1,1.2E1,1.2E1,5E0,6.09E2,5.71E2,7.3E1,1.653E3,2.83E2,3.7E2,1.716E3,9.264E3],"tree_param":{"num_deleted":"0","num_feature":"3","num_nodes":"59","size_leaf_vector":"1"}},{"base_weights":[-4.640957E3,-4.7957886E3,-4.3188823E3,-1.4449347E3,-1.4122517E3,-1.3263885E3,-1.2664595E3],"categories":[],"categories_nodes":[],"categories_segments":[],"categories_sizes":[],"default_left":[0,0,0,0,0,0,0],"id":2,"left_children":[1,3,5,-1,-1,-1,-1],"loss_changes":[6.6015724E9,1.4077133E8,4.1136947E8,0E0,0E0,0E0,0E0],"parents":[2147483647,0,0,1,1,2,2],"right_children":[2,4,6,-1,-1,-1,-1],"split_conditions":[4E2,2E2,6E2,-1.4449347E3,-1.4122517E3,-1.3263885E3,-1.2664595E3],"split_indices":[2,2,2,0,0,0,0],"split_type":[0,0,0,0,0,0,0],"sum_hessian":[1.328E5,8.9676E4,4.3124E4,7.2626E4,1.705E4,2.0994E4,2.213E4],"tree_param":{"num_deleted":"0","num_feature":"3","num_nodes":"7","size_leaf_vector":"1"}},{"base_weights":[4.154062E3,4.893303E2,4.6775864E3,-1.5330095E3,1.2800945E3,4.6034087E3,4.6891094E3,-1.6424066E3,-7.008643E2,1.2050452E3,1.5023229E3,4.2886323E3,4.613709E3,4.681988E3,1.4231E3,-1.3644889E3,-2.0164071E3,1.3695929E3,-1.0062708E3,1.3727865E3,1.1426621E3,2.337584E3,1.1883661E3,3.3740244E3,1.2992119E3,1.3874175E3,1.3109851E3,1.4061172E3,1.3888336E3,-2.7246646E2,-4.630528E2,-6.114735E2,-4.7978165E2,-3.4601752E2,8.938231E1,4.58048E2,3.7783316E2,3.4311566E2,-4.5949396E2,4.5877213E2,8.34266E2,4.6078793E2,3.4373288E2,7.549497E2,1.3177686E3],"categories":[],"categories_nodes":[],"categories_segments":[],"categories_sizes":[],"default_left":[0,0,0,0,0,0,0,0,0,0,0,0,0,0,0,0,0,0,0,0,0,0,0,0,0,0,0,0,0,0,0,0,0,0,0,0,0,0,0,0,0,0,0,0,0],"id":3,"left_children":[1,3,5,7,9,11,13,15,17,19,21,23,25,27,-1,29,31,-1,33,35,37,39,41,43,-1,-1,-1,-1,-1,-1,-1,-1,-1,-1,-1,-1,-1,-1,-1,-1,-1,-1,-1,-1,-1],"loss_changes":[2.5478667E11,2.6550178E10,7.785677E7,4.2370662E8,1.9724493E8,3.1031296E7,1.6777216E7,4.259031E8,8.7952205E8,9.184563E7,7.8628966E8,5.051392E6,2.048E7,1.96608E6,0E0,1.9210086E8,1.2736512E7,0E0,9.916022E7,4.0241664E7,2.015744E7,2.899451E8,3.0646016E7,1.2528512E7,0E0,0E0,0E0,0E0,0E0,0E0,0E0,0E0,0E0,0E0,0E0,0E0,0E0,0E0,0E0,0E0,0E0,0E0,0E0,0E0,0E0],"parents":[2147483647,0,0,1,1,2,2,3,3,4,4,5,5,6,6,7,7,8,8,9,9,10,10,11,11,12,12,13,13,15,15,16,16,18,18,19,19,20,20,21,21,22,22,23,23],"right_children":[2,4,6,8,10,12,14,16,18,20,22,24,26,28,-1,30,32,-1,34,36,38,40,42,44,-1,-1,-1,-1,-1,-1,-1,-1,-1,-1,-1,-1,-1,-1,-1,-1,-1,-1,-1,-1,-1],"split_conditions":[9.657E3,6.296E3,1.1596E4,1.2502E4,6.829E3,1.1541E4,1.1706E4,7E2,6E2,6.389E3,1.2454E4,2.391E3,1.2487E4,1.237E4,1.4231E3,2.044E3,1.2487E4,1.3695929E3,1.2579E4,2.402E3,7E2,1.237E4,1.2472E4,7E2,1.2992119E3,1.3874175E3,1.3109851E3,1.4061172E3,1.3888336E3,-2.7246646E2,-4.630528E2,-6.114735E2,-4.7978165E2,-3.4601752E2,8.938231E1,4.58048E2,3.7783316E2,3.4311566E2,-4.5949396E2,4.5877213E2,8.34266E2,4.6078793E2,3.4373288E2,7.549497E2,1.3177686E3],"split_indices":[0,0,0,1,1,0,0,2,2,0,1,1,1,1,0,0,1,0,1,1,2,1,1,2,0,0,0,0,0,0,0,0,0,0,0,0,0,0,0,0,0,0,0,0,0],"split_type":[0,0,0,0,0,0,0,0,0,0,0,0,0,0,0,0,0,0,0,0,0,0,0,0,0,0,0,0,0,0,0,0,0,0,0,0,0,0,0,0,0,0,0,0,0],"sum_hessian":[1.328E5,1.66E4,1.162E5,4.666E3,1.1934E4,1.5678E4,1.00522E5,4.123E3,5.43E2,8.926E3,3.008E3,5.1E2,1.5168E4,8.8992E4,1.153E4,2.368E3,1.755E3,2.9E1,5.14E2,2.414E3,6.512E3,8.2E2,2.188E3,2.6E1,4.84E2,1.4495E4,6.73E2,8.1081E4,7.911E3,6.69E2,1.699E3,1.664E3,9.1E1,4.62E2,5.2E1,1.018E3,1.396E3,6.51E3,2E0,2.92E2,5.28E2,2.35E2,1.953E3,1.6E1,1E1],"tree_param":{"num_deleted":"0","num_feature":"3","num_nodes":"45","size_leaf_vector":"1"}},{"base_weights":[-9.0514374E2,-1.6147014E3,4.64487E3,-1.6945577E3,1.3313779E3,2.0009836E3,4.738196E3,-1.7152745E3,-5.994443E2,1.5620818E3,-1.3008241E3,1.873546E3,3.012061E3,4.1844717E3,4.8761484E3,-1.4934769E3,-1.7324645E3,-2.3832631E2,-1.5093064E3,3.5090862E3,1.3559354E3,-1.3317047E3,9.629007E2,1.910695E3,-8.517311E2,4.975326E3,1.8694294E3,3.8745107E3,4.3940137E3,4.960584E3,4.7831743E3,-4.84433E2,-2.6344315E2,-5.2019073E2,-4.9973044E2,-3.268764E1,-1.0966002E2,-4.124338E2,-5.267397E2,9.838772E2,1.3331283E3,3.8408124E2,4.120508E2,-7.600153E1,-4.3195517E2,7.401982E2,4.6792087E2,1.5822258E3,7.3853E2,-1.7605397E2,8.793583E2,9.608974E2,1.2608448E3,1.5359213E3,1.3076665E3,1.365792E3,1.5026759E3,1.3888796E3,1.4618009E3],"categories":[],"categories_nodes":[],"categories_segments":[],"categories_sizes":[],"default_left":[0,0,0,0,0,0,0,0,0,0,0,0,0,0,0,0,0,0,0,0,0,0,0,0,0,0,0,0,0,0,0,0,0,0,0,0,0,0,0,0,0,0,0,0,0,0,0,0,0,0,0,0,0,0,0,0,0,0,0],"id":4,"left_children":[1,3,5,7,9,11,13,15,17,19,21,23,25,27,29,31,33,35,37,39,41,43,-1,45,-1,47,49,51,53,55,57,-1,-1,-1,-1,-1,-1,-1,-1,-1,-1,-1,-1,-1,-1,-1,-1,-1,-1,-1,-1,-1,-1,-1,-1,-1,-1,-1,-1],"loss_changes":[5.2298514E11,2.7704033E10,3.7049795E9,2.5998787E9,1.8893926E9,6.071424E7,1.0902569E9,4.263772E8,6.994893E8,1.1423503E9,3.923536E7,8.595674E7,1.1632317E8,1.7178214E8,6.763315E7,6.031626E8,7.602176E6,2.5072728E7,1.7647744E7,4.3985664E7,1.678848E6,2.87904E7,0E0,8.542886E7,0E0,2.035424E6,9.821569E7,2.4690688E8,2.1706752E7,9.689498E7,5.3927936E7,0E0,0E0,0E0,0E0,0E0,0E0,0E0,0E0,0E0,0E0,0E0,0E0,0E0,0E0,0E0,0E0,0E0,0E0,0E0,0E0,0E0,0E0,0E0,0E0,0E0,0E0,0E0,0E0],"parents":[2147483647,0,0,1,1,2,2,3,3,4,4,5,5,6,6,7,7,8,8,9,9,10,10,11,11,12,12,13,13,14,14,15,15,16,16,17,17,18,18,19,19,20,20,21,21,23,23,25,25,26,26,27,27,28,28,29,29,30,30],"right_children":[2,4,6,8,10,12,14,16,18,20,22,24,26,28,30,32,34,36,38,40,42,44,-1,46,-1,48,50,52,54,56,58,-1,-1,-1,-1,-1,-1,-1,-1,-1,-1,-1,-1,-1,-1,-1,-1,-1,-1,-1,-1,-1,-1,-1,-1,-1,-1,-1,-1],"split_conditions":[6.829E3,2.46E3,1.237E4,2.43E3,1.157E4,1.1677E4,6.555E3,6.6E3,9.657E3,6.673E3,1.1842E4,1.1675E4,1.169E4,6.438E3,1.1637E4,2.414E3,2.42E3,2.441E3,2.448E3,6E2,6.725E3,1.163E4,9.629007E2,2E2,-8.517311E2,6E2,1.1705E4,1.2472E4,1.2397E4,9.657E3,2E2,-4.84433E2,-2.6344315E2,-5.2019073E2,-4.9973044E2,-3.268764E1,-1.0966002E2,-4.124338E2,-5.267397E2,9.838772E2,1.3331283E3,3.8408124E2,4.120508E2,-7.600153E1,-4.3195517E2,7.401982E2,4.6792087E2,1.5822258E3,7.3853E2,-1.7605397E2,8.793583E2,9.608974E2,1.2608448E3,1.5359213E3,1.3076665E3,1.365792E3,1.5026759E3,1.3888796E3,1.4618009E3],"split_indices":[1,1,1,1,0,0,0,0,0,1,0,0,0,0,0,1,1,1,1,2,1,0,0,2,0,2,0,1,1,0,2,0,0,0,0,0,0,0,0,0,0,0,0,0,0,0,0,0,0,0,0,0,0,0,0,0,0,0,0],"split_type":[0,0,0,0,0,0,0,0,0,0,0,0,0,0,0,0,0,0,0,0,0,0,0,0,0,0,0,0,0,0,0,0,0,0,0,0,0,0,0,0,0,0,0,0,0,0,0,0,0,0,0,0,0,0,0,0,0,0,0],"sum_hessian":[1.328E5,1.17747E5,1.5053E4,1.1464E5,3.107E3,5.14E2,1.4539E4,1.12511E5,2.129E3,2.857E3,2.5E2,4.59E2,5.5E1,2.906E3,1.1633E4,8.099E3,1.04412E5,1.525E3,6.04E2,2.72E2,2.585E3,2.49E2,1E0,4.56E2,3E0,1.9E1,3.6E1,1.18E3,1.726E3,6.069E3,5.564E3,6.764E3,1.335E3,1.02084E5,2.328E3,7.57E2,7.68E2,3.95E2,2.09E2,2.22E2,5E1,5.01E2,2.084E3,2.3E1,2.26E2,1.74E2,2.82E2,1.6E1,3E0,1.1E1,2.5E1,3.91E2,7.89E2,7.3E1,1.653E3,6.53E2,5.416E3,2.068E3,3.496E3],"tree_param":{"num_deleted":"0","num_feature":"3","num_nodes":"59","size_leaf_vector":"1"}},{"base_weights":[-3.248711E3,-3.3570837E3,-3.0232776E3,-1.01146027E3,-3.2953367E3,-9.279054E2,-8.8544415E2,-9.91368E2,-9.585098E2],"categories":[],"categories_nodes":[],"categories_segments":[],"categories_sizes":[],"default_left":[0,0,0,0,0,0,0,0,0],"id":5,"left_children":[1,3,5,-1,7,-1,-1,-1,-1],"loss_changes":[3.2342016E9,6.887834E7,2.0679885E8,0E0,5.210112E6,0E0,0E0,0E0,0E0],"parents":[2147483647,0,0,1,1,2,2,4,4],"right_children":[2,4,6,-1,8,-1,-1,-1,-1],"split_conditions":[4E2,2E2,7E2,-1.01146027E3,3E2,-9.279054E2,-8.8544415E2,-9.91368E2,-9.585098E2],"split_indices":[2,2,2,0,2,0,0,0,0],"split_type":[0,0,0,0,0,0,0,0,0],"sum_hessian":[1.328E5,8.9676E4,4.3124E4,7.2626E4,1.705E4,2.1854E4,2.127E4,1.5585E4,1.465E3],"tree_param":{"num_deleted":"0","num_feature":"3","num_nodes":"9","size_leaf_vector":"1"}},{"base_weights":[2.9079368E3,3.4265787E2,3.274399E3,-1.0732596E3,8.963021E2,3.1576853E3,3.2785264E3,-1.15313E3,-4.4764246E2,8.436122E2,1.0523231E3,3.008641E3,3.1786274E3,3.2767954E3,1.0368254E3,-1.2479567E3,-5.1492035E2,4.1294257E2,-1.5052213E3,1.1929746E3,8.2313684E2,1.6027375E3,8.1667786E2,2.9140225E3,9.6886536E2,9.636982E2,9.146375E2,3.251378E3,9.8563934E2,-3.2676022E2,-4.2516534E2,9.689408E2,-2.181787E2,9.6279045E1,1.2379379E3,-5.0213025E2,7.5150195E2,3.8655957E2,2.0077995E2,2.590413E2,2.3084938E2,3.2161026E2,5.566308E2,4.0175092E2,2.4123573E2,8.844916E2,1.0627647E2,9.7665076E2,8.9177734E2],"categories":[],"categories_nodes":[],"categories_segments":[],"categories_sizes":[],"default_left":[0,0,0,0,0,0,0,0,0,0,0,0,0,0,0,0,0,0,0,0,0,0,0,0,0,0,0,0,0,0,0,0,0,0,0,0,0,0,0,0,0,0,0,0,0,0,0,0,0],"id":6,"left_children":[1,3,5,7,9,11,13,15,17,19,21,23,25,27,-1,29,31,33,35,37,39,41,43,45,-1,-1,-1,47,-1,-1,-1,-1,-1,-1,-1,-1,-1,-1,-1,-1,-1,-1,-1,-1,-1,-1,-1,-1,-1],"loss_changes":[1.2484228E11,1.3014729E10,4.5481984E7,2.326866E8,9.722675E7,2.90816E6,2.3199744E7,2.4978586E8,4.8299392E8,6.287565E7,3.889659E8,1.26976E6,5.459968E6,1.3893632E7,0E0,9.524582E7,4.2935072E8,9.879075E7,1.65059E8,2.3759424E7,1.7586688E7,1.1884211E8,1.276224E7,3.1249664E7,0E0,0E0,0E0,2.2970368E7,0E0,0E0,0E0,0E0,0E0,0E0,0E0,0E0,0E0,0E0,0E0,0E0,0E0,0E0,0E0,0E0,0E0,0E0,0E0,0E0,0E0],"parents":[2147483647,0,0,1,1,2,2,3,3,4,4,5,5,6,6,7,7,8,8,9,9,10,10,11,11,12,12,13,13,15,15,16,16,17,17,18,18,19,19,20,20,21,21,22,22,23,23,27,27],"right_children":[2,4,6,8,10,12,14,16,18,20,22,24,26,28,-1,30,32,34,36,38,40,42,44,46,-1,-1,-1,48,-1,-1,-1,-1,-1,-1,-1,-1,-1,-1,-1,-1,-1,-1,-1,-1,-1,-1,-1,-1,-1],"split_conditions":[9.657E3,6.296E3,1.157E4,2.064E3,6.829E3,1.1541E4,1.1767E4,1.2502E4,2E2,6.33E3,1.246E4,1.2404E4,2.42E3,1.1618E4,1.0368254E3,7E2,6E2,2.421E3,1.2448E4,2.412E3,2.421E3,1.237E4,6.405E3,1.2397E4,9.6886536E2,9.636982E2,9.146375E2,1.2538E4,9.8563934E2,-3.2676022E2,-4.2516534E2,9.689408E2,-2.181787E2,9.6279045E1,1.2379379E3,-5.0213025E2,7.5150195E2,3.8655957E2,2.0077995E2,2.590413E2,2.3084938E2,3.2161026E2,5.566308E2,4.0175092E2,2.4123573E2,8.844916E2,1.0627647E2,9.7665076E2,8.9177734E2],"split_indices":[0,0,0,0,1,0,0,1,2,0,1,1,1,0,0,2,2,1,1,1,1,1,0,1,0,0,0,1,0,0,0,0,0,0,0,0,0,0,0,0,0,0,0,0,0,0,0,0,0],"split_type":[0,0,0,0,0,0,0,0,0,0,0,0,0,0,0,0,0,0,0,0,0,0,0,0,0,0,0,0,0,0,0,0,0,0,0,0,0,0,0,0,0,0,0,0,0,0,0,0,0],"sum_hessian":[1.328E5,1.66E4,1.162E5,4.666E3,1.1934E4,3.995E3,1.12205E5,4.137E3,5.29E2,8.926E3,3.008E3,5.1E2,3.485E3,1.11141E5,1.064E3,3.601E3,5.36E2,2.92E2,2.37E2,4.91E2,8.435E3,9E2,2.108E3,3.67E2,1.43E2,2.748E3,7.37E2,2.8361E4,8.278E4,1.862E3,1.739E3,2.8E1,5.08E2,2.86E2,6E0,2.28E2,9E0,4.14E2,7.7E1,4.806E3,3.629E3,2.92E2,6.08E2,4.7E1,2.061E3,3.62E2,5E0,2.7937E4,4.24E2],"tree_param":{"num_deleted":"0","num_feature":"3","num_nodes":"49","size_leaf_vector":"1"}},{"base_weights":[-6.334886E2,-1.1302849E3,3.2523499E3,-1.1862153E3,9.331127E2,1.4072524E3,3.3174788E3,-1.2028137E3,-4.9629907E2,1.095605E3,-9.048761E2,6.1729877E2,1.5100656E3,2.8991116E3,3.4071462E3,-1.0668634E3,-1.213099E3,-1.8319467E2,-1.0721654E3,2.4861147E3,9.4946277E2,-9.301194E2,8.184656E2,1.0415638E3,-6.970958E2,1.5856494E3,1.4659712E2,1.5945671E3,2.9328193E3,3.1844092E3,3.4268765E3,-3.4936386E2,-1.22791824E2,-3.6435553E2,-3.5554315E2,4.5943058E1,-6.1047714E1,-3.0764426E2,-3.694702E2,5.238481E2,8.5515063E2,2.943997E2,2.7032004E2,-1.3136913E2,-3.2449744E2,1.7139847E2,5.6331525E2,4.2165503E2,6.90708E2,4.2919418E2,-2.4144383E2,3.493272E2,6.6842535E2,7.751551E2,9.1973224E2,1.0689736E3,9.14327E2,1.0846204E3,1.0115905E3],"categories":[],"categories_nodes":[],"categories_segments":[],"categories_sizes":[],"default_left":[0,0,0,0,0,0,0,0,0,0,0,0,0,0,0,0,0,0,0,0,0,0,0,0,0,0,0,0,0,0,0,0,0,0,0,0,0,0,0,0,0,0,0,0,0,0,0,0,0,0,0,0,0,0,0,0,0,0,0],"id":7,"left_children":[1,3,5,7,9,11,13,15,17,19,21,23,25,27,29,31,33,35,37,39,41,43,-1,45,-1,47,49,51,53,55,57,-1,-1,-1,-1,-1,-1,-1,-1,-1,-1,-1,-1,-1,-1,-1,-1,-1,-1,-1,-1,-1,-1,-1,-1,-1,-1,-1,-1],"loss_changes":[2.5637211E11,1.3589987E10,1.8043372E9,1.312211E9,9.292237E8,4.089491E7,5.3559296E8,1.5525478E8,4.8572883E8,5.7801344E8,2.5740528E7,7.853254E7,4.665811E7,1.0846618E8,4.169728E7,5.0580173E8,2.686976E6,1.1957748E7,5.799168E6,6.809242E7,3.104512E6,1.8323216E7,0E0,2.0159424E7,0E0,5.2407296E7,3.1692848E7,1.5663264E7,1.083945E8,4.0288256E7,1.0146611E8,0E0,0E0,0E0,0E0,0E0,0E0,0E0,0E0,0E0,0E0,0E0,0E0,0E0,0E0,0E0,0E0,0E0,0E0,0E0,0E0,0E0,0E0,0E0,0E0,0E0,0E0,0E0,0E0],"parents":[2147483647,0,0,1,1,2,2,3,3,4,4,5,5,6,6,7,7,8,8,9,9,10,10,11,11,12,12,13,13,14,14,15,15,16,16,17,17,18,18,19,19,20,20,21,21,23,23,25,25,26,26,27,27,28,28,29,29,30,30],"right_children":[2,4,6,8,10,12,14,16,18,20,22,24,26,28,30,32,34,36,38,40,42,44,-1,46,-1,48,50,52,54,56,58,-1,-1,-1,-1,-1,-1,-1,-1,-1,-1,-1,-1,-1,-1,-1,-1,-1,-1,-1,-1,-1,-1,-1,-1,-1,-1,-1,-1],"split_conditions":[6.829E3,2.46E3,1.237E4,2.426E3,9.657E3,6.405E3,6.536E3,6.6E3,9.657E3,6.673E3,1.1842E4,6.362E3,6E2,2.032E3,9.657E3,6.502E3,2.417E3,2.037E3,2.448E3,6.469E3,6.765E3,2E2,8.184656E2,2.05E3,-6.970958E2,1.1649E4,1.1626E4,1.2538E4,1.2472E4,1.248E4,1.1601E4,-3.4936386E2,-1.22791824E2,-3.6435553E2,-3.5554315E2,4.5943058E1,-6.1047714E1,-3.0764426E2,-3.694702E2,5.238481E2,8.5515063E2,2.943997E2,2.7032004E2,-1.3136913E2,-3.2449744E2,1.7139847E2,5.6331525E2,4.2165503E2,6.90708E2,4.2919418E2,-2.4144383E2,3.493272E2,6.6842535E2,7.751551E2,9.1973224E2,1.0689736E3,9.14327E2,1.0846204E3,1.0115905E3],"split_indices":[1,1,1,1,0,0,0,0,0,1,0,0,2,0,0,0,1,0,1,0,1,2,0,0,0,0,0,1,1,1,0,0,0,0,0,0,0,0,0,0,0,0,0,0,0,0,0,0,0,0,0,0,0,0,0,0,0,0,0],"split_type":[0,0,0,0,0,0,0,0,0,0,0,0,0,0,0,0,0,0,0,0,0,0,0,0,0,0,0,0,0,0,0,0,0,0,0,0,0,0,0,0,0,0,0,0,0,0,0,0,0,0,0,0,0,0,0,0,0,0,0],"sum_hessian":[1.328E5,1.17747E5,1.5053E4,1.1464E5,3.107E3,5.14E2,1.4539E4,1.11946E5,2.694E3,2.855E3,2.52E2,6E1,4.54E2,2.572E3,1.1967E4,7.881E3,1.04065E5,1.746E3,9.48E2,2.7E2,2.585E3,2.51E2,1E0,5.3E1,7E0,4.3E2,2.4E1,6.6E1,2.506E3,9.87E2,1.098E4,6.861E3,1.02E3,9.8996E4,5.069E3,9.9E1,1.647E3,7.39E2,2.09E2,9.1E1,1.79E2,1.547E3,1.038E3,6E1,1.91E2,3.5E1,1.8E1,3.46E2,8.4E1,1E1,1.4E1,4.1E1,2.5E1,6.97E2,1.809E3,2.55E2,7.32E2,2.462E3,8.518E3],"tree_param":{"num_deleted":"0","num_feature":"3","num_nodes":"59","size_leaf_vector":"1"}},{"base_weights":[-2.2741335E3,-2.3491362E3,-2.1135146E3,-7.0802637E2,-2.3045527E3,-6.484301E2,-6.1982336E2,-6.939766E2,-6.734354E2],"categories":[],"categories_nodes":[],"categories_segments":[],"categories_sizes":[],"default_left":[0,0,0,0,0,0,0,0,0],"id":8,"left_children":[1,3,5,-1,7,-1,-1,-1,-1],"loss_changes":[1.5948186E9,3.8764544E7,9.16521E7,0E0,4.120576E6,0E0,0E0,0E0,0E0],"parents":[2147483647,0,0,1,1,2,2,4,4],"right_children":[2,4,6,-1,8,-1,-1,-1,-1],"split_conditions":[5E2,2E2,7E2,-7.0802637E2,3E2,-6.484301E2,-6.1982336E2,-6.939766E2,-6.734354E2],"split_indices":[2,2,2,0,2,0,0,0,0],"split_type":[0,0,0,0,0,0,0,0,0],"sum_hessian":[1.328E5,9.0518E4,4.2282E4,7.2626E4,1.7892E4,2.1012E4,2.127E4,1.5585E4,2.307E3],"tree_param":{"num_deleted":"0","num_feature":"3","num_nodes":"9","size_leaf_vector":"1"}},{"base_weights":[2.0356451E3,2.4011223E2,2.2921455E3,-7.509426E2,6.27629E2,2.259439E3,2.2997297E3,-8.1746515E2,-3.5562817E2,5.90649E2,7.371316E2,2.2645344E3,2.1143252E3,2.2974233E3,2.3769211E3,-5.583802E2,-9.54484E2,7.156741E2,-5.5086426E2,7.636299E2,5.693436E2,1.165519E3,5.761251E2,2.1968108E3,6.818633E2,7.3777826E2,2.0545664E3,2.3007952E3,2.2619534E3,7.0584705E2,7.4176416E2,-2.1296962E2,-6.338797E1,-1.9568913E2,-3.156827E2,-1.9179903E2,1.2729219E2,2.4218776E2,1.1812501E2,1.7100433E2,-4.194034E2,2.2112276E2,4.4142493E2,2.8204312E2,1.6850752E2,6.4758575E2,6.7788586E2,6.2255273E2,3.4843973E2,6.8870013E2,6.950973E2,6.857038E2,6.670415E2],"categories":[],"categories_nodes":[],"categories_segments":[],"categories_sizes":[],"default_left":[0,0,0,0,0,0,0,0,0,0,0,0,0,0,0,0,0,0,0,0,0,0,0,0,0,0,0,0,0,0,0,0,0,0,0,0,0,0,0,0,0,0,0,0,0,0,0,0,0,0,0,0,0],"id":9,"left_children":[1,3,5,7,9,11,13,15,17,19,21,23,25,27,29,31,33,-1,35,37,39,41,43,45,-1,-1,47,49,51,-1,-1,-1,-1,-1,-1,-1,-1,-1,-1,-1,-1,-1,-1,-1,-1,-1,-1,-1,-1,-1,-1,-1,-1],"loss_changes":[6.1161603E10,6.3760916E9,2.359296E7,1.2243866E8,4.789453E7,1.1436032E7,1.1337728E7,1.4125235E8,3.6202733E8,3.246464E7,2.068686E8,6.971392E6,1.0592512E7,5.701632E6,4.18816E5,7.263469E7,7.647206E7,0E0,5.462093E7,1.5444416E7,1.129088E7,1.0651546E8,1.0973056E7,7.63904E5,0E0,0E0,9.609216E6,1.6384E6,2.23232E6,0E0,0E0,0E0,0E0,0E0,0E0,0E0,0E0,0E0,0E0,0E0,0E0,0E0,0E0,0E0,0E0,0E0,0E0,0E0,0E0,0E0,0E0,0E0,0E0],"parents":[2147483647,0,0,1,1,2,2,3,3,4,4,5,5,6,6,7,7,8,8,9,9,10,10,11,11,12,12,13,13,14,14,15,15,16,16,18,18,19,19,20,20,21,21,22,22,23,23,26,26,27,27,28,28],"right_children":[2,4,6,8,10,12,14,16,18,20,22,24,26,28,30,32,34,-1,36,38,40,42,44,46,-1,-1,48,50,52,-1,-1,-1,-1,-1,-1,-1,-1,-1,-1,-1,-1,-1,-1,-1,-1,-1,-1,-1,-1,-1,-1,-1,-1],"split_conditions":[9.657E3,6.296E3,1.1605E4,1.248E4,6.829E3,1.2502E4,1.1743E4,5E2,6E2,6.346E3,1.2454E4,1.1563E4,6E2,1.237E4,1.1842E4,2.064E3,2.037E3,7.156741E2,1.2579E4,2.418E3,7E2,6.469E3,6.421E3,7E2,6.818633E2,7.3777826E2,1.1604E4,1.1684E4,3E2,7.0584705E2,7.4176416E2,-2.1296962E2,-6.338797E1,-1.9568913E2,-3.156827E2,-1.9179903E2,1.2729219E2,2.4218776E2,1.1812501E2,1.7100433E2,-4.194034E2,2.2112276E2,4.4142493E2,2.8204312E2,1.6850752E2,6.4758575E2,6.7788586E2,6.2255273E2,3.4843973E2,6.8870013E2,6.950973E2,6.857038E2,6.670415E2],"split_indices":[0,0,0,1,1,1,0,2,2,0,1,0,2,1,0,0,0,0,1,1,2,0,0,2,0,0,0,0,2,0,0,0,0,0,0,0,0,0,0,0,0,0,0,0,0,0,0,0,0,0,0,0,0],"split_type":[0,0,0,0,0,0,0,0,0,0,0,0,0,0,0,0,0,0,0,0,0,0,0,0,0,0,0,0,0,0,0,0,0,0,0,0,0,0,0,0,0,0,0,0,0,0,0,0,0,0,0,0,0],"sum_hessian":[1.328E5,1.66E4,1.162E5,4.666E3,1.1934E4,2.1929E4,9.4271E4,3.993E3,6.73E2,8.926E3,3.008E3,2.1171E4,7.58E2,9.1566E4,2.705E3,1.383E3,2.61E3,4.4E1,6.29E2,9.75E2,7.951E3,8.2E2,2.188E3,2.351E3,1.882E4,1.06E2,6.52E2,8.3559E4,8.007E3,2.181E3,5.24E2,9.62E2,4.21E2,6.4E2,1.97E3,5.77E2,5.2E1,8.71E2,1.04E2,7.949E3,2E0,3.43E2,4.77E2,8.1E1,2.107E3,1.484E3,8.67E2,6.36E2,1.6E1,6.3572E4,1.9987E4,4.917E3,3.09E3],"tree_param":{"num_deleted":"0","num_feature":"3","num_nodes":"53","size_leaf_vector":"1"}},{"base_weights":[-4.433777E2,-7.911959E2,2.2771848E3,-8.303672E2,6.539209E2,9.8767413E2,2.3227021E3,-8.419803E2,-3.476661E2,7.67604E2,-6.319799E2,4.3272577E2,1.0599031E3,1.9046145E3,2.3687625E3,-7.4828076E2,-8.492884E2,-1.2824477E2,-7.512292E2,1.745369E3,6.648422E2,-6.5289246E2,6.956958E2,9.066649E2,-1.081132E3,1.3646136E3,8.750755E2,1.5974087E3,2.0620173E3,2.2104785E3,2.3990042E3,-2.5240892E2,-1.26762665E2,-2.5782236E2,-2.5383684E2,-5.3859962E1,3.2038686E0,-2.756052E2,-2.1226308E2,4.5380795E2,8.305987E2,1.8094241E2,2.0381367E2,-2.2008322E2,4.3349476E1,1.4784467E2,1.285331E3,-9.402858E1,-5.1410815E2,7.5913135E2,3.4669186E2,2.1069835E2,5.283299E2,4.4753207E2,9.9179193E2,3.3941617E2,6.389735E2,7.2751746E2,6.276273E2,7.8885706E2,7.1104865E2],"categories":[],"categories_nodes":[],"categories_segments":[],"categories_sizes":[],"default_left":[0,0,0,0,0,0,0,0,0,0,0,0,0,0,0,0,0,0,0,0,0,0,0,0,0,0,0,0,0,0,0,0,0,0,0,0,0,0,0,0,0,0,0,0,0,0,0,0,0,0,0,0,0,0,0,0,0,0,0,0,0],"id":10,"left_children":[1,3,5,7,9,11,13,15,17,19,21,23,25,27,29,31,33,35,37,39,41,43,-1,45,47,49,51,53,55,57,59,-1,-1,-1,-1,-1,-1,-1,-1,-1,-1,-1,-1,-1,-1,-1,-1,-1,-1,-1,-1,-1,-1,-1,-1,-1,-1,-1,-1,-1,-1],"loss_changes":[1.25666255E11,6.665904E9,8.8129536E8,6.423429E8,4.5482854E8,2.0184288E7,2.7549696E8,7.602995E7,2.3854685E8,2.858016E8,1.7127216E7,4.474629E7,2.4430944E7,6.672435E7,5.7368576E7,2.454825E8,2.596864E6,1.2449662E7,6.292288E6,6.033581E7,1.909632E6,1.6325728E7,0E0,6.358934E7,6.747178E6,3.849235E7,4.253789E7,8.440794E7,5.786829E7,4.860416E7,6.677299E7,0E0,0E0,0E0,0E0,0E0,0E0,0E0,0E0,0E0,0E0,0E0,0E0,0E0,0E0,0E0,0E0,0E0,0E0,0E0,0E0,0E0,0E0,0E0,0E0,0E0,0E0,0E0,0E0,0E0,0E0],"parents":[2147483647,0,0,1,1,2,2,3,3,4,4,5,5,6,6,7,7,8,8,9,9,10,10,11,11,12,12,13,13,14,14,15,15,16,16,17,17,18,18,19,19,20,20,21,21,23,23,24,24,25,25,26,26,27,27,28,28,29,29,30,30],"right_children":[2,4,6,8,10,12,14,16,18,20,22,24,26,28,30,32,34,36,38,40,42,44,-1,46,48,50,52,54,56,58,60,-1,-1,-1,-1,-1,-1,-1,-1,-1,-1,-1,-1,-1,-1,-1,-1,-1,-1,-1,-1,-1,-1,-1,-1,-1,-1,-1,-1,-1,-1],"split_conditions":[6.829E3,2.46E3,1.237E4,2.426E3,9.657E3,6.405E3,6.469E3,9.657E3,9.657E3,6.673E3,1.1842E4,6.346E3,2E2,1.2472E4,9.657E3,6.456E3,1.1613E4,6.52E3,2E2,6E2,6.725E3,3E2,6.956958E2,6.33E3,6.362E3,6.52E3,1.1672E4,6E2,2.032E3,1.2494E4,1.1579E4,-2.5240892E2,-1.26762665E2,-2.5782236E2,-2.5383684E2,-5.3859962E1,3.2038686E0,-2.756052E2,-2.1226308E2,4.5380795E2,8.305987E2,1.8094241E2,2.0381367E2,-2.2008322E2,4.3349476E1,1.4784467E2,1.285331E3,-9.402858E1,-5.1410815E2,7.5913135E2,3.4669186E2,2.1069835E2,5.283299E2,4.4753207E2,9.9179193E2,3.3941617E2,6.389735E2,7.2751746E2,6.276273E2,7.8885706E2,7.1104865E2],"split_indices":[1,1,1,1,0,0,0,0,0,1,0,0,2,1,0,0,0,0,2,2,1,2,0,0,0,0,0,2,0,1,0,0,0,0,0,0,0,0,0,0,0,0,0,0,0,0,0,0,0,0,0,0,0,0,0,0,0,0,0,0,0],"split_type":[0,0,0,0,0,0,0,0,0,0,0,0,0,0,0,0,0,0,0,0,0,0,0,0,0,0,0,0,0,0,0,0,0,0,0,0,0,0,0,0,0,0,0,0,0,0,0,0,0,0,0,0,0,0,0,0,0,0,0,0,0],"sum_hessian":[1.328E5,1.17747E5,1.5053E4,1.1464E5,3.107E3,5.14E2,1.4539E4,1.11946E5,2.694E3,2.855E3,2.52E2,6E1,4.54E2,1.447E3,1.3092E4,8.107E3,1.03839E5,1.746E3,9.48E2,2.7E2,2.585E3,2.51E2,1E0,4.6E1,1.4E1,1.69E2,2.85E2,4.94E2,9.53E2,2.112E3,1.098E4,6.304E3,1.803E3,2.4679E4,7.916E4,1.275E3,4.71E2,1.92E2,7.56E2,2.22E2,4.8E1,5.01E2,2.084E3,2.28E2,2.3E1,4.2E1,4E0,7E0,7E0,2.4E1,1.45E2,2.4E2,4.5E1,4.67E2,2.7E1,6.6E1,8.87E2,7.44E2,1.368E3,1.211E3,9.769E3],"tree_param":{"num_deleted":"0","num_feature":"3","num_nodes":"61","size_leaf_vector":"1"}},{"base_weights":[-1.5919187E3,-1.6444183E3,-1.4794902E3,-4.956214E2,-1.6132634E3,-4.5447348E2,-4.3415042E2,-4.8579703E2,-4.714923E2],"categories":[],"categories_nodes":[],"categories_segments":[],"categories_sizes":[],"default_left":[0,0,0,0,0,0,0,0,0],"id":11,"left_children":[1,3,5,-1,7,-1,-1,-1,-1],"loss_changes":[7.814185E8,1.892352E7,4.6219264E7,0E0,1.96608E6,0E0,0E0,0E0,0E0],"parents":[2147483647,0,0,1,1,2,2,4,4],"right_children":[2,4,6,-1,8,-1,-1,-1,-1],"split_conditions":[5E2,2E2,6E2,-4.956214E2,3E2,-4.5447348E2,-4.3415042E2,-4.8579703E2,-4.714923E2],"split_indices":[2,2,2,0,2,0,0,0,0],"split_type":[0,0,0,0,0,0,0,0,0],"sum_hessian":[1.328E5,9.0518E4,4.2282E4,7.2626E4,1.7892E4,2.0152E4,2.213E4,1.5585E4,2.307E3],"tree_param":{"num_deleted":"0","num_feature":"3","num_nodes":"9","size_leaf_vector":"1"}},{"base_weights":[1.4250192E3,1.6814412E2,1.6045698E3,-5.256891E2,4.3944293E2,1.6124487E3,1.5888861E3,-5.6712164E2,-2.0121033E2,4.1168402E2,5.3346936E2,1.6026438E3,1.656643E3,1.1090118E3,1.6078771E3,-1.2353698E3,-5.1755817E2,3.567855E2,-8.873093E2,4.435795E2,3.0660843E2,8.849335E2,4.9442834E2,1.5587094E3,1.6042612E3,4.0442813E2,1.6569719E3,1.1678757E3,2.1539499E2,1.6155055E3,1.545909E3,-2.987008E2,-3.828495E2,-5.59684E1,-1.764478E2,8.644624E1,9.3591077E2,-3.157692E2,3.96875E2,1.3038983E2,3.2269217E2,1.01328384E2,-1.7069107E0,2.8082428E2,1.2204764E2,4.7349533E2,4.4519095E2,4.8112808E2,5.0844482E2,3.9892545E2,-4.9452982E2,4.987796E2,4.834214E2,3.9102917E2,3.0538446E2,-2.1769421E2,1.7742184E2,4.9175217E2,4.7806482E2,4.4505054E2,4.7547488E2],"categories":[],"categories_nodes":[],"categories_segments":[],"categories_sizes":[],"default_left":[0,0,0,0,0,0,0,0,0,0,0,0,0,0,0,0,0,0,0,0,0,0,0,0,0,0,0,0,0,0,0,0,0,0,0,0,0,0,0,0,0,0,0,0,0,0,0,0,0,0,0,0,0,0,0,0,0,0,0,0,0],"id":12,"left_children":[1,3,5,7,9,11,13,15,17,19,21,23,25,27,29,31,33,35,37,39,41,-1,43,45,47,49,51,53,55,57,59,-1,-1,-1,-1,-1,-1,-1,-1,-1,-1,-1,-1,-1,-1,-1,-1,-1,-1,-1,-1,-1,-1,-1,-1,-1,-1,-1,-1,-1,-1],"loss_changes":[2.9969285E10,3.125139E9,1.179648E7,6.262899E7,3.0931456E7,3.0834688E7,3.5294413E8,1.3641434E8,2.03222E8,3.0760832E7,2.5485024E8,2.015232E6,5.095424E6,7.786189E7,1.5204352E7,1.516256E6,8.995341E7,5.466052E7,8.832198E7,3.951245E7,2.0919232E7,0E0,1.0311507E8,1.001984E6,4.9152E4,1.1689805E7,9.13408E5,2.698368E7,3.3336496E7,1.470464E7,7.69536E6,0E0,0E0,0E0,0E0,0E0,0E0,0E0,0E0,0E0,0E0,0E0,0E0,0E0,0E0,0E0,0E0,0E0,0E0,0E0,0E0,0E0,0E0,0E0,0E0,0E0,0E0,0E0,0E0,0E0,0E0],"parents":[2147483647,0,0,1,1,2,2,3,3,4,4,5,5,6,6,7,7,8,8,9,9,10,10,11,11,12,12,13,13,14,14,15,15,16,16,17,17,18,18,19,19,20,20,22,22,23,23,24,24,25,25,26,26,27,27,28,28,29,29,30,30],"right_children":[2,4,6,8,10,12,14,16,18,20,22,24,26,28,30,32,34,36,38,40,42,-1,44,46,48,50,52,54,56,58,60,-1,-1,-1,-1,-1,-1,-1,-1,-1,-1,-1,-1,-1,-1,-1,-1,-1,-1,-1,-1,-1,-1,-1,-1,-1,-1,-1,-1,-1,-1],"split_conditions":[9.657E3,6.296E3,3E2,2.064E3,1.237E4,2E2,5E2,2E2,2E2,2E2,1.2382E4,1.157E4,1.1577E4,1.1693E4,1.237E4,2.041E3,5E2,2.421E3,6.829E3,6.829E3,6.829E3,8.849335E2,1.2448E4,1.239E4,1.1755E4,1.1572E4,1.237E4,1.1631E4,2.4E3,6E2,1.2494E4,-2.987008E2,-3.828495E2,-5.59684E1,-1.764478E2,8.644624E1,9.3591077E2,-3.157692E2,3.96875E2,1.3038983E2,3.2269217E2,1.01328384E2,-1.7069107E0,2.8082428E2,1.2204764E2,4.7349533E2,4.4519095E2,4.8112808E2,5.0844482E2,3.9892545E2,-4.9452982E2,4.987796E2,4.834214E2,3.9102917E2,3.0538446E2,-2.1769421E2,1.7742184E2,4.9175217E2,4.7806482E2,4.4505054E2,4.7547488E2],"split_indices":[0,0,2,0,1,2,2,2,2,2,1,0,0,0,1,0,2,1,1,1,1,0,1,1,0,0,1,0,1,2,1,0,0,0,0,0,0,0,0,0,0,0,0,0,0,0,0,0,0,0,0,0,0,0,0,0,0,0,0,0,0],"split_type":[0,0,0,0,0,0,0,0,0,0,0,0,0,0,0,0,0,0,0,0,0,0,0,0,0,0,0,0,0,0,0,0,0,0,0,0,0,0,0,0,0,0,0,0,0,0,0,0,0,0,0,0,0,0,0,0,0,0,0,0,0],"sum_hessian":[1.328E5,1.66E4,1.162E5,4.666E3,1.1934E4,7.7277E4,3.8923E4,4.137E3,5.29E2,9.218E3,2.716E3,6.3276E4,1.4001E4,1.484E3,3.7439E4,2.84E2,3.853E3,2.92E2,2.37E2,7.069E3,2.149E3,4.2E1,2.674E3,2.281E3,6.0995E4,4E0,1.3997E4,1.392E3,9.2E1,3.3313E4,4.126E3,4.5E1,2.39E2,6.78E2,3.175E3,2.86E2,6E0,2.21E2,1.6E1,6.972E3,9.7E1,1.954E3,1.95E2,4.41E2,2.233E3,1.791E3,4.9E2,6.0678E4,3.17E2,3E0,1E0,1.2427E4,1.57E3,7.27E2,6.65E2,2.6E1,6.6E1,1.5996E4,1.7317E4,1.602E3,2.524E3],"tree_param":{"num_deleted":"0","num_feature":"3","num_nodes":"61","size_leaf_vector":"1"}},{"base_weights":[-3.1029883E2,-5.538307E2,1.5945569E3,-5.812695E2,4.584488E2,6.9655615E2,1.6262539E3,-5.9028406E2,-2.650148E2,5.34429E2,-5.0364545E2,6.259717E2,1.0101119E3,1.2734078E3,1.654896E3,-4.09334E2,-5.9213025E2,-5.0083107E1,-5.346347E2,1.1442507E3,4.6468344E2,-5.608658E2,4.8583453E2,7.2661633E2,-1.3352552E3,2.5451504E3,6.580889E2,6.8590515E2,1.431232E3,1.54489E3,1.6794393E3,-2.1429791E2,7.894631E1,-1.7855112E2,-1.5161914E2,-5.4095367E1,7.0971756E0,-1.5068906E2,-2.0925288E2,3.235857E2,1.4205515E3,1.3966156E2,-2.619783E2,-1.7454321E2,5.913413E2,-3.9926163E1,7.779809E2,1.8916579E2,5.4619525E2,-9.3422845E2,-6.702006E1,1.0872058E3,-5.601534E2,-1.24139084E2,3.2023065E2,2.7472476E2,-2.079157E2,-1.5479642E1,4.538607E2,4.806552E2,3.6935776E2,4.962756E2,5.4844415E2],"categories":[],"categories_nodes":[],"categories_segments":[],"categories_sizes":[],"default_left":[0,0,0,0,0,0,0,0,0,0,0,0,0,0,0,0,0,0,0,0,0,0,0,0,0,0,0,0,0,0,0,0,0,0,0,0,0,0,0,0,0,0,0,0,0,0,0,0,0,0,0,0,0,0,0,0,0,0,0,0,0,0,0],"id":13,"left_children":[1,3,5,7,9,11,13,15,17,19,21,23,25,27,29,31,33,35,37,39,41,43,45,47,49,51,53,55,57,59,61,-1,-1,-1,-1,-1,-1,-1,-1,-1,-1,-1,-1,-1,-1,-1,-1,-1,-1,-1,-1,-1,-1,-1,-1,-1,-1,-1,-1,-1,-1,-1,-1],"loss_changes":[6.160633E10,3.2708035E9,4.2736435E8,3.266724E8,2.2746445E8,1.076576E7,1.4483456E8,3.699507E7,1.8419586E8,1.2200397E8,1.3181476E7,8.446493E7,4.857937E7,1.0064166E8,3.3705984E7,2.317502E8,2.879488E7,1.7002568E7,7.07616E6,6.441776E7,3.366208E6,1.2601832E7,1.7301514E7,4.120608E7,4.083835E7,8.769218E7,3.42272E7,7.479982E7,1.0454746E8,4.2330624E7,3.8107136E7,0E0,0E0,0E0,0E0,0E0,0E0,0E0,0E0,0E0,0E0,0E0,0E0,0E0,0E0,0E0,0E0,0E0,0E0,0E0,0E0,0E0,0E0,0E0,0E0,0E0,0E0,0E0,0E0,0E0,0E0,0E0,0E0],"parents":[2147483647,0,0,1,1,2,2,3,3,4,4,5,5,6,6,7,7,8,8,9,9,10,10,11,11,12,12,13,13,14,14,15,15,16,16,17,17,18,18,19,19,20,20,21,21,22,22,23,23,24,24,25,25,26,26,27,27,28,28,29,29,30,30],"right_children":[2,4,6,8,10,12,14,16,18,20,22,24,26,28,30,32,34,36,38,40,42,44,46,48,50,52,54,56,58,60,62,-1,-1,-1,-1,-1,-1,-1,-1,-1,-1,-1,-1,-1,-1,-1,-1,-1,-1,-1,-1,-1,-1,-1,-1,-1,-1,-1,-1,-1,-1,-1,-1],"split_conditions":[6.829E3,2.46E3,1.237E4,2.424E3,1.163E4,1.1651E4,6.421E3,2.047E3,6.578E3,6.673E3,3E2,1.1635E4,1.1662E4,2E2,9.657E3,7E2,2.418E3,6.346E3,2.448E3,1.162E4,9.657E3,1.1842E4,1.167E4,1.1615E4,1.1641E4,6E2,1.1677E4,1.2466E4,1.2429E4,1.2555E4,1.2538E4,-2.1429791E2,7.894631E1,-1.7855112E2,-1.5161914E2,-5.4095367E1,7.0971756E0,-1.5068906E2,-2.0925288E2,3.235857E2,1.4205515E3,1.3966156E2,-2.619783E2,-1.7454321E2,5.913413E2,-3.9926163E1,7.779809E2,1.8916579E2,5.4619525E2,-9.3422845E2,-6.702006E1,1.0872058E3,-5.601534E2,-1.24139084E2,3.2023065E2,2.7472476E2,-2.079157E2,-1.5479642E1,4.538607E2,4.806552E2,3.6935776E2,4.962756E2,5.4844415E2],"split_indices":[1,1,1,1,0,0,0,0,0,1,2,0,0,2,0,2,1,0,1,0,0,0,0,0,0,2,0,1,1,1,1,0,0,0,0,0,0,0,0,0,0,0,0,0,0,0,0,0,0,0,0,0,0,0,0,0,0,0,0,0,0,0,0],"split_type":[0,0,0,0,0,0,0,0,0,0,0,0,0,0,0,0,0,0,0,0,0,0,0,0,0,0,0,0,0,0,0,0,0,0,0,0,0,0,0,0,0,0,0,0,0,0,0,0,0,0,0,0,0,0,0,0,0,0,0,0,0,0,0],"sum_hessian":[1.328E5,1.17747E5,1.5053E4,1.1464E5,3.107E3,5.14E2,1.4539E4,1.11462E5,3.178E3,2.88E3,2.27E2,4.22E2,9.2E1,1.095E3,1.3444E4,1.128E3,1.10334E5,1.769E3,1.409E3,2.94E2,2.586E3,2.15E2,1.2E1,4.02E2,2E1,1.6E1,7.6E1,2.33E2,8.62E2,2.464E3,1.098E4,7.76E2,3.52E2,1.06592E5,3.742E3,6.39E2,1.13E3,1.179E3,2.3E2,2.9E2,4E0,2.585E3,1E0,2.14E2,1E0,1E1,2E0,3.71E2,3.1E1,7E0,1.3E1,1.3E1,3E0,2.1E1,5.5E1,2E2,3.3E1,4.5E1,8.17E2,2.08E3,3.84E2,9.4E3,1.58E3],"tree_param":{"num_deleted":"0","num_feature":"3","num_nodes":"63","size_leaf_vector":"1"}},{"base_weights":[-1.1143607E3,-1.1511089E3,-1.0356642E3,-3.4693704E2,-1.1293379E3,-3.1813815E2,-3.0391116E2,-3.400673E2,-3.301059E2],"categories":[],"categories_nodes":[],"categories_segments":[],"categories_sizes":[],"default_left":[0,0,0,0,0,0,0,0,0],"id":14,"left_children":[1,3,5,-1,7,-1,-1,-1,-1],"loss_changes":[3.828613E8,9.232384E6,2.265088E7,0E0,9.40032E5,0E0,0E0,0E0,0E0],"parents":[2147483647,0,0,1,1,2,2,4,4],"right_children":[2,4,6,-1,8,-1,-1,-1,-1],"split_conditions":[5E2,2E2,6E2,-3.4693704E2,3E2,-3.1813815E2,-3.0391116E2,-3.400673E2,-3.301059E2],"split_indices":[2,2,2,0,2,0,0,0,0],"split_type":[0,0,0,0,0,0,0,0,0],"sum_hessian":[1.328E5,9.0518E4,4.2282E4,7.2626E4,1.7892E4,2.0152E4,2.213E4,1.5585E4,2.307E3],"tree_param":{"num_deleted":"0","num_feature":"3","num_nodes":"9","size_leaf_vector":"1"}},{"base_weights":[9.975691E2,1.1782318E2,1.123245E3,-3.6794177E2,3.0776428E2,9.8781946E2,1.1238335E3,-4.1653467E2,-7.944322E1,3.9213455E2,2.902275E2,9.1093665E2,1.1774377E3,1.1264412E3,1.0984337E3,-1.1256972E2,-4.6159888E2,1.8328558E3,-2.1590991E2,3.6445392E2,8.5073456E2,2.6366156E2,3.637152E2,6.8593463E2,1.1048878E3,3.7938602E2,8.9113727E2,1.1232605E3,1.1400593E3,1.060857E3,1.1198323E3,1.2304398E2,-1.171819E2,-1.4873561E2,-6.425713E1,6.728961E2,4.511223E2,8.841189E0,-1.3214899E2,1.8088904E2,9.478896E1,6.035331E2,1.0343787E2,8.5014206E1,6.4847046E1,5.943978E2,1.0174802E2,2.9212643E2,-3.8960255E1,3.568396E2,-2.3538283E2,2.351172E1,4.1473688E2,3.361069E2,3.4075366E2,3.414253E2,3.6741846E2,3.2353244E2,3.0445486E2,3.271106E2,3.5068832E2],"categories":[],"categories_nodes":[],"categories_segments":[],"categories_sizes":[],"default_left":[0,0,0,0,0,0,0,0,0,0,0,0,0,0,0,0,0,0,0,0,0,0,0,0,0,0,0,0,0,0,0,0,0,0,0,0,0,0,0,0,0,0,0,0,0,0,0,0,0,0,0,0,0,0,0,0,0,0,0,0,0],"id":15,"left_children":[1,3,5,7,9,11,13,15,17,19,21,23,25,27,29,31,33,35,37,39,41,43,45,47,49,-1,51,53,55,57,59,-1,-1,-1,-1,-1,-1,-1,-1,-1,-1,-1,-1,-1,-1,-1,-1,-1,-1,-1,-1,-1,-1,-1,-1,-1,-1,-1,-1,-1,-1],"loss_changes":[1.4682735E10,1.5318331E9,8.142848E6,6.539347E7,1.7545088E7,6.376992E6,6.422528E6,5.465773E7,1.7628624E8,2.572608E7,1.9202304E7,1.5301408E7,2.467344E6,3.260416E6,7.50592E6,7.5298024E7,2.9310784E7,2.701248E6,3.4731776E7,2.2200272E7,6.744703E7,6.743296E6,1.0347568E8,4.074759E7,3.225584E7,0E0,1.4666742E7,1.835008E6,1.91488E6,2.094592E6,8.671232E6,0E0,0E0,0E0,0E0,0E0,0E0,0E0,0E0,0E0,0E0,0E0,0E0,0E0,0E0,0E0,0E0,0E0,0E0,0E0,0E0,0E0,0E0,0E0,0E0,0E0,0E0,0E0,0E0,0E0,0E0],"parents":[2147483647,0,0,1,1,2,2,3,3,4,4,5,5,6,6,7,7,8,8,9,9,10,10,11,11,12,12,13,13,14,14,15,15,16,16,17,17,18,18,19,19,20,20,21,21,22,22,23,23,24,24,26,26,27,27,28,28,29,29,30,30],"right_children":[2,4,6,8,10,12,14,16,18,20,22,24,26,28,30,32,34,36,38,40,42,44,46,48,50,-1,52,54,56,58,60,-1,-1,-1,-1,-1,-1,-1,-1,-1,-1,-1,-1,-1,-1,-1,-1,-1,-1,-1,-1,-1,-1,-1,-1,-1,-1,-1,-1,-1,-1],"split_conditions":[9.657E3,6.296E3,1.1541E4,1.248E4,6.375E3,1.2404E4,1.237E4,2.397E3,6E2,2.46E3,1.237E4,7E2,1.2528E4,1.1688E4,1.1622E4,2.044E3,2.064E3,2.05E3,1.2528E4,2.395E3,1.2397E4,2E2,1.2382E4,2E2,2.418E3,3.7938602E2,1.2555E4,7E2,1.1842E4,6E2,1.2472E4,1.2304398E2,-1.171819E2,-1.4873561E2,-6.425713E1,6.728961E2,4.511223E2,8.841189E0,-1.3214899E2,1.8088904E2,9.478896E1,6.035331E2,1.0343787E2,8.5014206E1,6.4847046E1,5.943978E2,1.0174802E2,2.9212643E2,-3.8960255E1,3.568396E2,-2.3538283E2,2.351172E1,4.1473688E2,3.361069E2,3.4075366E2,3.414253E2,3.6741846E2,3.2353244E2,3.0445486E2,3.271106E2,3.5068832E2],"split_indices":[0,0,0,1,0,1,1,1,2,1,1,2,1,0,0,0,0,0,1,1,1,2,1,2,1,0,1,2,0,2,1,0,0,0,0,0,0,0,0,0,0,0,0,0,0,0,0,0,0,0,0,0,0,0,0,0,0,0,0,0,0],"split_type":[0,0,0,0,0,0,0,0,0,0,0,0,0,0,0,0,0,0,0,0,0,0,0,0,0,0,0,0,0,0,0,0,0,0,0,0,0,0,0,0,0,0,0,0,0,0,0,0,0,0,0,0,0,0,0,0,0,0,0,0,0],"sum_hessian":[1.328E5,1.66E4,1.162E5,4.666E3,1.1934E4,5.1E2,1.1569E5,3.993E3,6.73E2,2.05E3,9.884E3,3.67E2,1.43E2,1.04879E5,1.0811E4,5.16E2,3.477E3,4.4E1,6.29E2,1.935E3,1.15E2,7.263E3,2.621E3,1.72E2,1.95E2,1.07E2,3.6E1,8.5089E4,1.979E4,3.941E3,6.87E3,1.79E2,3.37E2,3.054E3,4.23E2,1.7E1,2.7E1,3.01E2,3.28E2,3.25E2,1.61E3,3.4E1,8.1E1,5.129E3,2.134E3,3.8E1,2.583E3,1.27E2,4.5E1,1.87E2,8E0,1.4E1,2.2E1,6.9208E4,1.5881E4,1.9353E4,4.37E2,2.835E3,1.106E3,4.309E3,2.561E3],"tree_param":{"num_deleted":"0","num_feature":"3","num_nodes":"61","size_leaf_vector":"1"}},{"base_weights":[-2.1717337E2,-3.8766537E2,1.1163796E3,-4.068963E2,3.2180746E2,4.8847705E2,1.138543E3,-4.1207678E2,-1.3305887E2,3.809069E2,-3.4661035E2,5.348625E2,-1.2522804E2,8.9184674E2,1.1585682E3,-3.4732382E2,-4.1709616E2,-6.1679768E1,-3.731056E2,9.041061E2,3.259309E2,-1.2026868E3,-2.6393668E2,4.552217E2,2.3398572E3,-2.4462039E3,4.0290286E2,9.5408246E2,-1.9865793E2,1.1537869E3,5.137416E2,-1.1818005E2,3.3803444E1,-1.3207178E2,-1.2476502E2,-2.4639582E1,5.072295E2,-1.9191602E2,-9.458532E1,7.874269E1,3.6810834E2,1.0538143E2,8.635876E1,-8.2647394E2,-2.992755E2,1.0796191E3,-1.04246E2,1.4503917E2,-8.6557526E2,9.825078E2,4.330478E2,-2.9024408E2,-9.94013E2,1.9468137E2,-1.6000533E2,2.7069458E2,5.390692E2,2.2587509E2,-2.5618668E2,3.766724E2,3.3921332E2],"categories":[],"categories_nodes":[],"categories_segments":[],"categories_sizes":[],"default_left":[0,0,0,0,0,0,0,0,0,0,0,0,0,0,0,0,0,0,0,0,0,0,0,0,0,0,0,0,0,0,0,0,0,0,0,0,0,0,0,0,0,0,0,0,0,0,0,0,0,0,0,0,0,0,0,0,0,0,0,0,0],"id":16,"left_children":[1,3,5,7,9,11,13,15,17,19,21,23,25,27,29,31,33,35,37,39,41,43,45,47,49,51,53,55,57,59,-1,-1,-1,-1,-1,-1,-1,-1,-1,-1,-1,-1,-1,-1,-1,-1,-1,-1,-1,-1,-1,-1,-1,-1,-1,-1,-1,-1,-1,-1,-1],"loss_changes":[3.0194084E10,1.6066642E9,2.089431E8,1.6257638E8,1.2290765E8,1.4727464E7,7.079526E7,3.642368E7,3.647309E7,8.185357E7,1.7588638E7,6.779168E7,4.6339404E7,7.457312E7,3.3632256E7,1.7371277E8,2.746368E6,5.9026104E7,7.321296E6,5.582816E7,2.393504E6,4.255762E6,7.61229E7,4.479231E7,1.203756E7,5.770536E6,7.4869995E6,4.362323E7,3.8056836E7,2.9896704E7,0E0,0E0,0E0,0E0,0E0,0E0,0E0,0E0,0E0,0E0,0E0,0E0,0E0,0E0,0E0,0E0,0E0,0E0,0E0,0E0,0E0,0E0,0E0,0E0,0E0,0E0,0E0,0E0,0E0,0E0,0E0],"parents":[2147483647,0,0,1,1,2,2,3,3,4,4,5,5,6,6,7,7,8,8,9,9,10,10,11,11,12,12,13,13,14,14,15,15,16,16,17,17,18,18,19,19,20,20,21,21,22,22,23,23,24,24,25,25,26,26,27,27,28,28,29,29],"right_children":[2,4,6,8,10,12,14,16,18,20,22,24,26,28,30,32,34,36,38,40,42,44,46,48,50,52,54,56,58,60,-1,-1,-1,-1,-1,-1,-1,-1,-1,-1,-1,-1,-1,-1,-1,-1,-1,-1,-1,-1,-1,-1,-1,-1,-1,-1,-1,-1,-1,-1,-1],"split_conditions":[6.829E3,2.46E3,1.237E4,2.43E3,9.657E3,1.169E4,6.421E3,6.6E3,1.166E4,6.673E3,1.162E4,1.1677E4,1.1697E4,6.405E3,1.1767E4,2.418E3,1.1577E4,1.1656E4,1.1678E4,6.469E3,6.765E3,1.1541E4,1.163E4,1.1675E4,1.1682E4,3E2,3E2,6.389E3,1.2429E4,1.241E4,5.137416E2,-1.1818005E2,3.3803444E1,-1.3207178E2,-1.2476502E2,-2.4639582E1,5.072295E2,-1.9191602E2,-9.458532E1,7.874269E1,3.6810834E2,1.0538143E2,8.635876E1,-8.2647394E2,-2.992755E2,1.0796191E3,-1.04246E2,1.4503917E2,-8.6557526E2,9.825078E2,4.330478E2,-2.9024408E2,-9.94013E2,1.9468137E2,-1.6000533E2,2.7069458E2,5.390692E2,2.2587509E2,-2.5618668E2,3.766724E2,3.3921332E2],"split_indices":[1,1,1,1,0,0,0,0,0,1,0,0,0,0,0,1,0,0,0,0,1,0,0,0,0,2,2,0,1,1,0,0,0,0,0,0,0,0,0,0,0,0,0,0,0,0,0,0,0,0,0,0,0,0,0,0,0,0,0,0,0],"split_type":[0,0,0,0,0,0,0,0,0,0,0,0,0,0,0,0,0,0,0,0,0,0,0,0,0,0,0,0,0,0,0,0,0,0,0,0,0,0,0,0,0,0,0,0,0,0,0,0,0,0,0,0,0,0,0,0,0,0,0,0,0],"sum_hessian":[1.328E5,1.17747E5,1.5053E4,1.1464E5,3.107E3,5.14E2,1.4539E4,1.12511E5,2.129E3,2.855E3,2.52E2,4.78E2,3.6E1,1.095E3,1.3444E4,8.099E3,1.04412E5,1.642E3,4.87E2,2.7E2,2.585E3,2.1E1,2.31E2,4.59E2,1.9E1,6E0,3E1,1.036E3,5.9E1,1.3332E4,1.12E2,7.354E3,7.45E2,5.181E3,9.9231E4,1.624E3,1.8E1,8.5E1,4.02E2,9.1E1,1.79E2,1.547E3,1.038E3,1E0,2E1,4E0,2.27E2,4.56E2,3E0,8E0,1.1E1,3E0,3E0,2.4E1,6E0,9.78E2,5.8E1,2.4E1,3.5E1,2.454E3,1.0878E4],"tree_param":{"num_deleted":"0","num_feature":"3","num_nodes":"61","size_leaf_vector":"1"}},{"base_weights":[-7.800649E2,-8.0578754E2,-7.249796E2,-2.4285738E2,-7.90574E2,-2.22562E2,-2.1247702E2,-2.3805363E2,-2.3111702E2],"categories":[],"categories_nodes":[],"categories_segments":[],"categories_sizes":[],"default_left":[0,0,0,0,0,0,0,0,0],"id":17,"left_children":[1,3,5,-1,7,-1,-1,-1,-1],"loss_changes":[1.875886E8,4.501504E6,1.1419648E7,0E0,4.49536E5,0E0,0E0,0E0,0E0],"parents":[2147483647,0,0,1,1,2,2,4,4],"right_children":[2,4,6,-1,8,-1,-1,-1,-1],"split_conditions":[5E2,2E2,7E2,-2.4285738E2,3E2,-2.22562E2,-2.1247702E2,-2.3805363E2,-2.3111702E2],"split_indices":[2,2,2,0,2,0,0,0,0],"split_type":[0,0,0,0,0,0,0,0,0],"sum_hessian":[1.328E5,9.0518E4,4.2282E4,7.2626E4,1.7892E4,2.1012E4,2.127E4,1.5585E4,2.307E3],"tree_param":{"num_deleted":"0","num_feature":"3","num_nodes":"9","size_leaf_vector":"1"}},{"base_weights":[6.9834753E2,8.263417E1,7.863052E2,-2.573892E2,2.155882E2,7.92097E2,7.747861E2,-2.6861185E2,6.549801E2,3.6482117E2,2.089356E2,7.858211E2,8.204019E2,4.4524963E2,7.8783594E2,-1.9168535E2,-3.515214E2,4.0107184E2,3.686457E2,5.1632587E2,2.415716E2,1.9264946E2,2.6145975E2,7.586722E2,7.86824E2,5.15293E0,8.2063446E2,4.871679E2,-1.8741039E2,8.029138E2,7.7379474E2,2.8073385E1,-1.06201965E2,-2.4079659E2,-9.110786E1,2.4928294E2,-6.7350037E2,1.0202007E2,3.400444E2,-8.08572E1,1.05864975E2,1.2732025E2,5.6671173E1,1.9128134E2,5.42835E1,2.2824185E2,1.343989E2,2.37366E2,2.3479831E2,2.3637239E2,-4.688801E2,2.1605202E2,2.4664037E2,1.7551544E2,1.1192249E2,3.384179E2,-1.1328982E2,-8.0701154E2,2.411515E2,-2.2351742E0,2.3728323E2],"categories":[],"categories_nodes":[],"categories_segments":[],"categories_sizes":[],"default_left":[0,0,0,0,0,0,0,0,0,0,0,0,0,0,0,0,0,0,0,0,0,0,0,0,0,0,0,0,0,0,0,0,0,0,0,0,0,0,0,0,0,0,0,0,0,0,0,0,0,0,0,0,0,0,0,0,0,0,0,0,0],"id":18,"left_children":[1,3,5,7,9,11,13,15,17,19,21,23,25,27,29,31,33,35,-1,37,39,41,43,45,47,49,51,53,55,57,59,-1,-1,-1,-1,-1,-1,-1,-1,-1,-1,-1,-1,-1,-1,-1,-1,-1,-1,-1,-1,-1,-1,-1,-1,-1,-1,-1,-1,-1,-1],"loss_changes":[7.1919985E9,7.5054483E8,7.135232E6,4.7962336E7,1.1772672E7,1.308672E7,1.6703693E8,2.934128E7,7.812196E6,9.361104E6,9.72528E6,1.122304E6,2.651136E6,3.9473536E7,7.307264E6,1.1088556E8,4.761421E7,4.8501772E7,0E0,2.4307416E7,1.6138342E7,7.495232E6,8.171523E7,1.172096E6,4.99712E5,7.368586E6,1.517568E6,1.5338496E7,2.3697548E7,6.0374016E7,2.6011238E8,0E0,0E0,0E0,0E0,0E0,0E0,0E0,0E0,0E0,0E0,0E0,0E0,0E0,0E0,0E0,0E0,0E0,0E0,0E0,0E0,0E0,0E0,0E0,0E0,0E0,0E0,0E0,0E0,0E0,0E0],"parents":[2147483647,0,0,1,1,2,2,3,3,4,4,5,5,6,6,7,7,8,8,9,9,10,10,11,11,12,12,13,13,14,14,15,15,16,16,17,17,19,19,20,20,21,21,22,22,23,23,24,24,25,25,26,26,27,27,28,28,29,29,30,30],"right_children":[2,4,6,8,10,12,14,16,18,20,22,24,26,28,30,32,34,36,-1,38,40,42,44,46,48,50,52,54,56,58,60,-1,-1,-1,-1,-1,-1,-1,-1,-1,-1,-1,-1,-1,-1,-1,-1,-1,-1,-1,-1,-1,-1,-1,-1,-1,-1,-1,-1,-1,-1],"split_conditions":[9.657E3,6.296E3,3E2,1.2579E4,6.33E3,2E2,5E2,7E2,2.044E3,2.402E3,1.237E4,1.157E4,1.1577E4,1.1693E4,6E2,2.047E3,2.032E3,2.041E3,3.686457E2,2.4E3,2.404E3,2.388E3,1.2448E4,1.2487E4,2.403E3,1.1572E4,1.1627E4,1.1633E4,4E2,1.1541E4,7E2,2.8073385E1,-1.06201965E2,-2.4079659E2,-9.110786E1,2.4928294E2,-6.7350037E2,1.0202007E2,3.400444E2,-8.08572E1,1.05864975E2,1.2732025E2,5.6671173E1,1.9128134E2,5.42835E1,2.2824185E2,1.343989E2,2.37366E2,2.3479831E2,2.3637239E2,-4.688801E2,2.1605202E2,2.4664037E2,1.7551544E2,1.1192249E2,3.384179E2,-1.1328982E2,-8.0701154E2,2.411515E2,-2.2351742E0,2.3728323E2],"split_indices":[0,0,2,1,0,2,2,2,0,1,1,0,0,0,2,0,0,0,0,1,1,1,1,1,1,0,0,0,2,0,2,0,0,0,0,0,0,0,0,0,0,0,0,0,0,0,0,0,0,0,0,0,0,0,0,0,0,0,0,0,0],"split_type":[0,0,0,0,0,0,0,0,0,0,0,0,0,0,0,0,0,0,0,0,0,0,0,0,0,0,0,0,0,0,0,0,0,0,0,0,0,0,0,0,0,0,0,0,0,0,0,0,0,0,0,0,0,0,0,0,0,0,0,0,0],"sum_hessian":[1.328E5,1.66E4,1.162E5,4.666E3,1.1934E4,7.7277E4,3.8923E4,4.61E3,5.6E1,5.07E2,1.1427E4,6.3276E4,1.4001E4,1.484E3,3.7439E4,2.393E3,2.217E3,4E1,1.6E1,2.26E2,2.81E2,8.726E3,2.701E3,2.281E3,6.0995E4,4E0,1.3997E4,1.392E3,9.2E1,1.8026E4,1.9413E4,8.68E2,1.525E3,2.11E2,2.006E3,3.5E1,5E0,1.77E2,4.9E1,5E1,2.31E2,1.37E2,8.589E3,4.75E2,2.226E3,2.264E3,1.7E1,2.9575E4,3.142E4,3E0,1E0,2.13E2,1.3784E4,7.47E2,6.45E2,1.1E1,8.1E1,4E0,1.8022E4,4.17E2,1.8996E4],"tree_param":{"num_deleted":"0","num_feature":"3","num_nodes":"61","size_leaf_vector":"1"}},{"base_weights":[-1.520077E2,-2.8056714E2,7.155299E2,-2.8774323E2,2.9766022E1,2.5916183E2,7.9711847E2,-2.3415593E2,-2.9208002E2,1.24792595E2,-2.3500377E2,2.4807344E2,5.555237E2,6.810743E2,8.220002E2,-3.0757236E2,-6.327167E0,-3.976239E2,-2.9184155E2,-1.8274057E1,3.3848965E2,-1.2151798E2,-4.0316245E2,2.6087634E2,-1.0884287E3,9.8520496E2,-1.21431915E2,1.5175654E3,6.689408E2,8.650541E2,7.552617E2,-1.0754428E2,1.9635452E1,-2.776841E1,7.662583E1,-1.0818528E2,-4.6226492E2,-8.848365E1,-8.5556046E1,-3.395978E1,1.391827E2,1.9035687E2,5.3401375E1,-5.3774635E1,3.2643268E2,-1.2941028E2,3.66933E2,7.643867E1,9.6816003E2,-5.9946655E2,-8.875394E1,3.869878E2,-1.21947334E2,-4.2861902E2,1.4598207E2,-6.9509106E2,5.8091125E2,1.6541652E2,2.347253E2,2.5559412E2,3.351728E2,1.8990956E2,2.4631012E2],"categories":[],"categories_nodes":[],"categories_segments":[],"categories_sizes":[],"default_left":[0,0,0,0,0,0,0,0,0,0,0,0,0,0,0,0,0,0,0,0,0,0,0,0,0,0,0,0,0,0,0,0,0,0,0,0,0,0,0,0,0,0,0,0,0,0,0,0,0,0,0,0,0,0,0,0,0,0,0,0,0,0,0],"id":19,"left_children":[1,3,5,7,9,11,13,15,17,19,21,23,25,27,29,31,33,35,37,39,41,43,45,47,49,51,53,55,57,59,61,-1,-1,-1,-1,-1,-1,-1,-1,-1,-1,-1,-1,-1,-1,-1,-1,-1,-1,-1,-1,-1,-1,-1,-1,-1,-1,-1,-1,-1,-1,-1,-1],"loss_changes":[1.4811517E10,2.5758515E8,6.379909E8,2.620416E7,6.5823164E7,8.409552E6,4.142285E7,1.4165376E8,2.515968E6,5.8859064E7,1.3137788E7,4.3215664E7,2.7171026E7,2.509952E7,3.373517E7,1.2165517E8,4.6633804E7,9.302052E6,2.071552E6,5.287628E7,3.6563936E7,2.9105788E7,1.327924E7,4.4019104E7,1.6714898E7,2.46995E7,3.0106082E7,6.2299784E7,3.3424256E7,2.3011328E7,3.727283E7,0E0,0E0,0E0,0E0,0E0,0E0,0E0,0E0,0E0,0E0,0E0,0E0,0E0,0E0,0E0,0E0,0E0,0E0,0E0,0E0,0E0,0E0,0E0,0E0,0E0,0E0,0E0,0E0,0E0,0E0,0E0,0E0],"parents":[2147483647,0,0,1,1,2,2,3,3,4,4,5,5,6,6,7,7,8,8,9,9,10,10,11,11,12,12,13,13,14,14,15,15,16,16,17,17,18,18,19,19,20,20,21,21,22,22,23,23,24,24,25,25,26,26,27,27,28,28,29,29,30,30],"right_children":[2,4,6,8,10,12,14,16,18,20,22,24,26,28,30,32,34,36,38,40,42,44,46,48,50,52,54,56,58,60,62,-1,-1,-1,-1,-1,-1,-1,-1,-1,-1,-1,-1,-1,-1,-1,-1,-1,-1,-1,-1,-1,-1,-1,-1,-1,-1,-1,-1,-1,-1,-1,-1],"split_conditions":[6.725E3,2.436E3,1.237E4,6.6E3,9.657E3,1.1651E4,6.536E3,6.438E3,9.657E3,2.46E3,1.1706E4,1.1634E4,1.169E4,1.2382E4,1.1647E4,2.418E3,2.414E3,2.426E3,5E2,6.545E3,6.673E3,1.1703E4,3E2,1.1631E4,1.1641E4,6E2,1.1705E4,2.044E3,3E2,1.1643E4,2E2,-1.0754428E2,1.9635452E1,-2.776841E1,7.662583E1,-1.0818528E2,-4.6226492E2,-8.848365E1,-8.5556046E1,-3.395978E1,1.391827E2,1.9035687E2,5.3401375E1,-5.3774635E1,3.2643268E2,-1.2941028E2,3.66933E2,7.643867E1,9.6816003E2,-5.9946655E2,-8.875394E1,3.869878E2,-1.21947334E2,-4.2861902E2,1.4598207E2,-6.9509106E2,5.8091125E2,1.6541652E2,2.347253E2,2.5559412E2,3.351728E2,1.8990956E2,2.4631012E2],"split_indices":[1,1,1,0,0,0,0,0,0,1,0,0,0,1,0,1,1,1,2,0,1,0,2,0,0,2,0,0,2,0,2,0,0,0,0,0,0,0,0,0,0,0,0,0,0,0,0,0,0,0,0,0,0,0,0,0,0,0,0,0,0,0,0],"split_type":[0,0,0,0,0,0,0,0,0,0,0,0,0,0,0,0,0,0,0,0,0,0,0,0,0,0,0,0,0,0,0,0,0,0,0,0,0,0,0,0,0,0,0,0,0,0,0,0,0,0,0,0,0,0,0,0,0,0,0,0,0,0,0],"sum_hessian":[1.328E5,1.15661E5,1.7139E4,1.13047E5,2.614E3,2.6E3,1.4539E4,8.468E3,1.04579E5,1.924E3,6.9E2,2.508E3,9.2E1,2.572E3,1.1967E4,6.404E3,2.064E3,2.32E2,1.04347E5,1.153E3,7.71E2,4.13E2,2.77E2,2.485E3,2.3E1,5.6E1,3.6E1,3.5E1,2.537E3,7.267E3,4.7E3,5.635E3,7.69E2,1.553E3,5.11E2,2.26E2,6E0,7.1128E4,3.3219E4,9.64E2,1.89E2,2.7E2,5.01E2,3.95E2,1.8E1,2.73E2,4E0,2.481E3,4E0,1E1,1.3E1,4.6E1,1E1,1.1E1,2.5E1,3E0,3.2E1,1.249E3,1.288E3,6.913E3,3.54E2,1.648E3,3.052E3],"tree_param":{"num_deleted":"0","num_feature":"3","num_nodes":"63","size_leaf_vector":"1"}},{"base_weights":[-5.46054E2,-5.6405914E2,-5.0749597E2,-1.7000116E2,-5.53428E2,-1.5579657E2,-1.487369E2,-1.6664214E2,-1.6181194E2],"categories":[],"categories_nodes":[],"categories_segments":[],"categories_sizes":[],"default_left":[0,0,0,0,0,0,0,0,0],"id":20,"left_children":[1,3,5,-1,7,-1,-1,-1,-1],"loss_changes":[9.191014E7,2.199552E6,5.595136E6,0E0,2.1504E5,0E0,0E0,0E0,0E0],"parents":[2147483647,0,0,1,1,2,2,4,4],"right_children":[2,4,6,-1,8,-1,-1,-1,-1],"split_conditions":[5E2,2E2,7E2,-1.7000116E2,3E2,-1.5579657E2,-1.487369E2,-1.6664214E2,-1.6181194E2],"split_indices":[2,2,2,0,2,0,0,0,0],"split_type":[0,0,0,0,0,0,0,0,0],"sum_hessian":[1.328E5,9.0518E4,4.2282E4,7.2626E4,1.7892E4,2.1012E4,2.127E4,1.5585E4,2.307E3],"tree_param":{"num_deleted":"0","num_feature":"3","num_nodes":"9","size_leaf_vector":"1"}},{"base_weights":[4.8885596E2,5.7869747E1,5.504244E2,-2.0817957E2,1.4619244E2,5.523301E2,5.321138E2,-6.8140344E2,-1.7313104E2,1.6813051E2,8.761135E1,4.715083E2,5.5285675E2,4.8265915E2,5.389082E2,-7.1085785E2,-4.3493793E2,-1.328583E2,-4.5393134E2,4.3250937E2,1.5928366E2,-4.4148178E2,1.2850235E2,4.1513278E2,6.369317E2,5.558832E2,5.4665875E2,5.8706274E2,4.2789194E2,5.2577484E2,5.644383E2,-2.5322691E2,-1.8458107E2,4.8783276E2,-2.085739E2,7.180865E1,-6.0660587E1,-1.5844093E2,2.961741E2,6.4721246E2,1.1107552E2,4.57139E1,1.0888118E2,-1.6469801E2,3.079222E2,2.80314E1,6.0798576E1,9.542532E1,1.4485468E2,2.3399695E2,2.7004736E1,1.653536E2,1.7330992E2,9.595442E1,1.6700806E2,1.6703667E2,2.421973E2,7.437939E1,1.4253346E2,1.5409415E2,2.0594315E2,1.8252095E2,1.4653448E2],"categories":[],"categories_nodes":[],"categories_segments":[],"categories_sizes":[],"default_left":[0,0,0,0,0,0,0,0,0,0,0,0,0,0,0,0,0,0,0,0,0,0,0,0,0,0,0,0,0,0,0,0,0,0,0,0,0,0,0,0,0,0,0,0,0,0,0,0,0,0,0,0,0,0,0,0,0,0,0,0,0,0,0],"id":21,"left_children":[1,3,5,7,9,11,13,15,17,19,21,23,25,27,29,31,33,35,37,39,41,43,45,47,49,51,53,55,57,59,61,-1,-1,-1,-1,-1,-1,-1,-1,-1,-1,-1,-1,-1,-1,-1,-1,-1,-1,-1,-1,-1,-1,-1,-1,-1,-1,-1,-1,-1,-1,-1,-1],"loss_changes":[3.5238646E9,3.9012397E8,3.756032E6,6.851405E7,1.600344E7,4.220928E6,3.429632E6,1.759784E6,4.3523024E7,2.1138096E7,7.357296E7,6.15176E6,1.654784E6,7.387936E6,2.9376E6,2.702688E6,1.8835302E7,8.7083496E7,5.2174776E7,3.0665328E7,1.2282528E7,3.9070364E7,8.185192E6,3.237424E6,1.346544E7,6.885376E6,7.801856E7,2.597824E6,7.36016E6,1.2089344E7,1.060416E7,0E0,0E0,0E0,0E0,0E0,0E0,0E0,0E0,0E0,0E0,0E0,0E0,0E0,0E0,0E0,0E0,0E0,0E0,0E0,0E0,0E0,0E0,0E0,0E0,0E0,0E0,0E0,0E0,0E0,0E0,0E0,0E0],"parents":[2147483647,0,0,1,1,2,2,3,3,4,4,5,5,6,6,7,7,8,8,9,9,10,10,11,11,12,12,13,13,14,14,15,15,16,16,17,17,18,18,19,19,20,20,21,21,22,22,23,23,24,24,25,25,26,26,27,27,28,28,29,29,30,30],"right_children":[2,4,6,8,10,12,14,16,18,20,22,24,26,28,30,32,34,36,38,40,42,44,46,48,50,52,54,56,58,60,62,-1,-1,-1,-1,-1,-1,-1,-1,-1,-1,-1,-1,-1,-1,-1,-1,-1,-1,-1,-1,-1,-1,-1,-1,-1,-1,-1,-1,-1,-1,-1,-1],"split_conditions":[9.657E3,2.064E3,1.237E4,2E2,2E2,1.155E4,1.1582E4,2.414E3,2.055E3,6.296E3,6.346E3,2.409E3,3E2,1.1556E4,1.248E4,2.047E3,2.037E3,5E2,1.251E4,2.389E3,6.6E3,6.829E3,1.237E4,6E2,2.416E3,2E2,5E2,1.2555E4,1.1563E4,6E2,6E2,-2.5322691E2,-1.8458107E2,4.8783276E2,-2.085739E2,7.180865E1,-6.0660587E1,-1.5844093E2,2.961741E2,6.4721246E2,1.1107552E2,4.57139E1,1.0888118E2,-1.6469801E2,3.079222E2,2.80314E1,6.0798576E1,9.542532E1,1.4485468E2,2.3399695E2,2.7004736E1,1.653536E2,1.7330992E2,9.595442E1,1.6700806E2,1.6703667E2,2.421973E2,7.437939E1,1.4253346E2,1.5409415E2,2.0594315E2,1.8252095E2,1.4653448E2],"split_indices":[0,0,1,2,2,0,0,1,0,0,0,1,2,0,1,0,0,2,1,1,0,1,1,2,1,2,2,1,0,2,2,0,0,0,0,0,0,0,0,0,0,0,0,0,0,0,0,0,0,0,0,0,0,0,0,0,0,0,0,0,0,0,0],"split_type":[0,0,0,0,0,0,0,0,0,0,0,0,0,0,0,0,0,0,0,0,0,0,0,0,0,0,0,0,0,0,0,0,0,0,0,0,0,0,0,0,0,0,0,0,0,0,0,0,0,0,0,0,0,0,0,0,0,0,0,0,0,0,0],"sum_hessian":[1.328E5,1.66E4,1.162E5,4.137E3,1.2463E4,1.0522E5,1.098E4,2.84E2,3.853E3,9.066E3,3.397E3,6.87E2,1.04533E5,1.335E3,9.645E3,2.52E2,3.2E1,3.371E3,4.82E2,2.92E2,8.774E3,2.43E2,3.154E3,5.15E2,1.72E2,7.0177E4,3.4356E4,4.56E2,8.79E2,6.383E3,3.262E3,1.02E2,1.5E2,3E0,2.9E1,5.29E2,2.842E3,4.59E2,2.3E1,9E0,2.83E2,8.488E3,2.86E2,2.27E2,1.6E1,2.143E3,1.011E3,2.14E2,3.01E2,1.36E2,3.6E1,5.775E4,1.2427E4,1.457E3,3.2899E4,4.04E2,5.2E1,1.84E2,6.95E2,5.939E3,4.44E2,2.062E3,1.2E3],"tree_param":{"num_deleted":"0","num_feature":"3","num_nodes":"63","size_leaf_vector":"1"}},{"base_weights":[-1.0639236E2,-1.900315E2,5.478157E2,-1.9938414E2,1.550096E2,2.571485E2,5.5807324E2,-2.0142715E2,-5.4366318E1,1.8369983E2,-1.7228786E2,-8.7478424E1,3.0278607E2,-1.4792558E2,5.613028E2,-1.6391383E2,-2.044631E2,1.462351E2,-1.4538286E2,4.4276233E2,1.5627995E2,-9.481361E2,-1.0466176E2,2.63252E2,-1.1806019E3,6.2408716E2,1.7234535E2,5.591294E2,-6.391659E2,5.4529987E2,6.5661066E2,-6.459434E1,-1.3216283E0,-6.6208694E1,-6.1084183E1,-1.0532626E2,1.8760811E2,2.0790547E2,-5.7600018E1,7.158656E1,3.980085E2,5.310746E1,3.756656E1,-1.284947E2,-4.003518E2,8.334164E2,-5.0226055E1,-1.5805399E1,8.782971E2,-2.5634708E2,-6.600657E2,4.4793694E1,3.1070596E2,-2.2248325E1,1.0993093E2,-4.633034E1,5.0278482E2,-6.863756E2,1.0098627E2,1.0346809E2,1.6781093E2,1.7077586E2,2.292825E2],"categories":[],"categories_nodes":[],"categories_segments":[],"categories_sizes":[],"default_left":[0,0,0,0,0,0,0,0,0,0,0,0,0,0,0,0,0,0,0,0,0,0,0,0,0,0,0,0,0,0,0,0,0,0,0,0,0,0,0,0,0,0,0,0,0,0,0,0,0,0,0,0,0,0,0,0,0,0,0,0,0,0,0],"id":22,"left_children":[1,3,5,7,9,11,13,15,17,19,21,23,25,27,29,31,33,35,37,39,41,43,45,47,49,51,53,55,57,59,61,-1,-1,-1,-1,-1,-1,-1,-1,-1,-1,-1,-1,-1,-1,-1,-1,-1,-1,-1,-1,-1,-1,-1,-1,-1,-1,-1,-1,-1,-1,-1,-1],"loss_changes":[7.2666286E9,3.8000947E8,4.474061E7,3.3954304E7,2.9216496E7,8.126372E6,3.3234432E7,1.2841472E7,2.9124588E7,2.0232488E7,1.307013E7,2.369769E7,1.8961832E7,2.362875E7,2.1717504E7,6.943491E7,1.396224E6,1.188829E8,4.3008096E7,4.8945296E7,1.643988E6,3.44527E6,4.2437316E7,3.9718056E7,3.10757E6,2.5444996E7,1.5576702E7,2.2572652E7,6.5123396E7,3.4768384E7,1.9090368E7,0E0,0E0,0E0,0E0,0E0,0E0,0E0,0E0,0E0,0E0,0E0,0E0,0E0,0E0,0E0,0E0,0E0,0E0,0E0,0E0,0E0,0E0,0E0,0E0,0E0,0E0,0E0,0E0,0E0,0E0,0E0,0E0],"parents":[2147483647,0,0,1,1,2,2,3,3,4,4,5,5,6,6,7,7,8,8,9,9,10,10,11,11,12,12,13,13,14,14,15,15,16,16,17,17,18,18,19,19,20,20,21,21,22,22,23,23,24,24,25,25,26,26,27,27,28,28,29,29,30,30],"right_children":[2,4,6,8,10,12,14,16,18,20,22,24,26,28,30,32,34,36,38,40,42,44,46,48,50,52,54,56,58,60,62,-1,-1,-1,-1,-1,-1,-1,-1,-1,-1,-1,-1,-1,-1,-1,-1,-1,-1,-1,-1,-1,-1,-1,-1,-1,-1,-1,-1,-1,-1,-1,-1],"split_conditions":[6.829E3,2.46E3,1.237E4,2.436E3,1.157E4,6.405E3,2.032E3,6.6E3,2.441E3,6.673E3,1.162E4,6.346E3,6.528E3,1.2519E4,1.2547E4,6.438E3,1.1577E4,6.492E3,2.037E3,6E2,6.765E3,1.1609E4,1.163E4,6.33E3,6.389E3,6.492E3,9.657E3,1.2502E4,1.2538E4,6.421E3,6E2,-6.459434E1,-1.3216283E0,-6.6208694E1,-6.1084183E1,-1.0532626E2,1.8760811E2,2.0790547E2,-5.7600018E1,7.158656E1,3.980085E2,5.310746E1,3.756656E1,-1.284947E2,-4.003518E2,8.334164E2,-5.0226055E1,-1.5805399E1,8.782971E2,-2.5634708E2,-6.600657E2,4.4793694E1,3.1070596E2,-2.2248325E1,1.0993093E2,-4.633034E1,5.0278482E2,-6.863756E2,1.0098627E2,1.0346809E2,1.6781093E2,1.7077586E2,2.292825E2],"split_indices":[1,1,1,1,0,0,0,0,1,1,0,0,0,1,1,0,0,0,0,2,1,0,0,0,0,0,0,1,1,0,2,0,0,0,0,0,0,0,0,0,0,0,0,0,0,0,0,0,0,0,0,0,0,0,0,0,0,0,0,0,0,0,0],"split_type":[0,0,0,0,0,0,0,0,0,0,0,0,0,0,0,0,0,0,0,0,0,0,0,0,0,0,0,0,0,0,0,0,0,0,0,0,0,0,0,0,0,0,0,0,0,0,0,0,0,0,0,0,0,0,0,0,0,0,0,0,0,0,0],"sum_hessian":[1.328E5,1.17747E5,1.5053E4,1.1464E5,3.107E3,5.14E2,1.4539E4,1.13047E5,1.593E3,2.857E3,2.5E2,6E1,4.54E2,6.6E1,1.4473E4,8.468E3,1.04579E5,4.97E2,1.096E3,2.72E2,2.585E3,1.9E1,2.31E2,4.6E1,1.4E1,1.3E2,3.24E2,2.7E1,3.9E1,1.2398E4,2.075E3,6.404E3,2.064E3,5.186E3,9.9393E4,2.44E2,2.53E2,5.7E1,1.039E3,2.22E2,5E1,1.547E3,1.038E3,9E0,1E1,4E0,2.27E2,4.2E1,4E0,1.2E1,2E0,6.1E1,6.9E1,1.43E2,1.81E2,1.7E1,1E1,1.4E1,2.5E1,8.15E2,1.1583E4,1.149E3,9.26E2],"tree_param":{"num_deleted":"0","num_feature":"3","num_nodes":"63","size_leaf_vector":"1"}},{"base_weights":[-3.8224387E2,-3.948469E2,-3.5525436E2,-1.1900152E2,-3.874179E2,-1.0919949E2,-1.0418277E2,-1.1665269E2,-3.776313E2,-1.11146515E2,-1.16881516E2],"categories":[],"categories_nodes":[],"categories_segments":[],"categories_sizes":[],"default_left":[0,0,0,0,0,0,0,0,0,0,0],"id":23,"left_children":[1,3,5,-1,7,-1,-1,-1,9,-1,-1],"loss_changes":[4.5031424E7,1.073152E6,2.82368E6,0E0,1.02656E5,0E0,0E0,0E0,5.3056E4,0E0,0E0],"parents":[2147483647,0,0,1,1,2,2,4,4,8,8],"right_children":[2,4,6,-1,8,-1,-1,-1,10,-1,-1],"split_conditions":[5E2,2E2,6E2,-1.1900152E2,3E2,-1.0919949E2,-1.0418277E2,-1.1665269E2,4E2,-1.11146515E2,-1.16881516E2],"split_indices":[2,2,2,0,2,0,0,0,2,0,0],"split_type":[0,0,0,0,0,0,0,0,0,0,0],"sum_hessian":[1.328E5,9.0518E4,4.2282E4,7.2626E4,1.7892E4,2.0152E4,2.213E4,1.5585E4,2.307E3,1.465E3,8.42E2],"tree_param":{"num_deleted":"0","num_feature":"3","num_nodes":"11","size_leaf_vector":"1"}},{"base_weights":[3.422261E2,4.0577267E1,3.8531805E2,-1.4572797E2,1.02426636E2,3.8876355E2,3.7846762E2,-1.8196132E2,9.758344E1,1.1779206E2,6.139638E1,3.8578128E2,4.022132E2,2.1585985E2,3.8490707E2,-1.2135972E2,-3.275654E2,7.796961E2,-8.400788E1,2.4646529E2,1.0536171E2,-3.1570218E2,8.97697E1,3.8463504E2,4.047763E2,4.0037555E2,4.637016E2,2.9979266E2,7.1930847E0,3.892381E2,3.4783667E2,1.7447083E1,-7.624972E1,-1.0365762E2,2.0182478E2,5.9897568E1,3.710623E2,3.2445374E2,-4.4180664E1,9.8989555E1,-1.450686E1,2.9996937E1,7.63306E1,-1.8859592E2,1.8131468E1,1.955377E1,4.2577076E1,1.1571974E2,9.8894875E1,1.365161E2,1.1945639E2,-4.2987015E1,1.201638E2,1.3494574E2,1.5214746E2,7.473167E1,2.039943E2,1.7894109E2,-6.280125E1,1.2054619E2,1.13267265E2,8.713156E1,1.1387072E2],"categories":[],"categories_nodes":[],"categories_segments":[],"categories_sizes":[],"default_left":[0,0,0,0,0,0,0,0,0,0,0,0,0,0,0,0,0,0,0,0,0,0,0,0,0,0,0,0,0,0,0,0,0,0,0,0,0,0,0,0,0,0,0,0,0,0,0,0,0,0,0,0,0,0,0,0,0,0,0,0,0,0,0],"id":24,"left_children":[1,3,5,7,9,11,13,15,17,19,21,23,25,27,29,31,33,35,37,39,41,43,45,47,49,51,53,55,57,59,61,-1,-1,-1,-1,-1,-1,-1,-1,-1,-1,-1,-1,-1,-1,-1,-1,-1,-1,-1,-1,-1,-1,-1,-1,-1,-1,-1,-1,-1,-1,-1,-1],"loss_changes":[1.7262193E9,1.9130594E8,2.594816E6,3.6498304E7,7.850664E6,2.944E6,4.0674304E7,3.174372E7,6.65814E7,1.447628E7,3.638537E7,1.221632E6,1.396224E6,2.6006112E7,5.875712E6,6.0689844E7,1.9240128E7,2.971844E7,3.1495362E7,1.9660768E7,6.59728E6,2.8053794E7,4.044696E6,3.474432E6,1.005312E6,1.318144E6,1.3184E4,2.023824E7,5.4608588E7,4.773888E6,7.040512E6,0E0,0E0,0E0,0E0,0E0,0E0,0E0,0E0,0E0,0E0,0E0,0E0,0E0,0E0,0E0,0E0,0E0,0E0,0E0,0E0,0E0,0E0,0E0,0E0,0E0,0E0,0E0,0E0,0E0,0E0,0E0,0E0],"parents":[2147483647,0,0,1,1,2,2,3,3,4,4,5,5,6,6,7,7,8,8,9,9,10,10,11,11,12,12,13,13,14,14,15,15,16,16,17,17,18,18,19,19,20,20,21,21,22,22,23,23,24,24,25,25,26,26,27,27,28,28,29,29,30,30],"right_children":[2,4,6,8,10,12,14,16,18,20,22,24,26,28,30,32,34,36,38,40,42,44,46,48,50,52,54,56,58,60,62,-1,-1,-1,-1,-1,-1,-1,-1,-1,-1,-1,-1,-1,-1,-1,-1,-1,-1,-1,-1,-1,-1,-1,-1,-1,-1,-1,-1,-1,-1,-1,-1],"split_conditions":[9.657E3,2.064E3,3E2,1.2502E4,2E2,2E2,5E2,2.05E3,1.2519E4,6.33E3,6.296E3,1.2416E4,1.1842E4,4E2,1.239E4,7E2,1.2487E4,1.251E4,6E2,2.411E3,6.6E3,5E2,1.237E4,1.239E4,1.1574E4,1.1577E4,2.441E3,1.1668E4,1.1634E4,6E2,1.2494E4,1.7447083E1,-7.624972E1,-1.0365762E2,2.0182478E2,5.9897568E1,3.710623E2,3.2445374E2,-4.4180664E1,9.8989555E1,-1.450686E1,2.9996937E1,7.63306E1,-1.8859592E2,1.8131468E1,1.955377E1,4.2577076E1,1.1571974E2,9.8894875E1,1.365161E2,1.1945639E2,-4.2987015E1,1.201638E2,1.3494574E2,1.5214746E2,7.473167E1,2.039943E2,1.7894109E2,-6.280125E1,1.2054619E2,1.13267265E2,8.713156E1,1.1387072E2],"split_indices":[0,0,2,1,2,2,2,0,1,0,0,1,0,2,1,2,1,1,2,1,0,2,1,1,0,0,1,0,0,2,1,0,0,0,0,0,0,0,0,0,0,0,0,0,0,0,0,0,0,0,0,0,0,0,0,0,0,0,0,0,0,0,0],"split_type":[0,0,0,0,0,0,0,0,0,0,0,0,0,0,0,0,0,0,0,0,0,0,0,0,0,0,0,0,0,0,0,0,0,0,0,0,0,0,0,0,0,0,0,0,0,0,0,0,0,0,0,0,0,0,0,0,0,0,0,0,0,0,0],"sum_hessian":[1.328E5,1.66E4,1.162E5,4.137E3,1.2463E4,7.7277E4,3.8923E4,3.601E3,5.36E2,9.066E3,3.397E3,6.3276E4,1.4001E4,1.484E3,3.7439E4,2.544E3,1.057E3,1.12E2,4.24E2,7.97E2,8.269E3,2.37E2,3.16E3,5.9695E4,3.581E3,1.3602E4,3.99E2,1.058E3,4.26E2,3.3514E4,3.925E3,1.082E3,1.462E3,1.039E3,1.8E1,5E1,6.2E1,2.1E1,4.03E2,6.21E2,1.76E2,7.983E3,2.86E2,1.29E2,1.08E2,2.149E3,1.011E3,5.8521E4,1.174E3,4.07E2,3.174E3,4E0,1.3598E4,3.11E2,8.8E1,9.35E2,1.23E2,1.14E2,3.12E2,1.6118E4,1.7396E4,1.401E3,2.524E3],"tree_param":{"num_deleted":"0","num_feature":"3","num_nodes":"63","size_leaf_vector":"1"}},{"base_weights":[-7.446113E1,-1.3753775E2,3.5118896E2,-1.4100069E2,1.2219635E1,1.3024274E2,3.9068896E2,-4.730249E1,-1.4202417E2,7.951143E1,-1.3570563E2,1.3286316E2,-5.619967E2,3.875187E2,7.9201447E2,-1.9501256E2,2.2167966E2,-1.4376717E2,-8.456957E1,1.1077177E1,4.9356232E2,-6.714536E1,-2.686387E2,1.3004973E2,7.5525214E2,-1.7846683E3,1.0176086E3,3.9135922E2,2.6639776E1,2.6119766E2,6.964183E2,-7.0962654E1,3.10325E2,1.7071716E2,-2.206559E2,-6.900556E1,-4.214577E1,8.4519905E1,-4.873051E1,-2.6448542E1,3.769922E1,3.4061194E2,1.18911766E2,-2.9903193E1,2.4956194E2,-8.68327E1,2.7753815E2,4.0028294E1,-6.261399E2,-8.8200793E2,-2.8967743E2,5.6118915E2,1.01008675E2,6.0743732E1,1.19357864E2,-2.591549E2,1.5632611E2,-2.6727701E1,2.6073547E2],"categories":[],"categories_nodes":[],"categories_segments":[],"categories_sizes":[],"default_left":[0,0,0,0,0,0,0,0,0,0,0,0,0,0,0,0,0,0,0,0,0,0,0,0,0,0,0,0,0,0,0,0,0,0,0,0,0,0,0,0,0,0,0,0,0,0,0,0,0,0,0,0,0,0,0,0,0,0,0],"id":25,"left_children":[1,3,5,7,9,11,13,15,17,19,21,23,25,27,29,31,33,35,37,39,41,43,45,47,-1,49,51,53,55,-1,57,-1,-1,-1,-1,-1,-1,-1,-1,-1,-1,-1,-1,-1,-1,-1,-1,-1,-1,-1,-1,-1,-1,-1,-1,-1,-1,-1,-1],"loss_changes":[3.5655654E9,5.998413E7,1.4953626E8,1.0834176E7,2.604091E7,4.792792E6,1.8192384E7,4.8634696E7,1.1186432E7,5.0941336E7,7.437154E6,1.7062424E7,2.112948E7,1.998592E7,2.43208E5,4.058027E7,1.447277E8,3.0683648E7,9.402681E7,1.7568654E7,1.545622E7,1.5905448E7,7.171802E6,1.9676204E7,0E0,2.839098E6,2.274335E6,1.7447168E7,6.7816056E7,0E0,7.67426E6,0E0,0E0,0E0,0E0,0E0,0E0,0E0,0E0,0E0,0E0,0E0,0E0,0E0,0E0,0E0,0E0,0E0,0E0,0E0,0E0,0E0,0E0,0E0,0E0,0E0,0E0,0E0,0E0],"parents":[2147483647,0,0,1,1,2,2,3,3,4,4,5,5,6,6,7,7,8,8,9,9,10,10,11,11,12,12,13,13,14,14,15,15,16,16,17,17,18,18,19,19,20,20,21,21,22,22,23,23,25,25,26,26,27,27,28,28,30,30],"right_children":[2,4,6,8,10,12,14,16,18,20,22,24,26,28,30,32,34,36,38,40,42,44,46,48,-1,50,52,54,56,-1,58,-1,-1,-1,-1,-1,-1,-1,-1,-1,-1,-1,-1,-1,-1,-1,-1,-1,-1,-1,-1,-1,-1,-1,-1,-1,-1,-1,-1],"split_conditions":[6.725E3,2.436E3,1.237E4,2.047E3,6.578E3,1.1726E4,1.1767E4,7E2,2.42E3,6.545E3,1.1706E4,1.1724E4,1.1739E4,1.1739E4,1.2502E4,2.42E3,2.418E3,6.405E3,6.469E3,3E2,2.441E3,1.1703E4,3E2,1.1722E4,7.5525214E2,1.1732E4,1.1743E4,2.044E3,1.2435E4,2.6119766E2,1.251E4,-7.0962654E1,3.10325E2,1.7071716E2,-2.206559E2,-6.900556E1,-4.214577E1,8.4519905E1,-4.873051E1,-2.6448542E1,3.769922E1,3.4061194E2,1.18911766E2,-2.9903193E1,2.4956194E2,-8.68327E1,2.7753815E2,4.0028294E1,-6.261399E2,-8.8200793E2,-2.8967743E2,5.6118915E2,1.01008675E2,6.0743732E1,1.19357864E2,-2.591549E2,1.5632611E2,-2.6727701E1,2.6073547E2],"split_indices":[1,1,1,0,0,0,0,2,1,0,0,0,0,0,1,1,1,0,0,2,1,0,2,0,0,0,0,0,1,0,1,0,0,0,0,0,0,0,0,0,0,0,0,0,0,0,0,0,0,0,0,0,0,0,0,0,0,0,0],"split_type":[0,0,0,0,0,0,0,0,0,0,0,0,0,0,0,0,0,0,0,0,0,0,0,0,0,0,0,0,0,0,0,0,0,0,0,0,0,0,0,0,0,0,0,0,0,0,0,0,0,0,0,0,0,0,0,0,0,0,0],"sum_hessian":[1.328E5,1.15661E5,1.7139E4,1.13047E5,2.614E3,2.6E3,1.4539E4,1.222E3,1.11825E5,1.797E3,8.17E2,2.591E3,9E0,1.4427E4,1.12E2,7.89E2,4.33E2,1.08531E5,3.294E3,1.543E3,2.54E2,5.4E2,2.77E2,2.589E3,2E0,5E0,4E0,1.4275E4,1.52E2,5.7E1,5.5E1,7.64E2,2.5E1,3.18E2,1.15E2,3.975E3,1.04556E5,5.77E2,2.717E3,8.27E2,7.16E2,3.2E1,2.22E2,5.22E2,1.8E1,2.73E2,4E0,2.586E3,3E0,1E0,4E0,1E0,3E0,4.76E2,1.3799E4,5.4E1,9.8E1,1E1,4.5E1],"tree_param":{"num_deleted":"0","num_feature":"3","num_nodes":"59","size_leaf_vector":"1"}},{"base_weights":[-2.675758E2,-2.7639795E2,-2.4868309E2,-8.330156E1,-2.7121182E2,-7.644126E1,-7.292935E1,-8.165913E1,-2.644407E2,-7.782531E1,-8.185865E1],"categories":[],"categories_nodes":[],"categories_segments":[],"categories_sizes":[],"default_left":[0,0,0,0,0,0,0,0,0,0,0],"id":26,"left_children":[1,3,5,-1,7,-1,-1,-1,9,-1,-1],"loss_changes":[2.2065152E7,5.23264E5,1.38368E6,0E0,4.736E4,0E0,0E0,0E0,2.6848E4,0E0,0E0],"parents":[2147483647,0,0,1,1,2,2,4,4,8,8],"right_children":[2,4,6,-1,8,-1,-1,-1,10,-1,-1],"split_conditions":[5E2,2E2,6E2,-8.330156E1,3E2,-7.644126E1,-7.292935E1,-8.165913E1,4E2,-7.782531E1,-8.185865E1],"split_indices":[2,2,2,0,2,0,0,0,2,0,0],"split_type":[0,0,0,0,0,0,0,0,0,0,0],"sum_hessian":[1.328E5,9.0518E4,4.2282E4,7.2626E4,1.7892E4,2.0152E4,2.213E4,1.5585E4,2.307E3,1.465E3,8.42E2],"tree_param":{"num_deleted":"0","num_feature":"3","num_nodes":"11","size_leaf_vector":"1"}},{"base_weights":[2.3957704E2,2.8454214E1,2.6973694E2,-1.0182814E2,7.170517E1,2.6194238E2,2.7154727E2,-4.4180844E2,-7.666046E1,8.125867E1,3.4805548E0,2.711552E2,2.459391E2,2.7125638E2,3.2297534E2,-5.317709E2,-9.721922E1,-8.534467E1,5.1383923E2,6.414145E1,2.1965138E2,-5.762863E-1,6.209894E2,2.751504E2,2.4400711E2,8.0289474E1,2.54119E2,2.6974826E2,2.8083942E2,9.460912E1,1.07016075E2,-2.0019725E2,-1.3245226E2,-1.878448E1,-7.2714294E1,1.7238458E2,-4.2432645E2,2.2653017E1,-3.374446E0,-2.6207182E1,1.3605582E2,-1.1748167E1,9.178169E0,5.169476E2,-7.575373E2,8.094859E1,9.104956E1,5.517348E1,8.3781815E1,1.391193E2,-6.136713E-1,6.3630165E1,7.8977684E1,8.1464424E1,-1.262648E2,8.557402E1,5.0422695E1],"categories":[],"categories_nodes":[],"categories_segments":[],"categories_sizes":[],"default_left":[0,0,0,0,0,0,0,0,0,0,0,0,0,0,0,0,0,0,0,0,0,0,0,0,0,0,0,0,0,0,0,0,0,0,0,0,0,0,0,0,0,0,0,0,0,0,0,0,0,0,0,0,0,0,0,0,0],"id":27,"left_children":[1,3,5,7,9,11,13,15,17,19,21,23,25,27,29,31,-1,33,35,37,39,41,43,45,47,49,51,53,55,-1,-1,-1,-1,-1,-1,-1,-1,-1,-1,-1,-1,-1,-1,-1,-1,-1,-1,-1,-1,-1,-1,-1,-1,-1,-1,-1,-1],"loss_changes":[8.455946E8,9.355122E7,1.56928E6,3.5372988E7,8.123548E6,3.166592E6,1.322496E6,2.846556E6,1.9807258E7,2.5885088E7,3.8382252E6,1.441344E6,1.0850752E7,1.278976E6,2.2352E4,1.663048E6,0E0,1.3544956E7,7.375503E6,8.341048E6,8.641442E7,1.8328778E6,3.9026676E7,1.745984E6,3.748544E6,1.1966234E7,2.880192E6,1.0083021E8,6.2752E6,0E0,0E0,0E0,0E0,0E0,0E0,0E0,0E0,0E0,0E0,0E0,0E0,0E0,0E0,0E0,0E0,0E0,0E0,0E0,0E0,0E0,0E0,0E0,0E0,0E0,0E0,0E0,0E0],"parents":[2147483647,0,0,1,1,2,2,3,3,4,4,5,5,6,6,7,7,8,8,9,9,10,10,11,11,12,12,13,13,14,14,15,15,17,17,18,18,19,19,20,20,21,21,22,22,23,23,24,24,25,25,26,26,27,27,28,28],"right_children":[2,4,6,8,10,12,14,16,18,20,22,24,26,28,30,32,-1,34,36,38,40,42,44,46,48,50,52,54,56,-1,-1,-1,-1,-1,-1,-1,-1,-1,-1,-1,-1,-1,-1,-1,-1,-1,-1,-1,-1,-1,-1,-1,-1,-1,-1,-1,-1],"split_conditions":[9.657E3,2.064E3,1.1605E4,2E2,1.2494E4,3E2,1.1842E4,2.05E3,1.2579E4,1.237E4,6E2,2.424E3,4E2,7E2,2.441E3,2.402E3,-9.721922E1,2.055E3,1.2614E4,3E2,6.481E3,6.52E3,1.2555E4,2.411E3,1.2416E4,2.396E3,7E2,6E2,1.2538E4,9.460912E1,1.07016075E2,-2.0019725E2,-1.3245226E2,-1.878448E1,-7.2714294E1,1.7238458E2,-4.2432645E2,2.2653017E1,-3.374446E0,-2.6207182E1,1.3605582E2,-1.1748167E1,9.178169E0,5.169476E2,-7.575373E2,8.094859E1,9.104956E1,5.517348E1,8.3781815E1,1.391193E2,-6.136713E-1,6.3630165E1,7.8977684E1,8.1464424E1,-1.262648E2,8.557402E1,5.0422695E1],"split_indices":[0,0,0,2,1,2,0,0,1,1,2,1,2,2,1,1,0,0,1,2,0,0,1,1,1,1,2,2,1,0,0,0,0,0,0,0,0,0,0,0,0,0,0,0,0,0,0,0,0,0,0,0,0,0,0,0,0],"split_type":[0,0,0,0,0,0,0,0,0,0,0,0,0,0,0,0,0,0,0,0,0,0,0,0,0,0,0,0,0,0,0,0,0,0,0,0,0,0,0,0,0,0,0,0,0,0,0,0,0,0,0,0,0,0,0,0,0],"sum_hessian":[1.328E5,1.66E4,1.162E5,4.137E3,1.2463E4,2.1929E4,9.4271E4,2.84E2,3.853E3,1.0932E4,1.531E3,1.3907E4,8.022E3,9.3747E4,5.24E2,1.59E2,1.25E2,3.798E3,5.5E1,9.73E3,1.202E3,1.522E3,9E0,1.2115E4,1.792E3,3.78E2,7.644E3,8.1025E4,1.2722E4,4.36E2,8.8E1,6.1E1,9.8E1,3.319E3,4.79E2,5.4E1,1E0,8.455E3,1.275E3,5.2E2,6.82E2,6.8E2,8.42E2,7E0,2E0,1.0209E4,1.906E3,6.65E2,1.127E3,6.6E1,3.12E2,1.37E3,6.274E3,8.0815E4,2.1E2,1.2242E4,4.8E2],"tree_param":{"num_deleted":"0","num_feature":"3","num_nodes":"57","size_leaf_vector":"1"}},{"base_weights":[-5.2113514E1,-9.7913315E1,2.3699979E2,-6.756537E1,-1.0076622E2,9.0320946E1,2.7352206E2,-1.08399506E2,7.000831E1,-1.00601166E2,-1.824818E2,1.09162865E2,-5.6344635E1,-1.6530988E2,2.7553452E2,-1.5476009E2,5.9234333E1,-3.8379579E0,3.5755252E2,-1.0025264E2,-1.3883894E2,-3.145968E2,-1.2889845E1,9.5661194E1,2.0613296E3,-2.1663945E3,2.8623058E1,5.0862265E2,-3.4271313E2,2.6424527E2,3.4282727E2,-5.5818012E1,1.0953341E1,-2.2289871E1,6.925159E1,-3.28716E1,2.7448374E1,1.85633E2,-7.942485E1,-3.137473E1,-2.898171E1,-3.802869E1,-1.2456278E2,-7.815585E1,-2.4508133E2,6.610117E1,-3.6604095E1,8.922183E1,2.3069527E1,-1.977847E2,8.107611E2,-3.7473907E2,-8.22309E2,7.152153E2,3.2119884E0,-2.1046295E2,5.4333244E1,8.677377E1,6.0924927E1,2.0763335E2,9.805025E1],"categories":[],"categories_nodes":[],"categories_segments":[],"categories_sizes":[],"default_left":[0,0,0,0,0,0,0,0,0,0,0,0,0,0,0,0,0,0,0,0,0,0,0,0,0,0,0,0,0,0,0,0,0,0,0,0,0,0,0,0,0,0,0,0,0,0,0,0,0,0,0,0,0,0,0,0,0,0,0,0,0],"id":28,"left_children":[1,3,5,7,9,11,13,15,17,19,21,23,25,27,29,31,33,35,37,39,41,43,45,47,49,51,53,-1,55,57,59,-1,-1,-1,-1,-1,-1,-1,-1,-1,-1,-1,-1,-1,-1,-1,-1,-1,-1,-1,-1,-1,-1,-1,-1,-1,-1,-1,-1,-1,-1],"loss_changes":[1.7584852E9,9.91872E6,9.726451E7,5.5364428E7,1.394944E6,1.0015408E7,1.2886144E7,5.9065576E7,4.7905428E7,1.379776E6,4.7011295E6,8.441043E7,7.410715E7,2.2697576E7,1.0905216E7,3.564608E7,3.775814E7,1.8113518E7,7.510411E7,1.626368E6,3.09141E6,2.99267E6,2.3937922E6,1.2048434E7,4.016021E7,5.009576E6,1.6770415E7,0E0,1.178081E7,1.890048E7,1.1370624E7,0E0,0E0,0E0,0E0,0E0,0E0,0E0,0E0,0E0,0E0,0E0,0E0,0E0,0E0,0E0,0E0,0E0,0E0,0E0,0E0,0E0,0E0,0E0,0E0,0E0,0E0,0E0,0E0,0E0,0E0],"parents":[2147483647,0,0,1,1,2,2,3,3,4,4,5,5,6,6,7,7,8,8,9,9,10,10,11,11,12,12,13,13,14,14,15,15,16,16,17,17,18,18,19,19,20,20,21,21,22,22,23,23,24,24,25,25,26,26,28,28,29,29,30,30],"right_children":[2,4,6,8,10,12,14,16,18,20,22,24,26,28,30,32,34,36,38,40,42,44,46,48,50,52,54,-1,56,58,60,-1,-1,-1,-1,-1,-1,-1,-1,-1,-1,-1,-1,-1,-1,-1,-1,-1,-1,-1,-1,-1,-1,-1,-1,-1,-1,-1,-1,-1,-1],"split_conditions":[2.46E3,9.657E3,1.237E4,5E2,2.448E3,1.1594E4,2.032E3,6.502E3,6.405E3,1.1767E4,1.1706E4,9.657E3,1.1608E4,1.2494E4,1.2547E4,2.418E3,2.414E3,7E2,6.511E3,2.402E3,2.426E3,1.1703E4,1.172E4,6.673E3,6.673E3,1.16E4,1.1609E4,5.0862265E2,1.2538E4,1.2487E4,2.041E3,-5.5818012E1,1.0953341E1,-2.2289871E1,6.925159E1,-3.28716E1,2.7448374E1,1.85633E2,-7.942485E1,-3.137473E1,-2.898171E1,-3.802869E1,-1.2456278E2,-7.815585E1,-2.4508133E2,6.610117E1,-3.6604095E1,8.922183E1,2.3069527E1,-1.977847E2,8.107611E2,-3.7473907E2,-8.22309E2,7.152153E2,3.2119884E0,-2.1046295E2,5.4333244E1,8.677377E1,6.0924927E1,2.0763335E2,9.805025E1],"split_indices":[1,0,1,2,1,0,0,0,0,0,0,0,0,1,1,1,1,2,0,1,1,0,0,1,1,0,0,0,1,1,0,0,0,0,0,0,0,0,0,0,0,0,0,0,0,0,0,0,0,0,0,0,0,0,0,0,0,0,0,0,0],"split_type":[0,0,0,0,0,0,0,0,0,0,0,0,0,0,0,0,0,0,0,0,0,0,0,0,0,0,0,0,0,0,0,0,0,0,0,0,0,0,0,0,0,0,0,0,0,0,0,0,0,0,0,0,0,0,0,0,0,0,0,0,0],"sum_hessian":[1.328E5,1.1464E5,1.816E4,9.853E3,1.04787E5,3.621E3,1.4539E4,7.598E3,2.255E3,1.04578E5,2.09E2,3.209E3,4.12E2,6.6E1,1.4473E4,5.952E3,1.646E3,1.795E3,4.6E2,1.03637E5,9.41E2,1.17E2,9.2E1,3.188E3,2.1E1,1.5E1,3.97E2,5E0,6.1E1,1.2398E4,2.075E3,5.115E3,8.37E2,9.26E2,7.2E2,8.51E2,9.44E2,3.24E2,1.36E2,4.737E4,5.6267E4,9.03E2,3.8E1,1.07E2,1E1,2.9E1,6.3E1,2.7E2,2.918E3,4E0,1.7E1,7E0,8E0,2E0,3.95E2,3.6E1,2.5E1,8.798E3,3.6E3,8.9E1,1.986E3],"tree_param":{"num_deleted":"0","num_feature":"3","num_nodes":"61","size_leaf_vector":"1"}},{"base_weights":[-1.8730661E2,-1.9348213E2,-1.740817E2,-5.8311428E1,-1.8986176E2,-5.347494E1,-5.0986797E1,-5.716296E1,-1.8517767E2,-5.766293E1,-1.8094621E2,-4.956119E1,-5.4906067E1],"categories":[],"categories_nodes":[],"categories_segments":[],"categories_sizes":[],"default_left":[0,0,0,0,0,0,0,0,0,0,0,0,0],"id":29,"left_children":[1,3,5,-1,7,-1,-1,-1,9,-1,11,-1,-1],"loss_changes":[1.0811904E7,2.54464E5,6.96832E5,0E0,2.1824E4,0E0,0E0,0E0,3.3896E4,0E0,1.7368E4,0E0,0E0],"parents":[2147483647,0,0,1,1,2,2,4,4,8,8,10,10],"right_children":[2,4,6,-1,8,-1,-1,-1,10,-1,12,-1,-1],"split_conditions":[5E2,2E2,7E2,-5.8311428E1,3E2,-5.347494E1,-5.0986797E1,-5.716296E1,1.155E4,-5.766293E1,1.1585E4,-4.956119E1,-5.4906067E1],"split_indices":[2,2,2,0,2,0,0,0,0,0,0,0,0],"split_type":[0,0,0,0,0,0,0,0,0,0,0,0,0],"sum_hessian":[1.328E5,9.0518E4,4.2282E4,7.2626E4,1.7892E4,2.1012E4,2.127E4,1.5585E4,2.307E3,8.5E2,1.457E3,1.79E2,1.278E3],"tree_param":{"num_deleted":"0","num_feature":"3","num_nodes":"13","size_leaf_vector":"1"}},{"base_weights":[1.6770367E2,1.986458E1,1.8882318E2,-7.146662E1,5.0184593E1,1.4178145E2,1.8902933E2,-3.1077426E2,-5.3751488E1,5.831736E1,1.9700764E0,-2.4542249E2,1.6304478E2,1.9028462E2,1.8268875E2,-2.0088744E2,-2.8835803E2,1.0119894E1,-1.0203064E2,4.490116E1,1.9788388E2,7.102743E2,-6.7902737E0,2.2130777E2,-1.2034728E3,9.715668E1,2.1968968E2,1.8948526E2,2.674075E2,-2.8708746E2,1.9260121E2,5.257996E1,-9.150498E1,4.0249405E1,-6.3990993E1,-4.7511993E1,2.1667076E1,3.5441525E1,1.115567E1,-4.3062714E1,1.3978677E2,4.903485E2,-2.418965E2,-2.9309826E0,3.9536395E2,2.1797668E2,-1.6928325E2,-7.8104376E2,1.3116844E2,5.160021E1,-8.0273724E2,2.1628575E2,5.178874E1,5.7374397E1,5.087326E1,1.09596466E2,7.432852E1,1.5515173E2,-1.486617E2,5.904974E1,3.511939E1],"categories":[],"categories_nodes":[],"categories_segments":[],"categories_sizes":[],"default_left":[0,0,0,0,0,0,0,0,0,0,0,0,0,0,0,0,0,0,0,0,0,0,0,0,0,0,0,0,0,0,0,0,0,0,0,0,0,0,0,0,0,0,0,0,0,0,0,0,0,0,0,0,0,0,0,0,0,0,0,0,0],"id":30,"left_children":[1,3,5,7,9,11,13,15,17,19,21,23,25,27,29,-1,31,33,35,37,39,41,43,45,47,49,51,53,55,57,59,-1,-1,-1,-1,-1,-1,-1,-1,-1,-1,-1,-1,-1,-1,-1,-1,-1,-1,-1,-1,-1,-1,-1,-1,-1,-1,-1,-1,-1,-1],"loss_changes":[4.1463936E8,4.5974468E7,1.100032E6,1.7525798E7,4.887236E6,4.247206E6,8.86016E5,2.09947E6,1.1885443E7,1.9960812E7,1.1173811E7,1.2339417E7,1.788785E6,5.901312E6,8.920198E7,0E0,2.138756E6,4.6034656E7,2.1561834E7,5.494296E6,8.564446E7,3.2154656E7,7.034725E6,7.9518845E6,2.1811244E7,4.7363948E7,6.008864E6,3.320832E6,1.81E6,6.664535E7,5.969472E6,0E0,0E0,0E0,0E0,0E0,0E0,0E0,0E0,0E0,0E0,0E0,0E0,0E0,0E0,0E0,0E0,0E0,0E0,0E0,0E0,0E0,0E0,0E0,0E0,0E0,0E0,0E0,0E0,0E0,0E0],"parents":[2147483647,0,0,1,1,2,2,3,3,4,4,5,5,6,6,7,7,8,8,9,9,10,10,11,11,12,12,13,13,14,14,16,16,17,17,18,18,19,19,20,20,21,21,22,22,23,23,24,24,25,25,26,26,27,27,28,28,29,29,30,30],"right_children":[2,4,6,8,10,12,14,16,18,20,22,24,26,28,30,-1,32,34,36,38,40,42,44,46,48,50,52,54,56,58,60,-1,-1,-1,-1,-1,-1,-1,-1,-1,-1,-1,-1,-1,-1,-1,-1,-1,-1,-1,-1,-1,-1,-1,-1,-1,-1,-1,-1,-1,-1],"split_conditions":[9.657E3,2.064E3,1.1541E4,2E2,1.248E4,2.391E3,6E2,2.032E3,2.416E3,1.237E4,6.405E3,2.389E3,6E2,1.2519E4,7E2,-2.0088744E2,2.037E3,2.05E3,1.2502E4,2.395E3,6.469E3,1.251E4,6E2,2E2,6E2,4E2,7E2,1.237E4,1.1622E4,1.1579E4,1.2528E4,5.257996E1,-9.150498E1,4.0249405E1,-6.3990993E1,-4.7511993E1,2.1667076E1,3.5441525E1,1.115567E1,-4.3062714E1,1.3978677E2,4.903485E2,-2.418965E2,-2.9309826E0,3.9536395E2,2.1797668E2,-1.6928325E2,-7.8104376E2,1.3116844E2,5.160021E1,-8.0273724E2,2.1628575E2,5.178874E1,5.7374397E1,5.087326E1,1.09596466E2,7.432852E1,1.5515173E2,-1.486617E2,5.904974E1,3.511939E1],"split_indices":[0,0,0,2,1,1,2,0,1,1,0,1,2,1,2,0,0,0,1,1,0,1,2,2,2,2,2,1,0,0,1,0,0,0,0,0,0,0,0,0,0,0,0,0,0,0,0,0,0,0,0,0,0,0,0,0,0,0,0,0,0],"split_type":[0,0,0,0,0,0,0,0,0,0,0,0,0,0,0,0,0,0,0,0,0,0,0,0,0,0,0,0,0,0,0,0,0,0,0,0,0,0,0,0,0,0,0,0,0,0,0,0,0,0,0,0,0,0,0,0,0,0,0,0,0],"sum_hessian":[1.328E5,1.66E4,1.162E5,4.137E3,1.2463E4,5.1E2,1.1569E5,2.84E2,3.853E3,1.0664E4,1.799E3,2.6E1,4.84E2,9.6547E4,1.9143E4,1.5E1,2.69E2,1.659E3,2.194E3,9.73E3,9.34E2,2.1E1,1.778E3,1.8E1,8E0,2.25E2,2.59E2,9.556E4,9.87E2,3.95E2,1.8748E4,9E0,2.6E2,1.067E3,5.92E2,1.658E3,5.36E2,9.26E2,8.804E3,4.11E2,5.23E2,1.3E1,8E0,1.775E3,3E0,1.1E1,7E0,4E0,4E0,2.2E2,5E0,2.1E1,2.38E2,8.7779E4,7.781E3,1.62E2,8.25E2,8.1E1,3.14E2,1.7752E4,9.96E2],"tree_param":{"num_deleted":"0","num_feature":"3","num_nodes":"61","size_leaf_vector":"1"}},{"base_weights":[-3.6474606E1,-6.528543E1,1.888777E2,-6.854292E1,5.489055E1,1.376454E2,2.0672919E2,-7.310264E1,-5.8372448E1,6.318364E1,-2.271322E2,1.0899467E2,2.622661E2,3.8109167E2,1.8529454E2,-7.173259E1,-2.1877141E2,6.421074E1,-6.615772E1,6.025288E1,1.3366719E3,-2.719682E2,5.577655E2,-1.8429735E3,1.3265787E2,9.3962964E2,1.2947707E2,1.0369358E3,3.5540298E2,2.0656636E2,8.248019E1,-2.1809036E1,4.8699203E1,-2.018759E2,-2.566915E1,1.1124731E1,3.3645447E2,-2.0946472E2,-1.9391102E1,1.9115913E1,-2.0652866E2,-1.25152336E2,1.6226118E1,-6.900024E2,4.9003647E2,1.5026904E2,3.519032E1,5.812931E1,3.821447E2,-1.3979947E2,7.0496155E1,8.247061E1,1.44971E2,4.6374603E1,8.165267E1,-2.1033754E1,7.8989265E1],"categories":[],"categories_nodes":[],"categories_segments":[],"categories_sizes":[],"default_left":[0,0,0,0,0,0,0,0,0,0,0,0,0,0,0,0,0,0,0,0,0,0,0,0,0,0,0,0,0,0,0,0,0,0,0,0,0,0,0,0,0,0,0,0,0,0,0,0,0,0,0,0,0,0,0,0,0],"id":31,"left_children":[1,3,5,7,9,11,13,15,17,19,21,23,25,27,29,31,33,35,37,39,-1,41,-1,43,45,47,49,-1,51,53,55,-1,-1,-1,-1,-1,-1,-1,-1,-1,-1,-1,-1,-1,-1,-1,-1,-1,-1,-1,-1,-1,-1,-1,-1,-1,-1],"loss_changes":[8.6223424E8,4.609875E7,1.373952E7,5.312128E6,7.283465E6,1.387128E7,4.164624E7,1.5780544E7,3.3875816E7,3.8608104E7,8.831032E6,1.465276E8,6.5269412E7,9.523304E7,2.1726592E7,1.7708416E7,4.4527956E7,6.076609E7,3.20324E7,7.879837E6,0E0,4.1889455E6,0E0,6.413315E7,1.7641296E7,2.941484E7,3.8372164E7,0E0,1.2339536E7,2.8051488E7,4.70894E7,0E0,0E0,0E0,0E0,0E0,0E0,0E0,0E0,0E0,0E0,0E0,0E0,0E0,0E0,0E0,0E0,0E0,0E0,0E0,0E0,0E0,0E0,0E0,0E0,0E0,0E0],"parents":[2147483647,0,0,1,1,2,2,3,3,4,4,5,5,6,6,7,7,8,8,9,9,10,10,11,11,12,12,13,13,14,14,15,15,16,16,17,17,18,18,19,19,21,21,23,23,24,24,25,25,26,26,28,28,29,29,30,30],"right_children":[2,4,6,8,10,12,14,16,18,20,22,24,26,28,30,32,34,36,38,40,-1,42,-1,44,46,48,50,-1,52,54,56,-1,-1,-1,-1,-1,-1,-1,-1,-1,-1,-1,-1,-1,-1,-1,-1,-1,-1,-1,-1,-1,-1,-1,-1,-1,-1],"split_conditions":[6.829E3,2.46E3,9.657E3,5E2,1.1706E4,6E2,1.1579E4,2.441E3,6.511E3,1.1705E4,1.1842E4,2.044E3,1.2487E4,1.237E4,6E2,2.436E3,6.52E3,6.502E3,6.545E3,1.1697E4,1.3366719E3,1.1739E4,5.577655E2,1.2472E4,6.296E3,1.2448E4,1.2502E4,1.0369358E3,1.248E4,2E2,1.2528E4,-2.1809036E1,4.8699203E1,-2.018759E2,-2.566915E1,1.1124731E1,3.3645447E2,-2.0946472E2,-1.9391102E1,1.9115913E1,-2.0652866E2,-1.25152336E2,1.6226118E1,-6.900024E2,4.9003647E2,1.5026904E2,3.519032E1,5.812931E1,3.821447E2,-1.3979947E2,7.0496155E1,8.247061E1,1.44971E2,4.6374603E1,8.165267E1,-2.1033754E1,7.8989265E1],"split_indices":[1,1,0,2,0,2,0,1,0,0,0,0,1,1,2,1,0,0,0,0,0,0,0,1,0,1,1,0,1,2,1,0,0,0,0,0,0,0,0,0,0,0,0,0,0,0,0,0,0,0,0,0,0,0,0,0,0],"split_type":[0,0,0,0,0,0,0,0,0,0,0,0,0,0,0,0,0,0,0,0,0,0,0,0,0,0,0,0,0,0,0,0,0,0,0,0,0,0,0,0,0,0,0,0,0,0,0,0,0,0,0,0,0,0,0,0,0],"sum_hessian":[1.328E5,1.17747E5,1.5053E4,1.1464E5,3.107E3,3.892E3,1.1161E4,7.9149E4,3.5491E4,3.019E3,8.8E1,3.166E3,7.26E2,1.22E3,9.941E3,7.8413E4,7.36E2,2.119E3,3.3372E4,3.018E3,1E0,8.7E1,1E0,3.7E1,3.129E3,1.18E2,6.08E2,9E0,1.211E3,8.236E3,1.705E3,7.8092E4,3.21E2,1.66E2,5.7E2,2.067E3,5.2E1,7.9E1,3.3293E4,3.005E3,1.3E1,6E1,2.7E1,3.3E1,4E0,1.24E2,3.005E3,3.7E1,8.1E1,9.1E1,5.17E2,7.45E2,4.66E2,4.597E3,3.639E3,9.25E2,7.8E2],"tree_param":{"num_deleted":"0","num_feature":"3","num_nodes":"57","size_leaf_vector":"1"}},{"base_weights":[-1.3111751E2,-1.3544055E2,-1.21859665E2,-4.0818237E1,-1.3291548E2,-3.743323E1,-3.5691467E1,-4.0015175E1,-1.2969463E2,-3.7972E1,-4.049064E1],"categories":[],"categories_nodes":[],"categories_segments":[],"categories_sizes":[],"default_left":[0,0,0,0,0,0,0,0,0,0,0],"id":32,"left_children":[1,3,5,-1,7,-1,-1,-1,9,-1,-1],"loss_changes":[5.298176E6,1.23776E5,3.41504E5,0E0,9.696E3,0E0,0E0,0E0,2.0916E4,0E0,0E0],"parents":[2147483647,0,0,1,1,2,2,4,4,8,8],"right_children":[2,4,6,-1,8,-1,-1,-1,10,-1,-1],"split_conditions":[5E2,2E2,7E2,-4.0818237E1,3E2,-3.743323E1,-3.5691467E1,-4.0015175E1,4E2,-3.7972E1,-4.049064E1],"split_indices":[2,2,2,0,2,0,0,0,2,0,0],"split_type":[0,0,0,0,0,0,0,0,0,0,0],"sum_hessian":[1.328E5,9.0518E4,4.2282E4,7.2626E4,1.7892E4,2.1012E4,2.127E4,1.5585E4,2.307E3,1.465E3,8.42E2],"tree_param":{"num_deleted":"0","num_feature":"3","num_nodes":"11","size_leaf_vector":"1"}},{"base_weights":[1.17391335E2,1.3934972E1,1.3217056E2,-5.0096603E1,3.519209E1,1.21254166E2,1.3298915E2,-5.8329067E1,2.3333125E2,6.3500164E1,2.348482E1,1.1937957E2,3.1802045E2,1.7906865E2,1.3280386E2,-4.3967587E1,-3.004916E2,6.909446E2,3.7550568E1,3.8992664E1,3.8924893E2,-1.3376697E1,3.849742E1,1.25146935E2,6.50845E0,4.3718027E2,-6.1763367E2,1.6764095E2,3.032487E2,1.3254146E2,1.5894214E2,-1.866908E1,1.2301234E2,3.0329645E2,-1.0985789E2,4.235481E2,9.051422E1,-4.906486E1,1.04161125E2,1.9337456E1,-8.871693E1,2.778331E2,7.3141365E1,1.0903481E1,-5.8105038E1,1.8081577E1,-6.1386013E0,2.162578E1,3.9591152E1,1.2466458E1,-2.4590381E2,1.0153484E2,1.4818298E2,-4.5491113E2,1.21388916E2,5.8802208E1,3.7637196E1,7.639082E1,1.1256097E2,4.1854507E1,3.943833E1,5.6117687E1,4.5107407E1],"categories":[],"categories_nodes":[],"categories_segments":[],"categories_sizes":[],"default_left":[0,0,0,0,0,0,0,0,0,0,0,0,0,0,0,0,0,0,0,0,0,0,0,0,0,0,0,0,0,0,0,0,0,0,0,0,0,0,0,0,0,0,0,0,0,0,0,0,0,0,0,0,0,0,0,0,0,0,0,0,0,0,0],"id":33,"left_children":[1,3,5,7,9,11,13,15,17,19,21,23,25,27,29,31,33,35,37,39,41,43,45,47,49,51,53,55,57,59,61,-1,-1,-1,-1,-1,-1,-1,-1,-1,-1,-1,-1,-1,-1,-1,-1,-1,-1,-1,-1,-1,-1,-1,-1,-1,-1,-1,-1,-1,-1,-1,-1],"loss_changes":[2.0305165E8,2.2597828E7,1.022208E6,9.668843E6,4.129206E6,2.95604E6,8.98944E5,1.397455E7,1.04563E7,2.9091888E7,4.8808375E6,5.23428E6,8.743438E6,5.59374E5,7.1744E5,3.1516318E7,1.9757554E7,9.394661E6,5.2253015E6,2.8931488E7,1.9685492E7,2.2895056E7,8.046882E6,2.760664E6,1.1384388E7,2.13914E5,8.882278E6,4.49262E5,2.688625E4,7.84768E5,2.2892E5,0E0,0E0,0E0,0E0,0E0,0E0,0E0,0E0,0E0,0E0,0E0,0E0,0E0,0E0,0E0,0E0,0E0,0E0,0E0,0E0,0E0,0E0,0E0,0E0,0E0,0E0,0E0,0E0,0E0,0E0,0E0,0E0],"parents":[2147483647,0,0,1,1,2,2,3,3,4,4,5,5,6,6,7,7,8,8,9,9,10,10,11,11,12,12,13,13,14,14,15,15,16,16,17,17,18,18,19,19,20,20,21,21,22,22,23,23,24,24,25,25,26,26,27,27,28,28,29,29,30,30],"right_children":[2,4,6,8,10,12,14,16,18,20,22,24,26,28,30,32,34,36,38,40,42,44,46,48,50,52,54,56,58,60,62,-1,-1,-1,-1,-1,-1,-1,-1,-1,-1,-1,-1,-1,-1,-1,-1,-1,-1,-1,-1,-1,-1,-1,-1,-1,-1,-1,-1,-1,-1,-1,-1],"split_conditions":[9.657E3,2.064E3,1.1582E4,1.2566E4,6.405E3,1.2579E4,1.1583E4,1.2528E4,2.037E3,2.46E3,6.481E3,1.2487E4,1.1579E4,1.239E4,1.1767E4,1.251E4,6E2,1.2579E4,1.2579E4,2E2,1.2382E4,1.2382E4,1.246E4,2.393E3,1.1581E4,1.1556E4,1.1581E4,2.404E3,1.2487E4,2.394E3,2E2,-1.866908E1,1.2301234E2,3.0329645E2,-1.0985789E2,4.235481E2,9.051422E1,-4.906486E1,1.04161125E2,1.9337456E1,-8.871693E1,2.778331E2,7.3141365E1,1.0903481E1,-5.8105038E1,1.8081577E1,-6.1386013E0,2.162578E1,3.9591152E1,1.2466458E1,-2.4590381E2,1.0153484E2,1.4818298E2,-4.5491113E2,1.21388916E2,5.8802208E1,3.7637196E1,7.639082E1,1.1256097E2,4.1854507E1,3.943833E1,5.6117687E1,4.5107407E1],"split_indices":[0,0,0,1,0,1,0,1,0,1,0,1,0,1,0,1,2,1,1,2,1,1,1,1,0,0,0,1,1,1,2,0,0,0,0,0,0,0,0,0,0,0,0,0,0,0,0,0,0,0,0,0,0,0,0,0,0,0,0,0,0,0,0],"split_type":[0,0,0,0,0,0,0,0,0,0,0,0,0,0,0,0,0,0,0,0,0,0,0,0,0,0,0,0,0,0,0,0,0,0,0,0,0,0,0,0,0,0,0,0,0,0,0,0,0,0,0,0,0,0,0,0,0,0,0,0,0,0,0],"sum_hessian":[1.328E5,1.66E4,1.162E5,4.137E3,1.2463E4,8.116E3,1.08084E5,4.021E3,1.16E2,3.645E3,8.818E3,8.041E3,7.5E1,4.29E2,1.07655E5,3.797E3,2.24E2,3.4E1,8.2E1,3.391E3,2.54E2,2.552E3,6.266E3,7.65E3,3.91E2,6.7E1,8E0,3.95E2,3.4E1,1.06591E5,1.064E3,3.651E3,1.46E2,1E1,2.14E2,1.1E1,2.3E1,5E1,3.2E1,3.152E3,2.39E2,5.3E1,2.01E2,2.001E3,5.51E2,4.576E3,1.69E3,8.73E2,6.777E3,3.76E2,1.5E1,2.7E1,4E1,4E0,4E0,2.34E2,1.61E2,2.3E1,1.1E1,1.4281E4,9.231E4,2.44E2,8.2E2],"tree_param":{"num_deleted":"0","num_feature":"3","num_nodes":"63","size_leaf_vector":"1"}},{"base_weights":[-2.5507172E1,-4.798072E1,1.1635813E2,-1.5353291E2,-4.7676517E1,4.189069E1,1.349004E2,-3.0543798E1,-5.7693396E2,1.1285948E2,-4.804206E1,4.1029385E1,4.7410065E2,1.5225032E2,7.7724205E1,-1.1016454E2,4.9257297E2,-7.7987805E2,-2.7604818E1,3.1224564E1,2.7429056E2,-4.747038E1,-1.10119484E2,5.482191E1,-6.4504E1,3.7107724E2,1.4564862E2,-1.2909668E2,9.897344E1,-2.2062489E1,-3.8923676E1,5.1078488E2,-2.0328325E2,-1.7528107E2,-5.0789954E2,2.2497185E2,-3.4428268E2,-4.1685806E1,4.9602077E1,-5.962875E0,-1.4898151E1,-7.58361E1,-1.1121878E1,1.4343398E1,6.254459E2,-1.253695E3,-1.0424623E1,-4.399168E2,1.17805016E2,4.032916E1,8.1744316E1,-3.095191E2,2.7688649E0,4.725778E1,5.3251534E0],"categories":[],"categories_nodes":[],"categories_segments":[],"categories_sizes":[],"default_left":[0,0,0,0,0,0,0,0,0,0,0,0,0,0,0,0,0,0,0,0,0,0,0,0,0,0,0,0,0,0,0,0,0,0,0,0,0,0,0,0,0,0,0,0,0,0,0,0,0,0,0,0,0,0,0],"id":34,"left_children":[1,3,5,7,9,11,13,15,17,19,21,23,-1,25,27,29,31,33,35,37,-1,39,41,43,45,47,49,51,53,-1,-1,-1,-1,-1,-1,-1,-1,-1,-1,-1,-1,-1,-1,-1,-1,-1,-1,-1,-1,-1,-1,-1,-1,-1,-1],"loss_changes":[4.2340403E8,3.67376E6,2.5070976E7,1.7114634E7,6.713632E6,4.7345565E6,1.4411888E7,1.0716906E7,8.228218E6,1.6982128E7,4.0424E6,5.274162E6,0E0,1.605936E7,1.4897918E7,1.5037475E5,4.9296788E7,8.655962E6,1.9147724E7,5.4321295E6,0E0,6.829008E6,1.0828851E7,4.548373E7,5.1151852E7,1.351822E7,1.5371072E7,3.946462E7,1.4607036E7,0E0,0E0,0E0,0E0,0E0,0E0,0E0,0E0,0E0,0E0,0E0,0E0,0E0,0E0,0E0,0E0,0E0,0E0,0E0,0E0,0E0,0E0,0E0,0E0,0E0,0E0],"parents":[2147483647,0,0,1,1,2,2,3,3,4,4,5,5,6,6,7,7,8,8,9,9,10,10,11,11,13,13,14,14,15,15,16,16,17,17,18,18,19,19,21,21,22,22,23,23,24,24,25,25,26,26,27,27,28,28],"right_children":[2,4,6,8,10,12,14,16,18,20,22,24,-1,26,28,30,32,34,36,38,-1,40,42,44,46,48,50,52,54,-1,-1,-1,-1,-1,-1,-1,-1,-1,-1,-1,-1,-1,-1,-1,-1,-1,-1,-1,-1,-1,-1,-1,-1,-1,-1],"split_conditions":[2.46E3,2.032E3,1.237E4,2.413E3,2.037E3,1.1842E4,1.1664E4,7E2,2.441E3,2.448E3,2.441E3,1.1581E4,4.7410065E2,1.2382E4,1.1668E4,5E2,2.405E3,2.426E3,2.448E3,7E2,2.7429056E2,6.6E3,2E2,1.1541E4,1.1589E4,2.044E3,1.1652E4,1.2397E4,1.2466E4,-2.2062489E1,-3.8923676E1,5.1078488E2,-2.0328325E2,-1.7528107E2,-5.0789954E2,2.2497185E2,-3.4428268E2,-4.1685806E1,4.9602077E1,-5.962875E0,-1.4898151E1,-7.58361E1,-1.1121878E1,1.4343398E1,6.254459E2,-1.253695E3,-1.0424623E1,-4.399168E2,1.17805016E2,4.032916E1,8.1744316E1,-3.095191E2,2.7688649E0,4.725778E1,5.3251534E0],"split_indices":[1,0,1,1,0,0,0,2,1,1,1,0,0,1,0,2,1,1,1,2,0,0,2,0,0,0,0,1,1,0,0,0,0,0,0,0,0,0,0,0,0,0,0,0,0,0,0,0,0,0,0,0,0,0,0],"split_type":[0,0,0,0,0,0,0,0,0,0,0,0,0,0,0,0,0,0,0,0,0,0,0,0,0,0,0,0,0,0,0,0,0,0,0,0,0,0,0,0,0,0,0,0,0,0,0,0,0,0,0,0,0,0,0],"sum_hessian":[1.328E5,1.1464E5,1.816E4,3.28E2,1.14312E5,3.621E3,1.4539E4,2.55E2,7.3E1,2.59E2,1.14053E5,3.62E3,1E0,1.1153E4,3.386E3,2.22E2,3.3E1,5.3E1,2E1,2.36E2,2.3E1,1.13014E5,1.039E3,3.202E3,4.18E2,3.25E2,1.0828E4,3.15E2,3.071E3,7.9E1,1.43E2,1.6E1,1.7E1,4.5E1,8E0,1.2E1,8E0,1.04E2,1.32E2,8.311E3,1.04703E5,3.51E2,6.88E2,3.192E3,1E1,2E0,4.16E2,3E0,3.22E2,9.95E3,8.78E2,4.1E1,2.74E2,1.784E3,1.287E3],"tree_param":{"num_deleted":"0","num_feature":"3","num_nodes":"55","size_leaf_vector":"1"}},{"base_weights":[-9.1784004E1,-9.481015E1,-8.53035E1,-2.8572935E1,-9.304747E1,-2.6238924E1,-8.333307E1,-2.8011393E1,-9.082024E1,-2.508491E1,-2.46089E1,-2.863503E1,-8.805561E1,-2.4420137E1,-2.7185026E1],"categories":[],"categories_nodes":[],"categories_segments":[],"categories_sizes":[],"default_left":[0,0,0,0,0,0,0,0,0,0,0,0,0,0,0],"id":35,"left_children":[1,3,5,-1,7,-1,9,-1,11,-1,-1,-1,13,-1,-1],"loss_changes":[2.596352E6,6.0224E4,1.72608E5,0E0,4.432E3,0E0,1.312E3,0E0,2.1136E4,0E0,0E0,0E0,1.7475E4,0E0,0E0],"parents":[2147483647,0,0,1,1,2,2,4,4,6,6,8,8,12,12],"right_children":[2,4,6,-1,8,-1,10,-1,12,-1,-1,-1,14,-1,-1],"split_conditions":[5E2,2E2,6E2,-2.8572935E1,3E2,-2.6238924E1,2.424E3,-2.8011393E1,1.155E4,-2.508491E1,-2.46089E1,-2.863503E1,1.1608E4,-2.4420137E1,-2.7185026E1],"split_indices":[2,2,2,0,2,0,1,0,0,0,0,0,0,0,0],"split_type":[0,0,0,0,0,0,0,0,0,0,0,0,0,0,0],"sum_hessian":[1.328E5,9.0518E4,4.2282E4,7.2626E4,1.7892E4,2.0152E4,2.213E4,1.5585E4,2.307E3,1.8127E4,4.003E3,8.5E2,1.457E3,4.14E2,1.043E3],"tree_param":{"num_deleted":"0","num_feature":"3","num_nodes":"15","size_leaf_vector":"1"}},{"base_weights":[8.218384E1,6.5376563E0,9.22234E1,1.8209358E1,-6.1808952E1,5.9642467E1,9.265939E1,9.612833E0,2.6810922E2,-3.375102E2,-3.2056866E1,-5.189584E2,6.2978672E1,9.252825E1,1.2125115E2,-9.23858E2,1.619509E1,8.551419E2,-2.4326987E2,-3.9918903E2,3.0114966E2,-5.9383774E1,9.7263E1,3.1195795E2,-2.284777E3,4.679742E2,5.7083218E1,1.0163227E2,9.215885E1,1.1530415E2,1.4662572E2,-3.3260492E2,-1.0117526E2,2.4466548E0,1.3419156E1,5.2673566E2,1.9622678E2,-1.4807362E2,-3.5917164E1,-8.992257E1,-2.9104886E2,-5.6962215E1,-9.783713E0,4.659353E1,-7.656392E1,-6.432653E1,2.2810445E2,1.1249136E2,-1.1406411E3,3.257405E1,2.452492E2,1.2862365E1,3.675468E1,5.548472E1,2.985383E1,2.3731298E1,2.7752432E1,2.8252886E1,3.4995995E1,5.0796955E1,3.978939E1],"categories":[],"categories_nodes":[],"categories_segments":[],"categories_sizes":[],"default_left":[0,0,0,0,0,0,0,0,0,0,0,0,0,0,0,0,0,0,0,0,0,0,0,0,0,0,0,0,0,0,0,0,0,0,0,0,0,0,0,0,0,0,0,0,0,0,0,0,0,0,0,0,0,0,0,0,0,0,0,0,0],"id":36,"left_children":[1,3,5,7,9,11,13,15,17,19,21,23,25,27,29,31,33,35,37,39,-1,41,43,45,47,49,51,53,55,57,59,-1,-1,-1,-1,-1,-1,-1,-1,-1,-1,-1,-1,-1,-1,-1,-1,-1,-1,-1,-1,-1,-1,-1,-1,-1,-1,-1,-1,-1,-1],"loss_changes":[1.0085562E8,1.2414466E7,1.659904E6,2.8552232E7,1.860928E7,3.026628E6,4.22592E5,7.897593E7,1.3289476E8,1.8684584E7,7.250296E6,1.3917983E7,3.6574025E6,3.77984E5,6.23165E4,9.383864E6,2.9273998E6,3.615339E7,7.270049E6,1.174692E7,0E0,5.908146E6,7.364603E6,1.8151998E6,1.3533075E7,2.6747995E6,1.4097615E6,7.72892E5,4.97344E5,1.2715E3,8.03575E3,0E0,0E0,0E0,0E0,0E0,0E0,0E0,0E0,0E0,0E0,0E0,0E0,0E0,0E0,0E0,0E0,0E0,0E0,0E0,0E0,0E0,0E0,0E0,0E0,0E0,0E0,0E0,0E0,0E0,0E0],"parents":[2147483647,0,0,1,1,2,2,3,3,4,4,5,5,6,6,7,7,8,8,9,9,10,10,11,11,12,12,13,13,14,14,15,15,16,16,17,17,18,18,19,19,21,21,22,22,23,23,24,24,25,25,26,26,27,27,28,28,29,29,30,30],"right_children":[2,4,6,8,10,12,14,16,18,20,22,24,26,28,30,32,34,36,38,40,-1,42,44,46,48,50,52,54,56,58,60,-1,-1,-1,-1,-1,-1,-1,-1,-1,-1,-1,-1,-1,-1,-1,-1,-1,-1,-1,-1,-1,-1,-1,-1,-1,-1,-1,-1,-1,-1],"split_conditions":[6.578E3,7E2,1.1541E4,6E2,2.032E3,2.385E3,1.1842E4,2.032E3,2.041E3,1.2579E4,2.05E3,2E2,2.389E3,2.389E3,2.43E3,2.41E3,6.829E3,2.395E3,2.05E3,1.2519E4,3.0114966E2,2.416E3,1.2519E4,9.657E3,2.381E3,2.387E3,6E2,1.1568E4,1.1568E4,2.399E3,1.2487E4,-3.3260492E2,-1.0117526E2,2.4466548E0,1.3419156E1,5.2673566E2,1.9622678E2,-1.4807362E2,-3.5917164E1,-8.992257E1,-2.9104886E2,-5.6962215E1,-9.783713E0,4.659353E1,-7.656392E1,-6.432653E1,2.2810445E2,1.1249136E2,-1.1406411E3,3.257405E1,2.452492E2,1.2862365E1,3.675468E1,5.548472E1,2.985383E1,2.3731298E1,2.7752432E1,2.8252886E1,3.4995995E1,5.0796955E1,3.978939E1],"split_indices":[0,2,0,2,0,1,0,0,0,1,0,2,1,1,1,1,1,1,0,1,0,1,1,0,1,1,2,0,0,1,1,0,0,0,0,0,0,0,0,0,0,0,0,0,0,0,0,0,0,0,0,0,0,0,0,0,0,0,0,0,0],"split_type":[0,0,0,0,0,0,0,0,0,0,0,0,0,0,0,0,0,0,0,0,0,0,0,0,0,0,0,0,0,0,0,0,0,0,0,0,0,0,0,0,0,0,0,0,0,0,0,0,0,0,0,0,0,0,0,0,0,0,0,0,0],"sum_hessian":[1.328E5,1.556E4,1.1724E5,1.3291E4,2.269E3,1.55E3,1.1569E5,1.285E4,4.41E2,2.2E2,2.049E3,8E0,1.542E3,1.15166E5,5.24E2,8.9E1,1.2761E4,2.05E2,2.36E2,2.11E2,9E0,1.692E3,3.57E2,6E0,2E0,2.1E1,1.521E3,4.48E3,1.10686E5,4.29E2,9.5E1,6.7E1,2.2E1,9.957E3,2.804E3,3.6E1,1.69E2,7.7E1,1.59E2,1.81E2,3E1,2.87E2,1.405E3,3.07E2,5E1,3E0,3E0,1E0,1E0,1.1E1,1E1,1.251E3,2.7E2,1.09E2,4.371E3,2.89E3,1.07796E5,3E1,3.99E2,3.2E1,6.3E1],"tree_param":{"num_deleted":"0","num_feature":"3","num_nodes":"61","size_leaf_vector":"1"}},{"base_weights":[-1.7862402E1,-3.3921944E1,8.006829E1,-3.3357365E1,-1.5084021E2,-9.246871E0,9.0341675E1,-6.7566284E1,-3.214416E1,-5.457338E2,4.0610607E1,-4.7499985E2,6.707485E1,1.1004289E2,5.5768078E1,-9.686587E1,6.3041084E1,2.31894E1,-3.4762455E1,8.265217E1,-7.511534E2,-1.3802177E2,3.3170874E2,-2.3183481E3,-3.5073453E2,-7.545688E0,3.7957193E2,1.2218609E2,-1.7952679E1,3.9273895E1,2.4513412E2,-2.627016E1,-2.0654567E2,1.2302436E2,-5.9218052E1,-1.6874094E1,4.999966E1,-1.1996889E1,-9.937493E0,-2.3665862E2,2.8517184E2,-5.049998E2,-1.5719742E2,5.573559E1,-3.3044415E2,1.0272015E3,3.5988464E1,5.3465454E2,-8.058053E2,-2.6159476E2,1.2510271E1,-2.3071324E2,1.6330708E1,3.617006E1,1.6965564E2,3.4049923E1,1.19876884E2,-4.540312E1,3.9979534E1,-6.662312E1,1.5515645E1,1.8066678E2,4.2618313E1],"categories":[],"categories_nodes":[],"categories_segments":[],"categories_sizes":[],"default_left":[0,0,0,0,0,0,0,0,0,0,0,0,0,0,0,0,0,0,0,0,0,0,0,0,0,0,0,0,0,0,0,0,0,0,0,0,0,0,0,0,0,0,0,0,0,0,0,0,0,0,0,0,0,0,0,0,0,0,0,0,0,0,0],"id":37,"left_children":[1,3,5,7,9,11,13,15,17,19,21,23,25,27,29,31,33,35,37,39,41,43,45,47,49,51,53,55,57,59,61,-1,-1,-1,-1,-1,-1,-1,-1,-1,-1,-1,-1,-1,-1,-1,-1,-1,-1,-1,-1,-1,-1,-1,-1,-1,-1,-1,-1,-1,-1,-1,-1],"loss_changes":[2.0886178E8,7.526136E6,1.7168568E7,4.710216E6,4.145245E7,6.867325E7,1.1423424E7,1.4884478E7,1.5888E7,2.3167896E7,1.9285616E7,6.149236E7,3.8711904E7,1.6614272E7,1.9021482E7,1.741176E7,6.4522772E7,5.6482616E7,8.9488E5,3.47881E7,2.770496E7,7.1958824E7,9.191395E7,3.0416848E7,5.2402736E7,6.3335356E7,1.5343392E7,2.3477376E7,1.8718778E7,1.8244956E7,1.7875878E7,0E0,0E0,0E0,0E0,0E0,0E0,0E0,0E0,0E0,0E0,0E0,0E0,0E0,0E0,0E0,0E0,0E0,0E0,0E0,0E0,0E0,0E0,0E0,0E0,0E0,0E0,0E0,0E0,0E0,0E0,0E0,0E0],"parents":[2147483647,0,0,1,1,2,2,3,3,4,4,5,5,6,6,7,7,8,8,9,9,10,10,11,11,12,12,13,13,14,14,15,15,16,16,17,17,18,18,19,19,20,20,21,21,22,22,23,23,24,24,25,25,26,26,27,27,28,28,29,29,30,30],"right_children":[2,4,6,8,10,12,14,16,18,20,22,24,26,28,30,32,34,36,38,40,42,44,46,48,50,52,54,56,58,60,62,-1,-1,-1,-1,-1,-1,-1,-1,-1,-1,-1,-1,-1,-1,-1,-1,-1,-1,-1,-1,-1,-1,-1,-1,-1,-1,-1,-1,-1,-1,-1,-1],"split_conditions":[2.448E3,2.441E3,6.421E3,6.346E3,2E2,2E2,1.1637E4,7E2,6.6E3,6.492E3,6.545E3,6.673E3,2.05E3,1.2555E4,1.2555E4,2.436E3,2.41E3,2.41E3,1.1613E4,6.438E3,6.52E3,6.481E3,6.564E3,6.346E3,6.375E3,6E2,6.829E3,1.2547E4,6E2,1.164E4,3E2,-2.627016E1,-2.0654567E2,1.2302436E2,-5.9218052E1,-1.6874094E1,4.999966E1,-1.1996889E1,-9.937493E0,-2.3665862E2,2.8517184E2,-5.049998E2,-1.5719742E2,5.573559E1,-3.3044415E2,1.0272015E3,3.5988464E1,5.3465454E2,-8.058053E2,-2.6159476E2,1.2510271E1,-2.3071324E2,1.6330708E1,3.617006E1,1.6965564E2,3.4049923E1,1.19876884E2,-4.540312E1,3.9979534E1,-6.662312E1,1.5515645E1,1.8066678E2,4.2618313E1],"split_indices":[1,1,0,0,2,2,0,2,0,0,0,1,0,1,1,1,1,1,0,0,0,0,0,0,0,2,1,1,2,0,2,0,0,0,0,0,0,0,0,0,0,0,0,0,0,0,0,0,0,0,0,0,0,0,0,0,0,0,0,0,0,0,0],"split_type":[0,0,0,0,0,0,0,0,0,0,0,0,0,0,0,0,0,0,0,0,0,0,0,0,0,0,0,0,0,0,0,0,0,0,0,0,0,0,0,0,0,0,0,0,0,0,0,0,0,0,0,0,0,0,0,0,0,0,0,0,0,0,0],"sum_hessian":[1.328E5,1.14091E5,1.8709E4,1.13544E5,5.47E2,1.93E3,1.6779E4,3.887E3,1.09657E5,1.78E2,3.69E2,2.71E2,1.659E3,1.0687E4,6.092E3,3.175E3,7.12E2,4.954E3,1.04703E5,4.4E1,1.34E2,2.29E2,1.4E2,1.6E1,2.55E2,1.34E3,3.19E2,9.761E3,9.26E2,5.605E3,4.87E2,3.127E3,4.8E1,3.05E2,4.07E2,3.189E3,1.765E3,2.497E4,7.9733E4,2.2E1,2.2E1,2.5E1,1.09E2,1.72E2,5.7E1,8E0,1.32E2,1E0,1.5E1,1.09E2,1.46E2,1E2,1.24E3,1.34E2,1.85E2,9.466E3,2.95E2,4.92E2,4.34E2,2.54E2,5.351E3,1.08E2,3.79E2],"tree_param":{"num_deleted":"0","num_feature":"3","num_nodes":"63","size_leaf_vector":"1"}},{"base_weights":[-6.42504E1,-6.6368614E1,-5.9714233E1,-2.000117E1,-6.513928E1,-6.1225426E1,-5.8335407E1,-1.9608519E1,-6.360893E1,-1.8541334E1,-1.8252684E1,-5.853285E1,-1.7228079E1,-2.0054611E1,-6.167432E1,-5.9834026E1,-5.8318348E1,-1.8014534E1,-2.117957E1,-1.7714525E1,-1.8798689E1,-1.7254091E1,-1.7606138E1],"categories":[],"categories_nodes":[],"categories_segments":[],"categories_sizes":[],"default_left":[0,0,0,0,0,0,0,0,0,0,0,0,0,0,0,0,0,0,0,0,0,0,0],"id":38,"left_children":[1,3,5,-1,7,9,11,-1,13,-1,-1,15,-1,-1,17,19,21,-1,-1,-1,-1,-1,-1],"loss_changes":[1.272128E6,2.9248E4,8.4528E4,0E0,1.928E3,7.12E2,6.08E2,0E0,1.0344E4,0E0,0E0,1.568E3,0E0,0E0,1.69155E4,1.915E3,1.256E3,0E0,0E0,0E0,0E0,0E0,0E0],"parents":[2147483647,0,0,1,1,2,2,4,4,5,5,6,6,8,8,11,11,14,14,15,15,16,16],"right_children":[2,4,6,-1,8,10,12,-1,14,-1,-1,16,-1,-1,18,20,22,-1,-1,-1,-1,-1,-1],"split_conditions":[5E2,2E2,6E2,-2.000117E1,3E2,2.402E3,2.424E3,-1.9608519E1,1.155E4,-1.8541334E1,-1.8252684E1,1.1574E4,-1.7228079E1,-2.0054611E1,1.1674E4,1.1566E4,2.399E3,-1.8014534E1,-2.117957E1,-1.7714525E1,